{
    "ac_kwargs":	{
        "activation":	"tanh",
        "hidden_sizes":	[
            256,
            128
        ],
        "log_std":	"[-3.675706  -3.6758344 -3.675556  -3.6753297 -3.6758966 -3.6757183\n -3.6754544 -3.6757503 -3.6759102 -3.6757548 -3.6751826 -3.675447 ]",
        "pi_bias_list":	[
            "[-2.26866873e-03  2.34004762e-03  5.68634551e-03 -1.04980473e-03\n  2.07975763e-03 -8.73657130e-03 -9.79427947e-04 -3.88955302e-03\n -2.13556853e-03 -1.05065722e-02  9.44434293e-03  6.38777448e-04\n -7.86219537e-03  1.18931504e-02  8.39348882e-03 -3.28897382e-03\n -3.09010642e-03  1.93830766e-03 -6.77739969e-03  1.13399774e-02\n -1.32275308e-02 -1.13745397e-02  3.04280245e-03  3.02891829e-03\n -5.73774194e-03 -9.02825966e-03  1.00628184e-02  4.10352834e-03\n  7.36056222e-03 -1.14131405e-03  1.45996967e-02 -6.43746601e-03\n -1.01685226e-02  2.94281524e-02  4.61563189e-03 -1.82551588e-03\n -2.82774959e-03  9.44065768e-03 -1.56351260e-03  8.21495894e-03\n  9.18479543e-03  1.63304037e-03 -9.05985665e-03  1.89691444e-03\n  4.59305616e-03  3.92117444e-03 -1.57364029e-02  4.44733817e-03\n -9.92257893e-03 -1.64121203e-02  4.51740902e-03  6.35873934e-04\n -5.44654252e-03 -6.13312819e-04 -3.57283792e-03  3.69601254e-03\n  5.47380885e-03  5.65248018e-04  3.74878496e-02 -8.43697228e-03\n  7.90585112e-03 -6.05066447e-03  4.04194323e-03  7.15844042e-04\n -1.91822555e-03  3.70446593e-03 -1.48841657e-03 -2.97773688e-04\n  4.44904203e-03 -3.10425390e-03 -1.27499430e-02  6.80286018e-03\n  2.86878459e-03 -6.86890818e-03  4.90901899e-03  1.56819948e-03\n -1.82155091e-02 -1.68929622e-03 -2.14431286e-02  1.80068929e-02\n  6.46435830e-04  7.53050111e-03  5.12570562e-03  5.03750797e-03\n  2.80454159e-02  2.52007833e-03 -5.90122305e-03  3.41390772e-03\n -1.23787364e-02  8.81531625e-04  2.53442880e-02 -9.97269340e-03\n  2.70300126e-03  9.47753433e-03  2.39682849e-02  6.18289737e-03\n  9.92270303e-04 -3.31162638e-03  9.46811773e-03  1.90816876e-02\n -1.17358938e-02  1.02380197e-03 -1.01649780e-02 -7.08581507e-03\n  3.16688195e-02 -9.34941322e-03 -1.38774682e-02 -1.04079200e-02\n -3.33848968e-03 -1.32506825e-02 -3.50491935e-03 -2.13680472e-02\n  4.37532552e-03 -3.19298985e-03 -1.20431660e-02  4.19059442e-03\n  1.22455088e-02 -2.69925385e-03 -2.40754423e-04  4.30517551e-03\n -4.81009856e-03  5.85774705e-03 -2.14150455e-03 -2.08538268e-06\n -3.44777070e-02 -5.45316655e-03  1.17161619e-02 -3.42169800e-03\n  1.57997292e-02  9.12387259e-05 -1.54327508e-03  1.34212151e-02\n  8.87591334e-04  2.36108038e-03 -6.47064904e-03  1.04811881e-02\n  1.29252514e-02  5.21741901e-03  9.42315534e-03  1.16511425e-02\n -1.08160377e-02 -3.93553264e-03  3.88046517e-03  1.32084191e-02\n  1.62871182e-02 -4.95736441e-03 -3.82510759e-03  1.21872155e-02\n -1.18254591e-02  1.51213240e-02  1.84417551e-03 -4.83619049e-03\n  2.23330851e-03  2.70242314e-03 -6.28356403e-03  9.37636103e-03\n  7.32381735e-03  3.99252120e-03  2.20479956e-03 -1.28630409e-02\n -2.47384910e-03  1.31773693e-03  1.20490985e-02 -5.55895828e-03\n  1.17140086e-02 -6.80596195e-03 -3.94041371e-03 -1.84645839e-02\n -1.94430891e-02  2.82420008e-03  9.01598018e-04 -5.04940096e-03\n -7.23469816e-03 -5.26266824e-03  4.95380675e-03 -2.10239505e-03\n  7.79471768e-04  6.31800201e-03  4.16317070e-03  6.74076332e-03\n  1.01582417e-02  1.41845895e-02 -4.69535775e-03  1.58915147e-02\n  2.69739598e-04  1.08920243e-02  3.98072181e-03 -2.89210770e-03\n -1.13093471e-02 -1.13596907e-02 -4.00529755e-03 -7.65313068e-03\n -7.98901636e-03 -3.06190201e-03  1.56140683e-04  6.99387258e-03\n  9.50228539e-04  8.79123574e-04  4.68303589e-03 -5.29938424e-03\n  3.17293988e-03  1.81974228e-02 -3.48192360e-03 -2.95821298e-02\n -8.46198853e-03 -4.80686780e-03 -1.57790761e-02 -5.63766807e-04\n -3.21647327e-04 -9.75700933e-03 -5.06782299e-03  6.28062931e-04\n -3.76427057e-03 -1.07605048e-02 -4.87429649e-03 -2.60077068e-04\n  5.02283964e-03  4.11304599e-03 -1.07600344e-02  1.34813692e-02\n  4.13283426e-03  5.78940206e-04  1.24278003e-02  8.01725686e-03\n -2.00465927e-03 -7.91386887e-03  1.32463062e-02  1.69219226e-02\n  1.00219005e-03  1.31775264e-03  5.66809997e-03 -4.96053603e-03\n  1.22959502e-02  1.86035701e-03 -5.85426297e-03  1.93804372e-02\n  1.00842360e-02 -5.69006521e-03  3.14816163e-04  1.62094971e-03\n -5.06081618e-03 -2.40040966e-03 -2.33207806e-03  1.53398805e-03\n  2.30556703e-03 -4.63787280e-03  5.61823277e-03  9.03605483e-03\n  9.04855784e-03 -4.05354518e-03  5.03081176e-03  1.37553774e-02\n -5.12541924e-03 -3.30875465e-03  3.89921665e-03 -3.65213898e-04]",
            "[ 0.0026059   0.00500077 -0.00494374 -0.00182837  0.01830845  0.0230984\n  0.0113153   0.0121828  -0.00091244 -0.00843139  0.00065568 -0.02993222\n -0.00184983 -0.00463177  0.00931017  0.01024938  0.00152276 -0.00323775\n -0.00350277 -0.00054107 -0.00375048 -0.00234814  0.00715212 -0.00127346\n  0.02405007 -0.01615079 -0.00023885  0.00377328  0.00154345  0.02063875\n -0.00184349  0.0100662   0.01096524  0.01892954 -0.00997055  0.00047378\n  0.00406773  0.00600987  0.01144935  0.00492479 -0.00764169 -0.02204818\n -0.009442    0.01059966  0.01455185  0.00751853  0.01586442 -0.00978293\n -0.00830242  0.00288841  0.04525393 -0.00606018 -0.00607789 -0.00168927\n -0.02134157  0.00676614 -0.0134555   0.01028644  0.00271235 -0.00161481\n  0.00288363 -0.0129385   0.00064193  0.00498704 -0.00773779  0.00216425\n -0.00445365  0.01462986  0.01058915 -0.0051681   0.00688576  0.01063912\n -0.003107   -0.01330776  0.00333739 -0.00735305  0.00433564  0.01775469\n -0.00391973 -0.00955178 -0.01046638  0.00123731  0.00506021 -0.00934145\n -0.01248006  0.00711197 -0.00225364 -0.01296569  0.00763653 -0.01015422\n  0.02327492 -0.00731129  0.01301066 -0.00670738  0.00994228 -0.0103231\n  0.00749908  0.01307101  0.01284525  0.00486363 -0.00986826 -0.00546106\n  0.04124596  0.01960362  0.00694214 -0.00851167 -0.00965273  0.01901594\n -0.00380107  0.01219206  0.00125258  0.00794395  0.00824632 -0.00609435\n  0.00338536 -0.00320615 -0.00741512  0.01785103  0.01085469  0.00661972\n -0.00530085 -0.02178619 -0.00515786  0.00931745  0.00303392  0.00123651\n -0.0028276   0.0087387 ]",
            "[ 0.00186902  0.0041693  -0.00672828 -0.00303318 -0.00189194 -0.00619574\n -0.00275459 -0.00172229  0.00425776 -0.00017421 -0.00681914  0.00675929]"
        ],
        "pi_weight_list":	[
            "[[ 7.29917735e-02 -2.13296115e-02  4.38548587e-02 ...  1.02507226e-01\n  -1.25307009e-01  6.02411367e-02]\n [ 4.93423007e-02 -1.14199005e-01  1.08428232e-01 ... -6.48551807e-02\n  -9.02570039e-02  2.34836079e-02]\n [-1.11114569e-01 -1.53421188e-05 -9.24581885e-02 ... -8.76067728e-02\n  -1.68968458e-02 -7.50766098e-02]\n ...\n [-4.74794917e-02 -1.14838168e-01  1.16267232e-02 ... -4.38723303e-02\n   8.74706060e-02 -9.85776260e-02]\n [-7.81904981e-02  1.28167430e-02  1.29347779e-02 ...  6.75929524e-03\n  -1.34285539e-01 -2.86157914e-02]\n [-1.55736762e-03 -4.26217988e-02 -1.26902744e-01 ...  2.10831072e-02\n   2.71339668e-04  5.06293699e-02]]",
            "[[ 0.03721621  0.07833546 -0.06968977 ...  0.06854627 -0.00090124\n   0.13125195]\n [-0.09883823 -0.09727453  0.06801878 ...  0.0492202   0.06794716\n  -0.08744115]\n [ 0.07959905 -0.09809972 -0.06050668 ... -0.01427729 -0.07432552\n   0.07850597]\n ...\n [ 0.04717427  0.08729717  0.03363283 ...  0.04430109 -0.00142964\n   0.08585132]\n [-0.04337326  0.00145658  0.05188111 ...  0.01238682  0.03229754\n   0.11713542]\n [ 0.04486087  0.12447423  0.03527437 ... -0.10405062  0.03544698\n  -0.08969512]]",
            "[[ 0.10357468 -0.15454084 -0.0548829  ... -0.12176032  0.13214368\n   0.12818055]\n [-0.10062233  0.1319721  -0.07677354 ... -0.07561599 -0.10283955\n  -0.1469285 ]\n [-0.10419002  0.09533884  0.10037608 ... -0.05593157  0.02938154\n   0.04043919]\n ...\n [-0.13211347  0.08831263  0.14265253 ... -0.02846142 -0.08112101\n   0.10175798]\n [ 0.03417847 -0.09881133  0.16252671 ... -0.15181398  0.13991658\n  -0.00970017]\n [ 0.13524315  0.17301051  0.09408062 ... -0.18864642 -0.17017086\n  -0.18203765]]"
        ],
        "v_bias_list":	[
            "[-5.69695160e-02  1.79052297e-02  3.95380035e-02 -1.23189511e-02\n  4.76663932e-02  1.11602722e-02  5.52829681e-03 -9.92437126e-04\n -5.58245331e-02 -9.89929074e-04 -1.92150846e-02  8.63614585e-03\n  3.84571441e-02  2.80787926e-02 -1.19693493e-02 -7.17904270e-02\n -5.91016412e-02  9.51796100e-02  4.54951487e-02 -5.29966913e-02\n -9.15672556e-02  5.48629873e-02 -4.43154341e-03  2.41171643e-02\n -8.20783079e-02  3.51512916e-02  2.42294483e-02 -3.78979254e-03\n  3.76880392e-02  4.94571179e-02 -2.76629888e-02  2.34080702e-02\n  3.96464989e-02  4.95610125e-02  3.76575552e-02 -8.31022114e-02\n -1.00801200e-01 -5.18168099e-02  3.89175653e-03  1.87146217e-02\n  3.00508644e-03  3.13157332e-04  3.18623111e-02 -3.88358645e-02\n -5.08734807e-02 -1.43909287e-02  4.20287773e-02  9.36976634e-03\n  3.22365314e-02  3.34757604e-02  2.92707887e-02 -6.36329129e-02\n -2.41941237e-03 -2.92097703e-02  8.68328661e-02  1.80232823e-02\n  6.12800419e-02 -9.79820639e-02 -3.87779698e-02  8.70711133e-02\n -2.07016785e-02 -7.80978501e-02  1.52063863e-02  3.46743315e-02\n -4.32574451e-02 -4.74512316e-02  2.70156027e-03  3.16766240e-02\n -1.98927987e-02 -4.66940999e-02 -1.37641774e-02 -1.23863574e-02\n -7.28655548e-04 -1.22962212e-02  2.14287248e-02  1.15440920e-01\n  2.82475799e-02  5.28398305e-02 -6.05659336e-02  2.05279328e-02\n -2.30095796e-02 -3.24467644e-02  3.15216370e-02  8.04346427e-02\n -1.04527891e-01 -6.48822188e-02  3.95536199e-02  4.88196462e-02\n  4.78403270e-02 -9.65697691e-03 -1.81188360e-02 -2.24110316e-02\n  6.79935738e-02 -1.49648180e-02  3.00495960e-02  3.14729437e-02\n  8.05722177e-02 -7.57755041e-02 -9.10610333e-02 -1.21278074e-02\n -3.69689614e-02 -1.15355486e-02 -3.21202651e-02  1.69200189e-02\n -7.25197494e-02  8.19763318e-02  1.01735117e-02 -2.11906694e-02\n -9.66280699e-02  9.96047966e-05  3.44202854e-04  7.52662122e-02\n -2.95587424e-02 -4.45380099e-02 -8.80999025e-03  2.56170034e-02\n  1.18217757e-02 -6.46280299e-04  2.36629825e-02 -2.50742584e-03\n -8.47590193e-02  8.38546362e-03 -7.94343352e-02  1.10606454e-01\n  2.09563877e-02 -8.66798460e-02  3.07368450e-02  5.90884127e-03\n  2.29553580e-02 -7.97371194e-02 -2.83439327e-02  7.43135288e-02\n  1.92339998e-02  1.07498206e-01  6.41486943e-02  2.71217106e-03\n  3.99827659e-02  6.23705611e-03  6.57049753e-03  4.77723777e-02\n  4.78811264e-02 -6.42370880e-02  2.81670932e-02  1.76738407e-02\n  9.82425064e-02 -7.86639675e-02 -9.99051929e-02  7.62799680e-02\n  7.90669769e-02  3.07472441e-02 -1.39277847e-02  1.21269776e-02\n -2.93056923e-03  5.49630895e-02  1.87388565e-02 -1.51041802e-02\n -4.52168994e-02 -2.42546722e-02 -8.71323198e-02 -7.10498425e-04\n -2.83341967e-02  7.60580087e-03  1.35627845e-02 -1.02515426e-02\n  5.99473864e-02  7.04348460e-02  4.74296957e-02  6.01974491e-04\n  5.00053614e-02 -1.05023971e-02 -5.73933823e-03  4.15908024e-02\n  3.78711894e-02  1.04714215e-01 -2.20964979e-02  1.30373817e-02\n  2.66123749e-02  1.74399558e-03 -5.07411584e-02 -3.74635570e-02\n  4.16263454e-02  6.22781776e-02 -4.25166897e-02  8.04926362e-03\n  1.01880040e-02 -3.08553986e-02  5.43075837e-02  5.86596318e-02\n -6.87809289e-02  9.32219177e-02 -3.95236500e-02  2.58550681e-02\n  1.62490252e-02 -8.35262835e-02  2.63583567e-02  6.61333576e-02\n -8.75327922e-03  2.12546177e-02  4.86536659e-02 -8.85185376e-02\n  4.39035296e-02  9.06843040e-03 -4.25803624e-02  1.28899768e-01\n  2.31182319e-03  5.21959784e-03 -1.04856335e-01  1.45862494e-02\n  8.27577412e-02 -7.59977475e-02 -7.88378343e-03  4.40452201e-03\n  5.19125350e-02 -9.83942896e-02  5.19857705e-02 -7.51605583e-03\n  1.26077654e-02  3.57948765e-02  1.55637497e-02  3.83633301e-02\n  2.55583897e-02  7.05597177e-02 -1.78680643e-02 -5.67673407e-02\n  9.72247683e-03  4.30535711e-02 -3.45006101e-02  5.25830574e-02\n -8.19068253e-02 -6.18199147e-02  1.37864957e-02  5.31152729e-03\n  3.72697995e-03  8.29252377e-02  5.69989011e-02  1.16986483e-02\n  4.69821952e-02 -3.40172239e-02  3.13262604e-02 -7.19514415e-02\n  8.52152035e-02 -7.39305764e-02 -1.04457889e-04  1.09587237e-02\n -1.81271639e-02  1.71408840e-02 -3.27115171e-02  4.75929007e-02\n  1.16205513e-01 -3.04532479e-02  4.02522236e-02  4.29564789e-02\n  1.08618304e-01  8.96859169e-03 -2.72519272e-02 -1.41514214e-02]",
            "[ 2.61820329e-04  2.80459017e-01 -7.77827054e-02  8.39694031e-03\n -4.40700762e-02  1.97121322e-01 -1.51047662e-01 -2.97720104e-01\n -2.96093524e-01  1.44689088e-03  7.64821796e-03 -2.05114745e-02\n -2.32213125e-01 -8.99022073e-02 -5.52655314e-04  1.84812967e-03\n -1.36639342e-01  2.96162367e-01  2.82642275e-01 -5.78107983e-02\n  3.81609760e-02  4.21342291e-02  2.91142583e-01 -7.61924386e-02\n -7.46587813e-02  2.76723336e-02 -3.38093303e-02  1.00372516e-01\n -3.26210350e-01 -1.64250001e-01 -8.55877846e-02 -3.55933681e-02\n  2.21583396e-02 -5.07550314e-03  1.57472659e-02 -3.37246768e-02\n -8.56597722e-03  1.00576887e-02 -2.85853863e-01 -2.93353163e-02\n -3.43893170e-02 -1.49602771e-01 -6.03856426e-03 -5.97765893e-02\n  2.77858347e-01 -1.36045530e-01  7.33601153e-02  1.50938064e-01\n  3.58110517e-02 -4.47351150e-02  4.30798791e-02  2.73289233e-01\n  6.03347383e-02  2.58960966e-02 -6.58704992e-03  2.90215760e-01\n -1.33769244e-01 -2.52801776e-01 -1.22815549e-01  2.80098855e-01\n -5.25069274e-02  1.61214862e-02  7.70644471e-02  1.11047380e-01\n  2.22709076e-03 -6.77082837e-02  9.99858603e-03  4.67193685e-02\n  2.56890636e-02  5.73371761e-02 -3.54998000e-03 -2.81559467e-01\n -5.85957319e-02  2.93721873e-02 -7.82428496e-03 -4.93334047e-02\n  2.48972699e-01  8.08346868e-02 -1.46581493e-02  1.12882137e-01\n  3.88706662e-02  3.50402780e-02 -2.69337058e-01 -3.41296755e-02\n  2.86399007e-01 -2.53682281e-03 -7.00789690e-02 -1.42570538e-02\n  1.58332020e-01  6.12505972e-02  1.98008213e-02  7.56310150e-02\n -2.72816241e-01 -6.02742750e-03  1.33755116e-03  2.81722806e-02\n  1.40626267e-01 -5.09336591e-03  5.83408363e-02  3.19385380e-02\n  2.62430429e-01 -3.04190479e-02  7.72008747e-02  1.74276918e-01\n -1.28098736e-02  3.93528305e-02  2.23281816e-01 -1.28156990e-01\n -3.63031887e-02 -2.84211636e-01 -1.75314769e-02 -1.97854951e-01\n -5.14658205e-02  1.24215350e-01 -6.26236806e-03  1.44631773e-01\n -2.77354211e-01 -6.04772894e-03  9.87045118e-04  5.62690198e-02\n -2.63561398e-01  3.23231705e-02 -3.41491923e-02 -3.34345065e-02\n  4.31229360e-04  4.09188010e-02  9.12543535e-02 -1.61002669e-02]",
            "[-0.03554303]"
        ],
        "v_weight_list":	[
            "[[ 0.0702934   0.02940183  0.33957434 ... -0.10350097  0.00155209\n   0.00299335]\n [-0.00777827  0.02110918  0.09794634 ... -0.02065838 -0.03194397\n  -0.00800859]\n [-0.19680163  0.13305837  0.43633464 ... -0.0162883   0.02597005\n  -0.03715275]\n ...\n [-0.00513082  0.13809699 -0.05537195 ... -0.08743405  0.07500335\n   0.25729612]\n [ 0.05636902  0.14702763 -0.16208972 ...  0.07941982  0.00921857\n   0.01842764]\n [-0.15863706  0.16537659 -0.41179672 ...  0.17697795 -0.02291032\n  -0.46677375]]",
            "[[ 0.04520729  0.03199704  0.0254179  ...  0.27966833 -0.12424755\n  -0.12594998]\n [-0.1447991   0.27404338  0.03435989 ...  0.09895659 -0.1040254\n   0.07762741]\n [ 0.19571441  0.128698   -0.09977391 ... -0.08851992 -0.03582877\n  -0.20662726]\n ...\n [-0.09450898 -0.21707933  0.12321114 ...  0.12153114 -0.23422419\n  -0.08082399]\n [ 0.38067332  0.00740604  0.16153501 ...  0.36010265 -0.00724978\n  -0.12108034]\n [ 0.11831123  0.26364484  0.48416215 ... -0.14814109  0.18425019\n  -0.0142301 ]]",
            "[[-5.93040362e-02]\n [-1.59248203e-01]\n [ 3.64742652e-02]\n [-6.55159801e-02]\n [-6.00000385e-06]\n [-8.17851797e-02]\n [ 1.60701111e-01]\n [ 2.39268601e-01]\n [ 2.06309244e-01]\n [ 2.98954779e-04]\n [ 4.35387343e-02]\n [-4.40571718e-02]\n [ 7.97284395e-02]\n [-1.33680966e-04]\n [-9.29617137e-02]\n [ 5.57318381e-05]\n [ 1.46575496e-01]\n [-2.20595762e-01]\n [-1.60846993e-01]\n [ 6.35945275e-02]\n [ 1.08925125e-03]\n [ 6.60978211e-03]\n [-1.96506917e-01]\n [ 1.53668642e-01]\n [-3.91923590e-03]\n [-5.49206622e-02]\n [-4.12633307e-02]\n [-1.18764251e-01]\n [ 2.25209057e-01]\n [-9.60986316e-02]\n [-4.10384469e-04]\n [-9.54262650e-05]\n [-2.42208433e-03]\n [-1.38570769e-02]\n [-6.19355880e-04]\n [-6.26024121e-05]\n [-8.04397389e-02]\n [-5.48019772e-03]\n [ 1.60769165e-01]\n [-3.12141925e-02]\n [ 4.33431827e-02]\n [-2.03892872e-01]\n [-1.03186056e-01]\n [ 1.72192693e-01]\n [-1.51964977e-01]\n [ 1.57863945e-01]\n [-3.66732711e-05]\n [ 1.49464935e-01]\n [-2.91431844e-02]\n [-3.28652095e-06]\n [-9.80866924e-02]\n [-1.41130015e-01]\n [-7.84866698e-03]\n [ 7.11008534e-02]\n [ 2.63393013e-05]\n [-1.87787518e-01]\n [ 7.97696039e-02]\n [ 1.53005362e-01]\n [-5.32506555e-02]\n [-1.27004206e-01]\n [ 1.12347111e-01]\n [ 5.24007939e-02]\n [-1.07905805e-01]\n [-1.04458623e-01]\n [-1.00950105e-02]\n [-1.11436240e-01]\n [-4.61650379e-02]\n [ 5.54439873e-02]\n [ 2.15027630e-02]\n [-4.22472507e-02]\n [ 3.33924545e-05]\n [ 1.79539576e-01]\n [ 7.92032108e-03]\n [-4.82132435e-02]\n [-2.60792896e-02]\n [ 8.10193047e-02]\n [-9.73468125e-02]\n [-8.04685205e-02]\n [ 3.90405403e-05]\n [-2.29265466e-02]\n [ 8.17429041e-04]\n [-5.46409413e-02]\n [ 1.47810444e-01]\n [ 8.47373530e-02]\n [-1.98750541e-01]\n [-4.17422925e-05]\n [ 1.93790287e-01]\n [ 6.09596827e-06]\n [-1.13239206e-01]\n [-1.05598725e-01]\n [-4.70386706e-02]\n [ 3.46628185e-05]\n [ 1.59046888e-01]\n [ 3.83258834e-02]\n [ 1.75133515e-02]\n [ 9.91863478e-03]\n [-5.14116436e-02]\n [ 4.92850970e-03]\n [ 1.14872359e-01]\n [ 1.39093855e-02]\n [-2.13259056e-01]\n [-3.26492591e-05]\n [-4.40996066e-02]\n [-1.83358774e-01]\n [-1.87776871e-02]\n [ 4.72227596e-02]\n [-1.43396080e-01]\n [ 1.29202023e-01]\n [ 6.54968098e-02]\n [ 1.91927046e-01]\n [-1.88442355e-03]\n [-8.52733627e-02]\n [ 3.18075909e-05]\n [-1.17333606e-01]\n [-1.18521733e-04]\n [-2.72227585e-01]\n [ 1.88244343e-01]\n [ 1.50815705e-02]\n [-9.68218371e-02]\n [ 7.70748556e-02]\n [ 1.63375765e-01]\n [-9.45527181e-02]\n [-6.16025291e-02]\n [ 2.53397878e-02]\n [-1.64788049e-02]\n [ 8.01095143e-02]\n [-7.54142106e-02]\n [ 1.73463002e-02]]"
        ]
    },
    "actor_critic":	"my_mlp_actor_critic",
    "clip_ratio":	0.2,
    "env_fn":	"Anymal",
    "epochs":	1000,
    "gamma":	0.99,
    "lam":	0.97,
    "load_path":	"/home/shawn/Documents/DRL/experiments/Tue Apr 28 22:50:31 2020",
    "logger":	{
        "<spinup.utils.logx.EpochLogger object at 0x7feeecb32fd0>":	{
            "epoch_dict":	{},
            "exp_name":	null,
            "first_row":	true,
            "log_current_row":	{},
            "log_headers":	[],
            "output_dir":	"/home/shawn/Documents/DRL/experiments/Fri May  1 12:45:24 2020",
            "output_file":	{
                "<_io.TextIOWrapper name='/home/shawn/Documents/DRL/experiments/Fri May  1 12:45:24 2020/progress.txt' mode='w' encoding='UTF-8'>":	{
                    "mode":	"w"
                }
            }
        }
    },
    "logger_kwargs":	{
        "output_dir":	"/home/shawn/Documents/DRL/experiments/Fri May  1 12:45:24 2020"
    },
    "max_ep_len":	1000,
    "on_policy":	true,
    "pi_lr":	0.0003,
    "save_freq":	10,
    "seed":	0,
    "steps_per_epoch":	4000,
    "target_kl":	0.05,
    "train_pi_iters":	80,
    "train_v_iters":	80,
    "vf_lr":	0.001
}