{
    "GUI":	false,
    "ac_kwargs":	{
        "activation":	"tanh",
        "hidden_sizes":	[
            256,
            128
        ],
        "log_std_list":	"[-0.35667494 -0.35667494 -0.35667494 -0.35667494 -0.35667494 -0.35667494\n -0.35667494 -0.35667494 -0.35667494 -0.35667494 -0.35667494 -0.35667494]",
        "pi_bias_list":	[
            "[-1.63165815e-02  1.39846295e-01 -2.04203967e-02 -2.88179107e-02\n  1.49649000e-02  1.57734752e-03  7.16186129e-03 -8.30100179e-02\n -5.14005870e-02  2.08117347e-02  6.20147737e-04  1.71698421e-01\n -1.16443448e-02  9.22762901e-02  6.90250248e-02  3.27732116e-02\n -5.62633835e-02 -5.81360273e-02 -1.03840739e-01  9.56046060e-02\n  2.73245089e-02  1.26017794e-01  2.82478686e-02  1.08468167e-01\n -6.21154830e-02 -4.05657627e-02  1.24225326e-01 -5.71162626e-02\n  1.19868470e-02  8.60425532e-02  4.21249494e-02  5.21371886e-02\n -7.96488896e-02  6.15847372e-02  2.75209025e-02 -1.00184292e-01\n  4.56570908e-02  1.01105347e-01  5.74618392e-02  7.37721100e-02\n -6.29150644e-02 -2.52029989e-02 -1.00050708e-02 -2.20003892e-02\n  5.52323535e-02 -6.55368669e-03 -1.09491065e-01 -8.07839409e-02\n  1.12680988e-02 -5.37015535e-02 -5.34088276e-02 -1.85390487e-01\n -7.09187984e-03  2.01048722e-04 -1.51334880e-02  3.94237973e-02\n  5.89508228e-02  5.71626686e-02  1.08040079e-01  2.84214169e-02\n  3.19343396e-02  3.86121543e-03  8.69590268e-02  3.46863829e-02\n  8.58750716e-02  2.46009883e-02 -8.49838108e-02  2.01934353e-02\n  1.18075803e-01 -7.20360056e-02 -9.24927592e-02  9.90957916e-02\n  8.16450715e-02 -3.12988423e-02  6.21743351e-02 -8.24116543e-02\n  3.09112053e-02 -2.06187014e-02  5.41084222e-02  1.20412186e-02\n -1.13387272e-01  2.84893438e-03 -5.86284697e-02 -5.05461283e-02\n  2.05474555e-01  7.72207677e-02  1.74454588e-03  1.50617331e-01\n  1.94671061e-02 -4.89347428e-02  5.88972084e-02 -7.22685531e-02\n  7.87460059e-02  1.71840452e-02  3.18205841e-02 -6.63063675e-02\n -4.18064594e-02 -7.43472576e-02  1.08136587e-01 -9.22011398e-03\n  4.24545817e-02  7.78252482e-02  1.40891597e-02  7.95043185e-02\n  3.95690240e-02 -6.36011064e-02 -9.48273987e-02  1.11881122e-02\n -4.38781120e-02  4.12622504e-02 -4.50900570e-03 -7.90812150e-02\n -7.25307167e-02 -2.88183503e-02 -7.14087412e-02  3.18376683e-02\n -4.89875376e-02  1.97792966e-02  9.53406096e-02  1.43420309e-01\n -7.85461217e-02  6.59961700e-02 -6.85602576e-02 -1.34294722e-02\n  9.48221236e-02 -1.00072220e-01 -2.96482854e-02 -1.60458520e-01\n  1.04290992e-01 -7.82219917e-02 -1.29936086e-02  1.31450504e-01\n -1.88009366e-02  1.05999030e-01  7.13978559e-02 -1.04834303e-01\n  1.23892426e-02  5.38299903e-02  1.03918038e-01  2.79354863e-02\n -3.08668483e-02 -2.74464861e-02  4.97154333e-02 -1.69533342e-02\n -6.20905310e-02 -9.62274075e-02  1.03764227e-02  4.17808034e-02\n  6.41441420e-02  2.00932361e-02 -1.16352213e-03  1.23328537e-01\n -4.14570868e-02 -4.90802787e-02 -4.70816493e-02 -2.75556501e-02\n  9.64173302e-02  1.16853252e-01  1.18219219e-01 -5.89663610e-02\n -1.75792158e-01  1.31491482e-01  8.33886489e-02  4.62926850e-02\n  2.37968583e-02 -9.71347913e-02 -4.53989580e-02  1.90254929e-03\n -5.75447194e-02 -7.26686120e-02  2.68523097e-02 -5.16576208e-02\n  2.56315749e-02  3.06870211e-02 -3.36710662e-02  1.69102494e-02\n -1.06880747e-01 -4.06442732e-02 -3.98340896e-02  4.18328717e-02\n -4.74036038e-02  3.93191874e-02  5.46167009e-02 -6.70941360e-03\n  6.56182095e-02  2.02978104e-02 -1.56372666e-01 -5.92582300e-02\n -1.32204056e-01 -3.27633284e-02 -5.17005958e-02 -1.30507663e-01\n -2.36731097e-02  1.53887318e-02  1.10661246e-01  3.37973125e-02\n -3.09950556e-03  8.85557849e-03  6.71434924e-02 -3.88938151e-02\n -7.78375054e-03  8.45489055e-02 -6.07350580e-02 -2.44853161e-02\n -8.38279575e-02  6.05899543e-02  1.41001359e-01  1.44564211e-01\n  6.29078969e-02  5.68686575e-02  5.49799316e-02 -1.48120197e-02\n -6.53451979e-02 -1.63586184e-01  1.93798949e-03 -1.26234777e-02\n -3.12652364e-02 -2.48828921e-02  6.65922016e-02  9.78087191e-04\n  8.79721344e-02  4.33074087e-02 -3.52703803e-03 -1.10034756e-02\n  8.91885087e-02 -1.40085155e-02  7.74227306e-02 -5.54337427e-02\n  3.05481143e-02 -1.42797558e-02 -2.98883971e-02 -4.19346476e-03\n  3.89889181e-02  8.56538943e-04 -3.35213467e-02  5.57381921e-02\n -1.75746214e-02 -2.93625519e-02 -1.34156868e-01 -3.45102348e-03\n -6.48703277e-02 -2.45195683e-02 -3.00858431e-02  2.36921925e-02\n -6.01064116e-02 -5.27694868e-03  6.47353306e-02 -3.26438285e-02\n  5.58971278e-02  5.05450107e-02  3.44498968e-03  2.99126226e-02\n  7.37079456e-02 -1.18078310e-02  3.58114839e-02  8.48978385e-02]",
            "[ 0.01159358 -0.11386296  0.00166217  0.03700613 -0.0042907   0.13584772\n  0.07530326 -0.08359131 -0.04163238 -0.07644533  0.03999613 -0.18263212\n  0.04409219  0.01035446  0.08489889 -0.09352776  0.05955393 -0.16289581\n -0.00588858  0.0996247  -0.1107113  -0.10038122  0.08348385  0.00443181\n  0.07808109 -0.07335669 -0.024997    0.00257433  0.05817001  0.07353994\n  0.0450616   0.10018646  0.06915429  0.02416975  0.05672925  0.02335312\n  0.08576015 -0.09694898  0.08407094  0.01688721 -0.07935352 -0.13650446\n -0.03918589 -0.00411577  0.04072057 -0.04658824  0.13900258 -0.08187304\n  0.02314418  0.00106536  0.18320563 -0.05441467  0.04938338  0.02344875\n -0.14294359 -0.01991001 -0.07759264 -0.03540909 -0.02804838  0.01871513\n  0.06407296 -0.02130378 -0.05199895 -0.05958561 -0.06681737  0.03324137\n  0.0360725   0.01842594  0.05117445 -0.00982685  0.05372774 -0.10775727\n  0.0435859  -0.02615213  0.04897083 -0.09619629  0.02039154  0.01757514\n -0.03649187  0.02147668  0.06123662  0.00780022 -0.05298389  0.03938805\n  0.03320009  0.05694426  0.08305801 -0.20235696  0.08696172  0.0358441\n  0.08916626 -0.0395649  -0.01257629  0.06546015  0.04084099 -0.09821075\n  0.0260847   0.04426084  0.06636812 -0.02992252 -0.16003136  0.06124695\n  0.17906077  0.02755493  0.11370436 -0.00143182 -0.015699    0.09928415\n -0.03258657  0.04546864  0.17560281  0.04321234  0.10719068  0.04521988\n -0.05114828 -0.05423788 -0.08623555  0.09034036  0.08382404  0.08496694\n  0.04375304 -0.16636752  0.00346043 -0.00370209  0.10062198 -0.06583587\n -0.05050556 -0.03067647]",
            "[ 0.03590199 -0.03682054  0.01044806 -0.04064737  0.01096988 -0.06866688\n -0.01959165 -0.05000334  0.0107885  -0.01412863 -0.04776739 -0.02865957]"
        ],
        "pi_weight_list":	[
            "[[ 1.0882892e-01  1.7992215e-01  3.9445467e-02 ...  1.8213563e-02\n  -1.2415711e-01  4.1279219e-02]\n [-4.1202055e-03  3.3807721e-02  1.1174845e-01 ... -1.0223318e-01\n  -9.8380134e-02  8.6818658e-02]\n [ 6.1198967e-05 -2.2994798e-02 -2.2527143e-01 ... -1.4694694e-01\n  -4.6384048e-02 -6.6199102e-02]\n ...\n [-4.1344818e-03 -2.1860820e-01 -8.5451035e-03 ... -4.0503950e-03\n   1.2950926e-01 -2.2845767e-01]\n [-1.1628426e-01 -2.0389254e-01  4.6482664e-02 ...  7.2540478e-03\n  -6.4661026e-02 -8.6356185e-02]\n [-2.7230997e-02  8.9107566e-02 -9.2141949e-02 ... -1.9613044e-02\n  -1.0404036e-03  1.4349149e-01]]",
            "[[ 7.9637565e-02  3.7186489e-02 -1.8004807e-02 ...  4.1286912e-02\n  -1.0661997e-01  1.1792190e-01]\n [-8.2326435e-02 -2.4807885e-01 -7.2175026e-05 ...  4.1486444e-03\n   4.8195560e-02 -1.3523427e-01]\n [ 2.2874649e-01 -1.8151011e-01 -2.4427286e-01 ... -3.5370585e-02\n   4.4405755e-02  1.5380198e-01]\n ...\n [ 1.3041779e-01  8.1663392e-02 -4.3044784e-03 ... -4.7533229e-02\n  -8.4236518e-02  1.3174665e-01]\n [-1.3025640e-01 -1.8163979e-02  2.1688315e-01 ...  5.6086060e-02\n  -9.9636372e-03  4.6446588e-02]\n [ 1.0161446e-01  8.5139191e-03 -3.1110251e-02 ... -9.0569749e-02\n   2.3048306e-02 -1.8594933e-01]]",
            "[[ 0.11793406 -0.26400012 -0.06307766 ... -0.32985085  0.1679732\n   0.01933193]\n [-0.11893729  0.1450924  -0.08047657 ...  0.00489083 -0.07098384\n  -0.14817835]\n [-0.20670404  0.02334845  0.10413853 ... -0.09246204  0.06518393\n  -0.1292387 ]\n ...\n [-0.15295999 -0.01188003  0.14197108 ...  0.04832539 -0.0760965\n   0.16574508]\n [ 0.05050061 -0.00155878  0.17730083 ... -0.13790296  0.12490128\n  -0.06095133]\n [ 0.04518524  0.15985908 -0.00050395 ... -0.05738835 -0.17313537\n  -0.10708221]]"
        ],
        "v_bias_list":	[
            "[ 1.6668158   1.7061458  -0.09232284  0.31300706  0.04371601 -1.0750563\n  0.5164046   1.4176276  -0.29663998  1.1244111   1.8386722  -2.2725646\n -1.7054591   2.1001096  -2.801842    0.61128646 -0.36640364  0.4717652\n  1.2495983  -0.64600235 -0.18386972  1.6447126  -0.5815173   1.5111054\n -1.3395215   1.0518775  -0.9654935   0.17803414  0.28914824  2.0585103\n  1.1269482   0.33641285  0.54459804 -0.25040576 -1.1453388  -0.5441407\n  0.0047611  -1.0979419   0.9570099  -1.2395556  -0.46917865 -0.5726978\n  1.8369548  -1.6759902  -2.5249715   1.7975763  -1.9346153  -0.03061122\n -0.72667944  0.4220536   1.8659111  -0.90907806 -2.4199858   1.3838011\n -1.0532994   0.9562428   0.74089813 -1.42984     0.42968088  0.31353867\n  1.1521306  -1.402289   -2.5037978  -2.7225704  -0.80040205 -0.7931802\n  0.14696357 -1.7335856  -0.07870299  2.1306748   0.8625888   0.09532091\n  2.6249268  -1.3642131  -1.1996709   0.8287086   1.7714113   0.34116432\n  0.6142508   1.2987517   0.9411955   0.54528546 -0.65158397 -1.6140453\n -1.2138363  -1.215063   -0.08364678  2.1476488   1.3906925  -0.80942804\n  0.9229189  -2.192967   -1.4250561  -1.2964077   0.86638594  1.4676827\n  1.4200746  -0.10837866 -1.178618   -1.9501883  -1.317689    1.7495767\n -0.70672095 -1.9880576  -1.7954926   1.6105007   0.05135266 -2.3078895\n  1.4356525  -2.4974542  -1.3651904   1.8049065  -0.5723903   0.9897125\n -0.9333095  -0.7245728  -1.0205283  -1.6148219  -1.4457047  -0.328966\n -2.120092   -1.1921521   0.13161457  0.85096925 -1.1082326  -1.2715912\n  0.01771651 -1.6830388   2.2032597  -0.138508   -1.893659   -0.2102286\n  1.2255926  -1.5302266   0.93548965  2.0553656  -0.6567428  -2.0451941\n  2.1468508   3.5042126   1.4834135   1.6211383   0.86720324 -0.7525909\n -1.48998    -1.3002425  -1.4250455   1.0271266   1.5630777   2.5264354\n -0.5836786   3.7415488  -0.6667476   0.07847125 -0.4256433  -0.44517374\n  1.6130893   0.53781444  0.52927536 -0.51175743 -2.228939   -0.6826978\n  1.9595356   0.60829157 -0.8790095   1.5762752   0.05431055  1.105178\n -1.9705151  -2.8112068  -0.47095203 -0.28017536  1.0568627   0.5556769\n -2.1192458  -0.22340266  1.2704117  -0.51796633 -0.25567827 -1.5604097\n -0.3929788  -1.1310972  -0.9321841  -1.2512196   0.36998513 -1.4269046\n  0.99235326  1.6976011  -0.61156833  0.27041063  1.209817    0.4960563\n -0.70782906 -0.39278913  0.3517893  -0.89255404  3.126974   -0.47763216\n  1.0715221  -1.2308438   1.6242747  -1.2720215   2.0956764  -0.1554062\n  3.1751688  -1.9857919   0.3452176   2.8401465   0.34829217 -0.2589536\n -1.5185691  -0.15708028  0.50721097 -0.43145457  0.709583   -1.4980233\n  1.3930933   0.23386794  0.4299763   2.4077313  -1.8295808   1.6542099\n -2.3700614  -1.694017    0.48765114  0.72980237  0.67127365  1.4349513\n  1.5330671  -0.30940172 -1.4423648   1.4720324   1.2136483   2.3509557\n -1.9411229  -0.86722344  0.34021482 -1.4633666  -0.62066394 -1.1437254\n -1.3955568  -0.6753192  -0.34765813  0.7341622   1.3930621   0.5179\n -1.6658505   1.888036   -1.0043893  -2.4422638  -1.5685625   3.322399\n  1.3392565  -0.17282976 -0.71256393  1.0507084 ]",
            "[ 2.2942145   2.635783    1.6280516  -1.221469    1.2200266   1.374194\n -0.85867554 -1.0602145  -2.2298508   2.0748212   0.7775662   2.4568028\n -1.8583305   1.4578406   0.00465244  1.26486    -0.8880896   1.5031509\n  0.41572466  0.36997238  1.4845798   0.80598664  1.4571508  -1.8251269\n  1.4285651  -3.8972769   0.6981414   2.7833612  -1.4854604  -1.883705\n -1.9654647   1.7670927  -0.73853177  0.16937466  1.2497747  -0.4441303\n  1.3871734   1.7744838  -1.8623908   0.95238006  0.70223635  1.6335391\n  1.3552237   1.1908104   2.4713924  -1.3219851  -0.7596088  -1.4579592\n -1.971715    1.7270882   1.2095759   1.4885643   1.2001274   1.0467808\n -2.4146492   2.1270816  -2.2555938  -1.5368478  -1.7876416   1.2887295\n -0.36851776 -0.6825672   0.32309246  1.2017306   1.6341226   2.547639\n  0.09034318  1.1039218  -1.9619416   0.38290617 -0.5088002   0.32615945\n  0.81328547 -0.06971356 -1.4593027   2.1437085   1.7348973   1.0632633\n  2.0712476  -0.53733766 -0.13715419 -1.1032821  -2.2821138   1.2543807\n  1.1765423   0.9865205  -1.8670429  -0.2982942   1.8323113   4.1053185\n  2.5341759   0.84590673 -2.0218759   3.2521343   1.7570639  -2.197324\n  1.9265076  -0.5439309   1.6874298  -2.1249852   2.8545284   0.6506329\n -1.7202976   2.1023223  -0.54890484 -0.37824038  1.0375439  -1.8072295\n  1.7065763  -0.5850689  -0.5089193   1.1381598   2.9689844  -0.97858685\n -2.4856796   3.7509062  -1.6004512  -1.8887273   3.9801946  -0.7549148\n -1.6497445   0.31903854  1.882397    1.2017444   0.3199042   2.0397503\n -0.93922967  1.0376326 ]",
            "[-1.1487372]"
        ],
        "v_weight_list":	[
            "[[ 2.3262133e-01  4.7477156e-01  1.1015086e+00 ... -1.0826452e+00\n  -8.4729075e-01 -3.3319682e-01]\n [ 5.9714162e-01  5.1341683e-01 -5.2267224e-01 ... -1.5173961e+00\n  -4.7152303e-03  1.6642610e+00]\n [ 4.2211795e+00  5.5238976e+00  1.9920826e+00 ... -7.1408331e-01\n  -5.8684983e+00  7.7805600e+00]\n ...\n [-6.2889820e-01 -2.4750818e-01  2.7250624e-01 ... -4.7012303e-02\n  -1.6966899e-01 -9.3325920e-02]\n [-8.4477611e-02  7.2913587e-01  6.2117821e-01 ...  4.6277024e-02\n   6.7099887e-01  7.7493680e-01]\n [ 2.1783847e-01  2.4229882e-02 -6.9079369e-01 ...  5.8388138e-01\n   6.6697508e-01 -8.0305833e-01]]",
            "[[ 1.0342035   0.21334092 -0.29743508 ...  1.2680604   0.3489249\n   1.1471082 ]\n [ 0.75037724 -0.05012054  0.25664517 ... -0.1808663   2.0290465\n   0.8094682 ]\n [ 0.22842056  0.56695306 -0.10574596 ...  1.2330934   1.1418504\n  -0.52244884]\n ...\n [-1.1412252   0.50614345  0.66018456 ... -0.25452513 -0.40684488\n  -1.5168064 ]\n [-0.88630533  0.34104383  0.9451864  ...  1.1932182  -1.2304716\n   0.12035014]\n [ 1.4186764   0.29983672  0.81538785 ... -0.2726935   0.93834203\n   0.5948443 ]]",
            "[[-0.08593312]\n [-0.23892789]\n [-0.4259856 ]\n [ 0.34751162]\n [-0.21418725]\n [ 0.6447864 ]\n [ 0.36082876]\n [ 0.5410046 ]\n [-0.00184678]\n [-0.08190887]\n [-0.48066416]\n [-0.7304972 ]\n [ 0.24697998]\n [-0.34478253]\n [ 0.13986711]\n [-0.09772088]\n [-0.3761608 ]\n [ 0.5895189 ]\n [-0.35717484]\n [ 0.5098012 ]\n [-0.4615992 ]\n [-0.2890067 ]\n [-0.5319958 ]\n [ 0.3800498 ]\n [-0.2220224 ]\n [ 1.2905469 ]\n [-0.48413378]\n [-0.5938539 ]\n [ 0.3320149 ]\n [ 0.30981734]\n [ 0.33982256]\n [-0.3003878 ]\n [ 0.45150772]\n [-0.1455294 ]\n [-0.31147397]\n [ 0.5598177 ]\n [-0.41852432]\n [-0.20065625]\n [ 0.3681442 ]\n [-0.86628306]\n [-0.7696362 ]\n [-0.26836583]\n [-0.257103  ]\n [-0.5127552 ]\n [-0.3502629 ]\n [-0.5247806 ]\n [ 0.49661943]\n [ 0.57049793]\n [ 0.3080558 ]\n [-0.4246173 ]\n [-0.28582665]\n [-0.24319053]\n [-0.55101395]\n [-0.68420637]\n [ 0.3360359 ]\n [-0.29753754]\n [ 0.42970946]\n [-0.3185001 ]\n [ 0.28734538]\n [-0.5920369 ]\n [ 0.6637926 ]\n [-0.5109801 ]\n [-0.5556947 ]\n [-0.33583638]\n [-0.27976906]\n [-0.7852653 ]\n [ 0.29749212]\n [-0.43577114]\n [ 0.45658866]\n [-0.4964154 ]\n [ 0.19935095]\n [-0.34992236]\n [-0.3267343 ]\n [ 0.6367432 ]\n [ 0.31705987]\n [-0.34784073]\n [-0.37127912]\n [ 0.48978126]\n [-0.30469316]\n [ 0.78646   ]\n [-0.98432696]\n [ 0.11748041]\n [ 0.23921975]\n [-0.5930782 ]\n [-0.5139936 ]\n [-0.30991194]\n [ 0.10588695]\n [ 0.51224214]\n [-0.20938122]\n [-1.0907497 ]\n [-0.16029122]\n [-0.52044064]\n [ 0.18675679]\n [-0.5544774 ]\n [-0.4701691 ]\n [ 0.29535255]\n [-0.15849102]\n [-0.40828875]\n [-0.16996163]\n [ 0.12610304]\n [-0.47400677]\n [-0.78843206]\n [ 0.30461574]\n [-0.56511974]\n [ 0.40697035]\n [-0.515895  ]\n [-0.34709468]\n [ 0.32048437]\n [-0.23531283]\n [ 0.3155128 ]\n [-0.46361628]\n [-0.40794754]\n [-0.517906  ]\n [ 0.6214523 ]\n [ 0.24972378]\n [-1.5848387 ]\n [ 0.40052614]\n [ 0.30599815]\n [-1.2200176 ]\n [ 0.5433555 ]\n [ 0.3271484 ]\n [ 0.5921464 ]\n [-0.41590607]\n [-0.1552114 ]\n [-0.33568352]\n [-0.1941263 ]\n [ 0.7644506 ]\n [-0.1423899 ]]"
        ]
    },
    "actor_critic":	"my_mlp_actor_critic",
    "clip_ratio":	0.2,
    "env_fn":	"Anymal",
    "epochs":	200,
    "gamma":	0.993,
    "lam":	0.97,
    "logger":	{
        "<spinup.utils.logx.EpochLogger object at 0x7f3466969da0>":	{
            "epoch_dict":	{},
            "exp_name":	null,
            "first_row":	true,
            "log_current_row":	{},
            "log_headers":	[],
            "output_dir":	"/home/shawn/Documents/DRL/experiments/Sun May 10 13:23:26 2020",
            "output_file":	{
                "<_io.TextIOWrapper name='/home/shawn/Documents/DRL/experiments/Sun May 10 13:23:26 2020/progress.txt' mode='w' encoding='UTF-8'>":	{
                    "mode":	"w"
                }
            }
        }
    },
    "logger_kwargs":	{
        "output_dir":	"/home/shawn/Documents/DRL/experiments/Sun May 10 13:23:26 2020"
    },
    "max_ep_len":	120,
    "on_policy":	true,
    "pi_lr":	0.0003,
    "prev_epochs":	900,
    "save_freq":	10,
    "seed":	0,
    "steps_per_epoch":	600,
    "target_kl":	0.05,
    "train_pi_iters":	80,
    "train_v_iters":	80,
    "vf_lr":	0.001
}