{
    "GUI":	false,
    "ac_kwargs":	{
        "activation":	"tanh",
        "hidden_sizes":	[
            256,
            128
        ],
        "log_std":	"[-0.5 -0.5 -0.5 -0.5 -0.5 -0.5 -0.5 -0.5 -0.5 -0.5 -0.5 -0.5]",
        "pi_bias_list":	[
            "[-1.30675295e-02  3.56213329e-03  3.91094107e-03 -4.37457813e-04\n -1.67285884e-03 -5.58581203e-03 -8.92729382e-04 -9.89765394e-03\n  1.66553799e-02 -1.37557811e-03  3.53452330e-03 -2.23927968e-03\n  3.38599290e-04  9.96036548e-03  1.05081508e-02  4.92451189e-04\n -6.79675862e-03 -4.19780053e-03  3.06970114e-03 -1.51871300e-05\n -1.94202494e-02 -9.23216529e-03  6.58668112e-03  2.38388800e-03\n -7.84186088e-03 -8.67711008e-03 -1.30350143e-03  1.27787031e-02\n  1.80665439e-03  3.47401574e-03  2.01138412e-03 -3.80661874e-03\n -6.22840831e-03  7.92288594e-03 -2.72793253e-03  1.38848892e-03\n -7.52304075e-03  6.73761033e-03  2.40221008e-04  7.24776788e-03\n  9.94768459e-03 -1.46814156e-04 -5.59391547e-03  3.77040752e-03\n  4.63590398e-03  2.02737912e-03 -2.59917416e-02  1.30068259e-02\n  6.04646606e-03 -1.25551997e-02  3.94014874e-03  7.27011543e-03\n -8.92355200e-03 -3.59542156e-03 -7.53764389e-03 -2.52808747e-03\n  4.88156686e-03  3.51615623e-03  3.35050113e-02 -1.41682709e-02\n  4.92440676e-03 -5.21814264e-03  6.76814560e-03  2.39968533e-03\n -4.58055455e-03  8.28508660e-03 -3.24176438e-03 -5.09587815e-03\n -1.46188110e-03 -2.69739819e-03 -9.57331713e-03  6.85033621e-03\n  8.19759257e-03 -5.49754500e-03  1.56946816e-02 -2.18722131e-03\n -2.68240217e-02 -6.90995948e-03 -2.81642769e-02  1.79913361e-02\n  1.36657106e-03  7.56109657e-04  4.22955165e-03  1.12096022e-03\n  2.97479033e-02  3.93464143e-04 -2.57631624e-03  2.71823606e-03\n -2.61796638e-02  4.03846521e-03  2.78571099e-02 -1.30343027e-02\n  3.91172990e-03  7.50507507e-03  5.07394318e-03  7.98044819e-03\n  8.54359532e-04 -6.84179319e-03  7.73889571e-03  2.23534666e-02\n -3.81728821e-03 -1.38987124e-03 -8.80674273e-03 -7.00194761e-03\n  2.69304756e-02 -6.22406183e-03 -1.32831698e-02 -9.23997443e-03\n -2.61018588e-03 -8.75645131e-03 -1.98166561e-03 -1.95576139e-02\n -1.15979032e-03 -3.29787261e-03  1.45729007e-02  6.35215838e-04\n  1.16844159e-02  5.25918184e-03  2.50567938e-03  3.94547638e-03\n -1.02054281e-03 -4.08894557e-04 -1.52889919e-03  2.55102781e-03\n -2.91498695e-02 -4.12242068e-03  4.38180426e-03  7.11447909e-04\n  1.52647449e-02 -3.97601305e-03 -1.82626594e-03  9.49674938e-03\n  8.26410484e-03  9.40797571e-03 -6.34715939e-03  1.38485348e-02\n  4.61175153e-03  3.30877723e-03  1.42518606e-03  9.98115074e-03\n -8.78676493e-03 -2.54191837e-04  6.24704082e-03  1.48231406e-02\n  1.38098234e-02 -8.80476180e-03  4.37101815e-04  1.77146960e-02\n -1.12571642e-02  1.20027876e-02  8.12709052e-03 -1.96477107e-04\n  5.33568393e-03  2.64691911e-03 -3.50593729e-03  1.45797711e-02\n  2.63880379e-03  4.38596914e-03  5.51840989e-03 -1.43367155e-02\n -5.85933402e-03  1.74370082e-03  1.31937917e-02 -7.77886854e-03\n  1.60655510e-02  4.60859475e-04 -4.26050369e-03 -1.97526738e-02\n -1.97936669e-02  8.15882906e-03  3.24300927e-04 -4.71176626e-03\n -6.20865729e-03 -4.32553794e-03  4.37765010e-03 -2.26591388e-03\n -1.62673537e-02  1.69956649e-03  3.95313418e-03  6.61120794e-05\n  8.45240895e-03  1.46752121e-02 -2.31154752e-03  7.94778578e-03\n -4.21774777e-04  1.22784181e-02  1.22478502e-02  1.99842360e-03\n -1.26510113e-02 -5.31844050e-03 -2.19702115e-03  2.10701590e-04\n -5.59143629e-03  3.71456117e-05  5.08710975e-03  5.53883333e-03\n -7.40042282e-03 -2.23401492e-03  1.01953205e-02 -1.08700693e-02\n  5.89499576e-03  1.33246295e-02 -6.21137023e-03 -3.57893854e-02\n -4.87253303e-03  7.53405737e-03 -1.97352618e-02 -4.31686494e-04\n  4.59197676e-03 -1.28969606e-02 -1.01743024e-02  2.26209103e-03\n -5.77481277e-03 -1.10451048e-02 -9.48072318e-03 -1.60264794e-03\n -2.67211627e-03 -6.28339034e-03 -1.07457647e-02  8.12800881e-03\n  3.93185718e-03  2.34048092e-03  8.51597637e-03  4.17077914e-03\n -6.39292784e-03 -2.86538200e-03  1.63253639e-02  7.21489219e-03\n -4.46326565e-03  3.74895451e-03 -3.93588125e-04  2.33169456e-04\n  7.02734943e-03 -6.26252673e-04 -1.31426109e-02  1.89228989e-02\n  1.40944114e-02 -7.60534592e-03 -6.00493746e-03 -1.85696699e-03\n -7.45459460e-03  5.25413686e-03 -5.60144754e-03  6.11363398e-03\n -2.61025690e-03  5.98927215e-03  1.18670110e-02  4.33690427e-03\n  2.84618279e-03 -1.32829500e-02  5.52469958e-03  1.88538060e-02\n -8.64673313e-03 -3.51376692e-03  4.65272414e-03  6.63191825e-03]",
            "[ 8.74484237e-03  5.60969021e-03  1.77972403e-03 -2.19478412e-03\n  2.31035724e-02  2.64313351e-02  1.06408158e-02  6.67866506e-03\n -5.94813516e-03 -1.38098709e-02  2.97973189e-03 -3.62140760e-02\n -3.90141387e-03 -4.94182995e-03  1.13651315e-02  8.09701718e-03\n  5.44047580e-05 -1.03547778e-02 -2.10794783e-03  1.10166352e-02\n  4.07114348e-05 -2.17454508e-03  2.35972367e-03  6.77731354e-03\n  2.84623858e-02 -1.70634650e-02  1.80980656e-03  6.33452041e-03\n  1.88344310e-03  3.25215720e-02 -4.85930592e-03  1.44683672e-02\n  1.36450641e-02  1.48840984e-02 -2.11929320e-03  1.54232513e-03\n  4.18666983e-03  7.07570277e-03  1.13003114e-02 -1.67791639e-03\n -6.12024590e-03 -2.67415904e-02 -1.01672215e-02  1.61962602e-02\n  1.82580836e-02  6.99308747e-03  1.61476880e-02 -1.13991620e-02\n -3.30861355e-03 -2.46154540e-03  6.18918911e-02 -1.19292242e-02\n -1.01386914e-02  4.08414751e-03 -3.12703922e-02  5.97987371e-03\n -1.54512469e-02  1.25807133e-02  1.12198072e-03  1.96899706e-03\n  2.19972059e-03 -1.37520991e-02 -2.52359360e-03  2.06310046e-03\n -2.28145951e-03 -4.15236456e-03 -2.50286679e-03  1.53755061e-02\n  8.15343484e-03 -5.42349461e-03  9.36751813e-03  1.11810667e-02\n -6.07337570e-03 -1.56665258e-02  1.14988247e-02 -5.62808430e-03\n  2.83264695e-03  1.21304123e-02 -4.81548253e-03 -1.20080234e-02\n -7.89457187e-03  9.03245644e-04  6.49664272e-03 -1.19616594e-02\n -2.29805578e-02  1.03648696e-02  8.35191831e-03 -2.41461098e-02\n  1.30554624e-02 -9.77071095e-03  3.92797925e-02  2.27424433e-03\n  1.51115786e-02 -9.80985910e-03  1.36456247e-02 -1.00769689e-02\n  8.55132658e-03  1.47043001e-02  1.03094270e-02  4.41149762e-03\n -1.39656374e-02 -2.26769806e-03  4.67616208e-02  3.07392031e-02\n  1.00904517e-02 -1.30982259e-02 -1.96819324e-02  2.45206207e-02\n -1.23429839e-02  1.35514354e-02  4.80537396e-03  1.29162958e-02\n  1.00385314e-02 -6.57287706e-03 -5.39387111e-04 -1.08087910e-02\n -1.16978213e-02  2.69934218e-02  1.57003570e-02  8.54612328e-03\n -9.38317087e-03 -2.66338401e-02 -2.70136003e-03  1.23775303e-02\n  4.37757466e-03  7.26030720e-03 -1.29721779e-02  6.63602585e-03]",
            "[ 0.00058311  0.00252417 -0.00702054 -0.00780061 -0.00295122 -0.01049606\n  0.00198702 -0.00529846  0.00537754 -0.0006041  -0.01534298  0.00910879]"
        ],
        "pi_weight_list":	[
            "[[ 0.0606913  -0.01851619  0.04388338 ...  0.09892229 -0.12844789\n   0.07232849]\n [ 0.04048766 -0.11397602  0.10792097 ... -0.06521886 -0.09071267\n   0.02975402]\n [-0.08990312  0.01131839 -0.09090375 ... -0.0843016   0.00207282\n  -0.07955939]\n ...\n [-0.04086453 -0.11991157  0.00828057 ... -0.03741337  0.09336771\n  -0.10319813]\n [-0.05705576  0.0151053   0.01843681 ...  0.0090378  -0.13278902\n  -0.03767737]\n [-0.01100698 -0.03034662 -0.13279949 ...  0.01972748 -0.00688266\n   0.04135338]]",
            "[[ 3.20481434e-02  6.50495291e-02 -5.49491197e-02 ...  6.01626597e-02\n  -4.19639051e-03  1.16874591e-01]\n [-9.19159129e-02 -1.31982401e-01  4.80628498e-02 ...  3.19220908e-02\n   8.53316933e-02 -1.04309835e-01]\n [ 7.95243904e-02 -9.00534466e-02 -5.12174442e-02 ... -6.17498858e-03\n  -7.42023811e-02  7.17535987e-02]\n ...\n [ 3.44023705e-02  8.63035321e-02  2.53627338e-02 ...  3.42458114e-02\n  -2.72631223e-05  8.46044496e-02]\n [-5.82305789e-02  1.29494565e-02  6.58867210e-02 ... -6.01255801e-04\n   2.67880522e-02  9.08484831e-02]\n [ 5.12876622e-02  1.27800733e-01  4.36958410e-02 ... -9.56191123e-02\n   2.99567599e-02 -9.42764208e-02]]",
            "[[ 0.10037246 -0.1566999  -0.05273599 ... -0.12457323  0.12805386\n   0.11935083]\n [-0.09123409  0.11937863 -0.06574441 ... -0.05803379 -0.10105935\n  -0.12463194]\n [-0.08967538  0.0872255   0.09645725 ... -0.05028341  0.02321\n   0.03528544]\n ...\n [-0.12085027  0.08295862  0.14040555 ... -0.01946235 -0.07127954\n   0.10405962]\n [ 0.0357488  -0.09129474  0.15557276 ... -0.14428733  0.13389626\n  -0.00617058]\n [ 0.12202776  0.16455767  0.08349653 ... -0.18715777 -0.14254002\n  -0.17196201]]"
        ],
        "v_bias_list":	[
            "[ 0.09119985 -0.0264258  -0.0090241   0.02987724 -0.07569411 -0.20013429\n -0.11544187  0.06130076 -0.18115562 -0.04734389 -0.0565021   0.04808699\n  0.01632305 -0.01032337  0.00541192  0.0027254  -0.01672433  0.02816672\n  0.02595732 -0.10112498 -0.06246848 -0.07967409  0.0340553   0.0545967\n -0.08876082  0.06340542 -0.01734512  0.1020673   0.01370892  0.0021849\n -0.00624415  0.04174781 -0.05346083  0.00066421 -0.03011    -0.1261466\n  0.0791745  -0.03222403 -0.00845797  0.05275068 -0.10093924  0.06858489\n -0.0592188   0.02740971 -0.08353435  0.0586487  -0.0386026  -0.0011087\n  0.07417004  0.0354037   0.04723981 -0.00982631 -0.02496602 -0.01420499\n  0.14025173  0.04464426  0.02708334 -0.07397225 -0.0610134   0.15672211\n  0.02731198 -0.05503334  0.01641122 -0.022615   -0.07730333  0.0070876\n  0.06651732 -0.03019206  0.01434961  0.03792911  0.04553045 -0.07261644\n  0.01446477 -0.11140864  0.00387097 -0.03170756  0.06428412  0.19232546\n -0.04885135  0.14975365 -0.01697254 -0.01292937  0.07249537 -0.08004513\n -0.0751173   0.02174465  0.03861671  0.07541522  0.13719027  0.12060794\n  0.09591531 -0.09224892  0.01841523 -0.0038141   0.01057763 -0.00735377\n -0.01015725  0.00479822 -0.11312518 -0.03240805  0.05181519  0.00939889\n -0.06776085 -0.05023593 -0.09392104 -0.01940932  0.04593635 -0.09694245\n -0.07597992 -0.01842766 -0.00615897  0.06047965 -0.02266933  0.05831893\n  0.02645291  0.01316721  0.02064842 -0.06545309 -0.00211746  0.02837184\n -0.22973348  0.01421287 -0.04917252  0.11913301  0.06050146 -0.02304353\n -0.02485    -0.16984954  0.12315897 -0.10912456 -0.04128946  0.05470251\n  0.06226508  0.08248485 -0.00477249 -0.02949463  0.10591344 -0.08026152\n  0.00127908 -0.00789636  0.03821587 -0.0194838   0.04290963  0.03169699\n  0.04479114 -0.20929828 -0.11233003  0.0470394   0.01419937 -0.04619836\n  0.0335848   0.03572328  0.01142131 -0.03463909  0.19559743  0.05019082\n  0.05423928  0.0190543   0.05060764  0.1021824  -0.11853202  0.02635197\n  0.01189733 -0.08528558  0.11311993 -0.03012992 -0.08237048  0.14031252\n -0.03217969 -0.04475718  0.02855835 -0.12405004 -0.0069304   0.06324836\n  0.03822599  0.06318866  0.01778547  0.0126525  -0.03934317 -0.05053049\n -0.0251825   0.03478591 -0.04047569  0.06779912  0.09054431  0.08181804\n  0.11303729  0.08136949 -0.14446613  0.06533612 -0.05841778  0.18465503\n  0.00871862 -0.03154277  0.05580841  0.0278262   0.04534058 -0.04082352\n -0.00386789 -0.06544189  0.083421    0.04315421 -0.00542601 -0.03108419\n  0.04852397 -0.03460702 -0.01412383  0.10819926  0.08742283 -0.10304836\n -0.02603491  0.09517301 -0.01990809 -0.08173528  0.00078273  0.07336278\n -0.00120117 -0.01792474  0.05320546  0.0702739  -0.04355056  0.02464734\n -0.09923966 -0.05421709  0.05103995  0.0991713  -0.06499007  0.04174823\n  0.01658487 -0.18311165  0.00675224  0.06610911  0.09804388  0.04659099\n -0.03771709 -0.01270127  0.05399272 -0.03142481  0.01318316 -0.13294777\n -0.03370448  0.08785601 -0.01219722 -0.01605208 -0.04430154  0.02423037\n -0.03968719  0.0580081  -0.00354505 -0.05731029 -0.1554849   0.18525693\n  0.20254295  0.07420451 -0.04447803  0.05886813]",
            "[ 0.02163841  0.3432554  -0.02699608  0.0194876  -0.03718856  0.27277946\n -0.19725181 -0.339708   -0.20770904  0.01721101 -0.05785125  0.06278518\n -0.29755083 -0.0144392   0.01892728 -0.05305872 -0.02231607  0.1165169\n  0.29011753 -0.03813989  0.0698036   0.00456263  0.3634488  -0.12101804\n -0.01455067  0.06416134  0.03725424  0.11429587 -0.33611014 -0.18832237\n -0.05206642 -0.01593936 -0.04965569 -0.08203287  0.07666459 -0.08171263\n -0.01198871  0.05263274 -0.34391674 -0.05032746 -0.06573426 -0.02158605\n  0.00306258 -0.10496538  0.3316267  -0.23390456  0.01391675  0.27535746\n  0.11070061 -0.07393568  0.01018774  0.34656677 -0.00356378  0.01403471\n -0.05325779  0.18023914 -0.19452447 -0.23922509 -0.09852644  0.3339898\n -0.06802814 -0.01479506  0.13639472  0.32129496 -0.01167199 -0.03486458\n  0.00530798 -0.00115452 -0.00518746  0.04536746 -0.04879353 -0.34608623\n  0.03522739  0.10394047  0.02870157 -0.02827025  0.30334258  0.1158637\n -0.00187756  0.07665879  0.00502341  0.03138408 -0.34678957 -0.0765431\n  0.34617913  0.03978164 -0.07144894  0.08951581  0.0811845   0.07393946\n -0.01832355  0.03537022 -0.22216181  0.05068478 -0.02809196  0.02291449\n  0.2871376  -0.16959973  0.04527177  0.00243037  0.36335635 -0.03761569\n  0.11963326  0.13388377  0.00257873 -0.03289954  0.18270478 -0.12896918\n  0.07311824 -0.3331717  -0.08857377 -0.13235603  0.00760815  0.16534835\n -0.06824213  0.11809458 -0.33527407  0.12659048  0.03010767  0.1289512\n -0.23750485  0.21649338 -0.01747856 -0.01818366 -0.12910728  0.05694842\n  0.10879321 -0.04414668]",
            "[-0.04551638]"
        ],
        "v_weight_list":	[
            "[[ 0.05968752  0.0108141   0.42125273 ... -0.08458535 -0.03916616\n   0.15400006]\n [ 0.10899878 -0.01564552  0.05677183 ... -0.02159374 -0.08390722\n   0.07836568]\n [-0.04694421  0.19625117  0.14974669 ... -0.18554443 -0.17073207\n   0.6319412 ]\n ...\n [ 0.1447316   0.1936441  -0.17402573 ...  0.06274445  0.1964338\n   0.02141929]\n [ 0.02863952  0.2147773  -0.21727645 ... -0.13103619 -0.11393967\n  -0.0091776 ]\n [-0.07979777  0.2095677  -0.41666657 ...  0.06633285  0.10358968\n  -0.2859101 ]]",
            "[[-0.04422653 -0.04443919  0.01644281 ...  0.15700932 -0.15563951\n  -0.13688132]\n [-0.1146402   0.29061928 -0.03622736 ...  0.08155441 -0.03970307\n   0.19888002]\n [-0.00143779  0.02879727 -0.098647   ...  0.05093268  0.01320746\n  -0.09238611]\n ...\n [-0.02518226 -0.19937345  0.13777031 ... -0.02409013 -0.14555854\n  -0.10766866]\n [ 0.18483876  0.07375217  0.25430316 ...  0.4161297  -0.21985544\n  -0.09204632]\n [-0.04126051  0.06857239  0.39852944 ... -0.1906761   0.2809703\n   0.17290007]]",
            "[[-5.21806180e-02]\n [-1.70080617e-01]\n [ 3.88328023e-02]\n [-4.85128909e-02]\n [ 5.79536380e-03]\n [-8.69311169e-02]\n [ 1.81440428e-01]\n [ 2.49076739e-01]\n [ 1.98257446e-01]\n [-4.01865579e-02]\n [ 7.78319489e-04]\n [ 3.36213745e-02]\n [ 8.44717398e-02]\n [-7.16246106e-03]\n [-4.63954546e-02]\n [-1.33823520e-02]\n [ 1.26382932e-01]\n [-1.51644140e-01]\n [-1.60616413e-01]\n [ 8.61568525e-02]\n [-4.23126714e-03]\n [ 3.12567763e-02]\n [-2.06126764e-01]\n [ 1.37376860e-01]\n [-9.38101803e-05]\n [-4.80965041e-02]\n [-2.99494881e-02]\n [-1.36719123e-01]\n [ 2.35527039e-01]\n [-7.84936249e-02]\n [ 1.66065656e-02]\n [-3.36815347e-03]\n [-1.20768603e-02]\n [-8.05705041e-03]\n [ 7.92999272e-05]\n [ 1.12009943e-02]\n [-1.16421178e-01]\n [ 1.33467227e-04]\n [ 1.70004636e-01]\n [-2.27016024e-02]\n [ 4.61216196e-02]\n [-1.45108178e-01]\n [-1.24019802e-01]\n [ 2.13463172e-01]\n [-1.62078723e-01]\n [ 1.55372530e-01]\n [-1.86027400e-02]\n [ 1.41239330e-01]\n [-7.33217271e-03]\n [ 2.60437009e-05]\n [-8.18477944e-02]\n [-1.27738357e-01]\n [-4.93283868e-02]\n [ 6.10443763e-02]\n [-1.05536496e-02]\n [-1.30494311e-01]\n [ 7.37445727e-02]\n [ 1.51212081e-01]\n [-1.75027922e-02]\n [-1.33771658e-01]\n [ 1.19701281e-01]\n [ 3.21172550e-02]\n [-9.42913070e-02]\n [-1.43592864e-01]\n [ 1.79821288e-03]\n [-7.82501921e-02]\n [-7.27536604e-02]\n [ 5.12485318e-02]\n [ 4.29792417e-05]\n [-8.00311416e-02]\n [-3.24558991e-04]\n [ 1.83906853e-01]\n [ 6.35763718e-05]\n [ 1.13183409e-02]\n [ 5.62658352e-06]\n [ 5.75502962e-02]\n [-1.07352175e-01]\n [-3.94944847e-02]\n [ 9.11585958e-05]\n [-2.53113098e-02]\n [-6.05630776e-05]\n [-4.31417711e-02]\n [ 1.57011867e-01]\n [ 1.44763783e-01]\n [-2.07088098e-01]\n [ 2.47586868e-04]\n [ 1.29511222e-01]\n [-4.25724647e-05]\n [-9.07141790e-02]\n [-1.21254876e-01]\n [ 1.40202428e-05]\n [ 1.50775686e-02]\n [ 1.66614026e-01]\n [-5.39775286e-03]\n [ 2.82380302e-02]\n [ 9.63661587e-05]\n [-5.21329716e-02]\n [ 7.27923587e-03]\n [ 7.21291080e-02]\n [-5.57133108e-02]\n [-2.28411987e-01]\n [-6.54122978e-03]\n [-3.09453346e-02]\n [-1.82536587e-01]\n [-3.72416398e-05]\n [ 3.61608230e-02]\n [-1.07261561e-01]\n [ 1.39760867e-01]\n [ 8.19645673e-02]\n [ 1.86648279e-01]\n [-1.15045441e-05]\n [-8.72164667e-02]\n [ 3.80784149e-05]\n [-1.11195683e-01]\n [ 8.17242786e-02]\n [-2.49232545e-01]\n [ 1.98366374e-01]\n [ 5.57259409e-06]\n [-7.37449378e-02]\n [ 1.15173079e-01]\n [ 1.69603556e-01]\n [-7.73710832e-02]\n [-5.43575771e-02]\n [ 3.86117175e-02]\n [ 3.38314057e-05]\n [ 5.37987389e-02]\n [-1.09475583e-01]\n [ 1.73079409e-02]]"
        ]
    },
    "actor_critic":	"my_mlp_actor_critic",
    "clip_ratio":	0.2,
    "env_fn":	"Anymal",
    "epochs":	1000,
    "gamma":	0.993,
    "lam":	0.97,
    "logger":	{
        "<spinup.utils.logx.EpochLogger object at 0x7f48c1d191d0>":	{
            "epoch_dict":	{},
            "exp_name":	null,
            "first_row":	true,
            "log_current_row":	{},
            "log_headers":	[],
            "output_dir":	"/home/shawn/Documents/DRL/experiments/Sun May  3 10:46:26 2020",
            "output_file":	{
                "<_io.TextIOWrapper name='/home/shawn/Documents/DRL/experiments/Sun May  3 10:46:26 2020/progress.txt' mode='w' encoding='UTF-8'>":	{
                    "mode":	"w"
                }
            }
        }
    },
    "logger_kwargs":	{
        "output_dir":	"/home/shawn/Documents/DRL/experiments/Sun May  3 10:46:26 2020"
    },
    "max_ep_len":	3000,
    "on_policy":	true,
    "pi_lr":	0.0003,
    "prev_epochs":	0,
    "save_freq":	10,
    "seed":	0,
    "steps_per_epoch":	3000,
    "target_kl":	0.05,
    "train_pi_iters":	80,
    "train_v_iters":	80,
    "vf_lr":	0.001
}