{
    "GUI":	false,
    "ac_kwargs":	{
        "activation":	"tanh",
        "hidden_sizes":	[
            256,
            128
        ],
        "log_std_list":	"[-0.35667494 -0.35667494 -0.35667494 -0.35667494 -0.35667494 -0.35667494\n -0.35667494 -0.35667494 -0.35667494 -0.35667494 -0.35667494 -0.35667494]",
        "pi_bias_list":	[
            "[-0.06340629  0.18995927 -0.00587685 -0.01678636  0.02107769 -0.02267078\n  0.00971901 -0.11169133 -0.05887644  0.04316759  0.03374281  0.20718092\n  0.01032561  0.0726784   0.05822113  0.03379969 -0.08796951 -0.02465084\n -0.07702945  0.14038798  0.05315667  0.14582834  0.0385048   0.08108926\n -0.04539208 -0.04742993  0.13836457 -0.0662086   0.02029104  0.11895386\n  0.02943224  0.08046587 -0.13191491  0.11983621 -0.00308779 -0.12695004\n  0.04275201  0.10492156  0.05379709  0.0871775  -0.05871449 -0.03913401\n -0.00933001 -0.03030241  0.04179501 -0.05534167 -0.12390332 -0.09327877\n -0.00046408 -0.05929523 -0.0756247  -0.19589046 -0.03574607 -0.03269797\n  0.03108937  0.00395514  0.03704994  0.05565099  0.1243716   0.07282915\n  0.00803733 -0.02797301  0.10240179  0.06474976  0.12221366 -0.02090677\n -0.1029793   0.04873723  0.10749394 -0.07253258 -0.08259566  0.10953985\n  0.09552574 -0.05336069  0.05561342 -0.08719765  0.0701056  -0.00993061\n  0.0241033   0.02709841 -0.06172291  0.01391522 -0.10111438 -0.05603719\n  0.22204076  0.07750209  0.02771058  0.16158247  0.03410146 -0.05776041\n  0.10120018 -0.09606318  0.09919135  0.01308217  0.05268166 -0.02246318\n -0.05106879 -0.08437032  0.12175322  0.02930156  0.01386098  0.08427426\n  0.01437577  0.04431124  0.04272448 -0.05469574 -0.06386112  0.02985274\n -0.05289096  0.03002233 -0.00221194 -0.12826121 -0.12466634 -0.02021679\n -0.01980396  0.02119261 -0.01896523  0.08676955  0.13071914  0.1733275\n -0.09674065  0.04270954 -0.09162835 -0.04094006  0.13588846 -0.07756855\n -0.03957861 -0.16232835  0.11881913 -0.05976898 -0.08075543  0.14088234\n -0.00489179  0.14477926  0.05457684 -0.10121963  0.04176177  0.05649943\n  0.10552818  0.01005414 -0.01353049 -0.0658243   0.02669232 -0.02040776\n -0.04579702 -0.13807413  0.0064938   0.04415578  0.09642159  0.00753986\n -0.05215521  0.16234869 -0.06139446 -0.05861259 -0.06092379 -0.00365951\n  0.10531811  0.1684463   0.1295632  -0.08976986 -0.20017004  0.15730344\n  0.07402702  0.06731705 -0.00680259 -0.12482628 -0.04476285 -0.02034321\n -0.01939248 -0.13738781 -0.01169205 -0.04310963  0.04120725 -0.0159169\n -0.00810541  0.01138162 -0.12780589 -0.04246736 -0.03191021  0.04720885\n -0.12052432  0.01491708  0.03640216 -0.03171679  0.11592273 -0.00371564\n -0.1947939  -0.04077701 -0.10912448 -0.03179567 -0.08533654 -0.1028238\n  0.03173975  0.04635896  0.0632358  -0.03193229 -0.01156683  0.00354066\n  0.08667643  0.01984951  0.00508809  0.11112472 -0.07459432 -0.01270095\n -0.08743657  0.12016446  0.14586845  0.13918068  0.04866249  0.07286967\n  0.05725854 -0.02788384 -0.1024843  -0.1739327  -0.02785701 -0.01567402\n -0.06777912 -0.01665839  0.02378699  0.01046319  0.07809027  0.03490408\n -0.03060813  0.03978815  0.08912229 -0.01381511  0.10486779 -0.07001154\n  0.03877236  0.0511732  -0.05860171  0.01833543  0.06369708  0.01437923\n -0.04457236  0.09980869  0.01187551 -0.04871928 -0.12374976  0.01245822\n -0.05921835 -0.02025137 -0.02134187  0.04393739 -0.07028091  0.0038797\n  0.06462145 -0.00761592  0.05118005  0.01756932  0.02065109  0.05205433\n  0.04552969 -0.03405067  0.11679728  0.04550336]",
            "[ 0.0143091  -0.07277793 -0.00619852  0.03257395  0.01436517  0.17730607\n  0.11037916 -0.05802558 -0.04897886 -0.14477949  0.05461141 -0.1901405\n -0.01016355 -0.00633155  0.07213604 -0.0911493   0.05602714 -0.1689266\n  0.00271134  0.07329285 -0.15474522 -0.1384114   0.07325844 -0.02140656\n  0.05495407 -0.06202111 -0.0146126  -0.0056056   0.04282209  0.06127333\n  0.03793298  0.13247308  0.07817844  0.03607089  0.05904185  0.0591215\n  0.10105672 -0.09007191  0.10899302  0.03059928 -0.11354209 -0.161662\n -0.05984214  0.01376445  0.05036354 -0.06177638  0.15529354 -0.03982304\n  0.00938193  0.01179016  0.20155638 -0.0310447   0.05152781  0.0124956\n -0.14497884 -0.01356083 -0.06023908 -0.03827888 -0.00465566  0.04324539\n  0.08608069 -0.03422386 -0.05796559 -0.05277238 -0.09011515  0.04595418\n  0.01786836  0.03474258  0.04633183 -0.00141878  0.03694271 -0.08906653\n  0.02806582 -0.01749509  0.01745813 -0.10070341  0.01064247  0.00951183\n -0.04833655  0.05539118  0.04510467 -0.04374538 -0.02693855  0.01822767\n  0.05351433  0.0760087   0.03780514 -0.22792543  0.11475094  0.02569604\n  0.0805847  -0.04238956 -0.00958658  0.09732169  0.0657385  -0.12502615\n  0.03030571  0.06983808  0.08823455 -0.05319077 -0.16789299  0.0747444\n  0.13148199  0.01995444  0.13853723  0.02151757 -0.00163542  0.08310241\n -0.02397219  0.06244361  0.21392769  0.01944934  0.09444076  0.0772379\n -0.03423896 -0.08515493 -0.08062262  0.10542849  0.10203333  0.08037584\n  0.04533605 -0.12826437 -0.02078595  0.02953949  0.07630794 -0.11726999\n -0.02722924  0.02024556]",
            "[ 0.02869529 -0.02394009  0.02570003 -0.03941184  0.01087208 -0.05148053\n -0.03974899 -0.04771983  0.02765179 -0.03228738 -0.05065505 -0.04070096]"
        ],
        "pi_weight_list":	[
            "[[ 0.13336462  0.18487373  0.10247263 ...  0.04502358 -0.21383154\n   0.0142063 ]\n [-0.04158974  0.12616637  0.12965828 ... -0.11687633 -0.06076268\n   0.03606432]\n [-0.00093094  0.00262743 -0.20222405 ... -0.09957573 -0.10389125\n  -0.07215267]\n ...\n [ 0.01066279 -0.21811955  0.00913948 ... -0.01481492  0.08445519\n  -0.18097988]\n [-0.08504832 -0.22818592  0.049076   ...  0.04117982 -0.11681356\n  -0.0659382 ]\n [-0.06390122  0.08495102 -0.0526885  ... -0.02193669  0.06230394\n   0.12579152]]",
            "[[ 0.13488093  0.07202677 -0.03498856 ...  0.0221463  -0.03995695\n   0.15189733]\n [-0.08374312 -0.22163786 -0.01817798 ... -0.02072595  0.05470066\n  -0.09093138]\n [ 0.22634618 -0.19470216 -0.23716259 ... -0.06127825  0.03680988\n   0.09639052]\n ...\n [ 0.12609656  0.10397546  0.03891854 ... -0.02031498 -0.12259633\n   0.14441139]\n [-0.16784418 -0.04201918  0.19423354 ...  0.09455023 -0.03747763\n   0.07426867]\n [ 0.10591518  0.0531777  -0.04096525 ... -0.08433002 -0.00250754\n  -0.17535944]]",
            "[[ 0.11026757 -0.25569773 -0.10929627 ... -0.38427886  0.1751469\n   0.04499043]\n [-0.11915729  0.1537389  -0.08352182 ... -0.00338992 -0.07512511\n  -0.15375209]\n [-0.2288052   0.00966157  0.09967773 ... -0.10077793  0.02068688\n  -0.13374525]\n ...\n [-0.14396064 -0.02103406  0.1466836  ...  0.01078369 -0.07582342\n   0.1314879 ]\n [ 0.06356986 -0.00705718  0.16677405 ... -0.12659143  0.09784975\n  -0.06670298]\n [ 0.01129965  0.14980032  0.00524156 ... -0.02189248 -0.21720561\n  -0.09974575]]"
        ],
        "v_bias_list":	[
            "[ 2.1726499   2.1142333   0.17286615  0.42005688  0.3709425  -1.3052588\n  0.22798538  1.284103   -0.4203253   1.0547043   1.890305   -2.5763328\n -1.2726403   2.288636   -3.003728    0.6658875  -0.6976866  -0.0201169\n  1.2079054  -0.6514797  -0.05843978  1.2497325  -0.6413449   1.9773612\n -1.2819562   1.5217407  -1.3055248   0.29112545  0.07577334  2.772121\n  0.8431038   0.5083722   0.8592513  -0.4536322  -1.408394   -0.20403145\n -0.15428089 -1.1431054   0.78389525 -1.41296    -0.583634   -0.540197\n  1.8285199  -1.8866771  -3.1409023   2.3371718  -1.3093472   0.15897876\n -0.7641963   0.06614938  1.7627627  -1.1465244  -2.7647147   1.2359025\n -1.4614409   0.99573416  1.1321149  -1.1593004  -0.07724254  0.45943436\n  1.095815   -1.9660132  -2.4029949  -3.1489742  -0.8120617  -0.37277603\n  0.5280317  -1.9763988  -0.22154404  2.2577894   1.4482214   0.58441263\n  2.964216   -1.0928504  -1.0967408   0.8666637   1.9424576   0.65053755\n  1.213999    0.83054507  0.58383566  0.5853897  -0.8336547  -1.663625\n -0.8808704  -1.6657085   0.4938893   1.8228173   1.266413   -0.6406024\n  1.3365096  -2.3075008  -1.5180469  -1.621493    0.5110549   1.7200226\n  1.4699064  -0.06271587 -1.148583   -2.3795362  -0.8629069   2.1509697\n -0.38984284 -1.7329227  -1.7065632   1.6297215  -0.04022247 -2.2852757\n  1.5511621  -2.9583845  -0.64279336  1.98864    -0.98390925  0.97631645\n -0.8373603  -0.70118487 -2.1247077  -2.2899697  -1.671399   -0.27633795\n -1.8255758  -1.5048614  -0.33079454  1.126892   -0.8310302  -1.6751299\n -0.19406417 -1.8655758   2.052669   -0.36123645 -2.2674623  -0.56680894\n  0.98440254 -1.6724433   1.2366245   2.3705623  -1.1792895  -1.8245734\n  2.6060112   3.605364    1.8547502   1.1817261   1.1705174  -1.0231615\n -1.9801222  -2.0892072  -1.4981883   1.0576929   1.8508533   2.2195015\n -0.3187618   4.337342   -0.32964897 -0.09463868 -0.29942563 -0.8042456\n  1.469226    0.642015    0.55786467 -0.04354977 -2.5184312  -1.0843455\n  2.4400504   1.0934542  -0.5858435   1.5529152  -0.08311024  1.1449782\n -2.1868224  -2.4406278  -1.2027235  -0.35971168  1.1583966   1.182889\n -2.500581   -0.26936832  1.2028686  -0.36894792  0.23831284 -0.96247715\n -0.8128434  -1.4001424  -0.9082819  -0.89327383  0.4266453  -1.34168\n  1.1190857   1.7244302  -0.13525622  0.03209034  1.7480487   0.6991737\n -1.0711095  -0.8552773  -0.02462875 -1.0596321   2.8128643  -0.30059826\n  1.1461452  -1.4509659   1.5345695  -1.4562906   1.9803029  -0.09461658\n  3.7336168  -2.093687    0.9097591   2.8815074   0.17981979 -0.32638043\n -0.76542753 -0.03762865  0.17166127 -0.39448062  0.4901579  -1.6970767\n  1.7399356  -0.01912184  0.5092613   2.1523666  -1.6462543   2.2271273\n -2.2846086  -1.5230933   0.6684915   0.64476645  0.22799224  1.7641578\n  1.4297649  -0.5575847  -1.2813551   2.019365    1.1629124   2.5475736\n -1.9334778  -0.80256414  0.20865014 -1.505981   -0.39977947 -0.668606\n -1.1365536  -0.8791806  -0.29306182  0.5197247   1.4932395   0.8923435\n -1.8597307   1.9386957  -0.9822291  -2.1265156  -1.8620079   3.070501\n  1.2585839  -0.2977187  -0.68754935  0.9703094 ]",
            "[ 2.1446729   3.2414608   1.6260126  -1.6935102   0.7375706   1.5684353\n -0.75538135 -1.1615205  -2.4119346   2.4853966   0.76713836  3.5096602\n -1.5904477   1.6693971   0.01137478  1.4994564  -0.87992436  1.5553055\n  0.83325094  0.12645344  1.459217    0.9553271   1.5745906  -1.9478749\n  1.1769305  -4.437636    0.6096166   2.8206491  -1.4510247  -2.2385263\n -1.9474759   2.1863265  -0.7949209   0.07538844  1.2006652  -0.6524367\n  1.469587    1.6224537  -2.1536815   0.8007671   0.67644495  2.0750136\n  0.96015286  0.8102358   2.54531    -1.2595624  -0.7378754  -1.7082386\n -2.111977    1.7500889   1.3675553   1.6304923   1.0677041   0.9036688\n -2.1665509   1.9440908  -2.2387896  -1.6058042  -1.4089612   2.1818714\n -0.54287475 -1.0582731   0.24078374  1.1671468   1.6850803   3.2241573\n -0.09173607  1.4379004  -1.7229025   0.67817676 -0.26760662  0.82808405\n  0.96015286 -0.10418791 -1.0986913   2.3068652   2.4091237   0.9387464\n  1.9124641  -0.6982786  -0.0998522  -1.0109538  -2.520662    1.2941009\n  1.2801654   1.3594711  -1.8637435  -0.7078712   2.149992    4.8507066\n  2.760304    0.7863575  -2.0205746   3.9415417   1.8061067  -2.198085\n  1.8684995  -0.6977185   1.443266   -2.3628435   2.9652925   0.7115679\n -1.7202587   1.9067701  -0.2942846  -0.2462387   0.67072636 -2.062579\n  2.321158   -0.54688954 -0.45750827  1.3055708   2.9155033  -0.9576261\n -2.322551    4.1186805  -1.3018886  -2.2238023   4.4063983  -0.6789625\n -1.7500956   0.6207204   2.37844     1.2150352   0.72908145  1.8904089\n -0.85370356  1.1084453 ]",
            "[-1.401898]"
        ],
        "v_weight_list":	[
            "[[ 0.5468995   0.6134324   0.95344526 ... -0.9437201  -0.9775805\n  -0.01018136]\n [ 0.8694344   0.9928649  -0.36671138 ... -1.8107888  -0.11933422\n   1.41254   ]\n [ 4.1135063   5.8023095   2.0683858  ... -0.9165011  -6.7549663\n   8.231577  ]\n ...\n [-1.1954967  -0.32903993  0.40431187 ...  0.19893679 -0.4225573\n   0.02556152]\n [-0.6894988   0.40259528  0.59765506 ...  0.11047062  0.6850395\n   0.44284055]\n [ 0.31452432 -0.18996778 -0.6892774  ...  0.10085318  0.83419704\n  -0.5713141 ]]",
            "[[ 0.58989584  0.55022293  0.02380722 ...  0.52874434  0.12084603\n   1.1101764 ]\n [ 0.39066982 -0.12971315  0.48241863 ... -0.41210216  2.1833143\n   0.9300408 ]\n [ 0.71424615  0.5830652   0.58246124 ...  1.193251    0.5339247\n  -1.0846381 ]\n ...\n [-0.5327729   0.46050847  0.9328569  ... -0.19201437 -0.48163337\n  -1.1234348 ]\n [-1.160269    0.02224294  1.046924   ...  1.6639866  -0.78385234\n   0.3294351 ]\n [ 1.7783092  -0.1780099   0.91917264 ... -1.0421199   0.7753873\n   1.0777878 ]]",
            "[[-0.13122867]\n [-0.39067954]\n [-0.18613753]\n [ 0.34832665]\n [-0.27042055]\n [ 0.8141214 ]\n [ 0.2961176 ]\n [ 0.64825386]\n [ 0.2251536 ]\n [-0.24694355]\n [-0.24336918]\n [-0.91504043]\n [ 0.44949758]\n [-0.2722724 ]\n [ 0.3357388 ]\n [-0.24624485]\n [-0.41390184]\n [ 0.9544466 ]\n [-0.18155229]\n [ 0.37103108]\n [-0.46481586]\n [-0.29693595]\n [-0.75339013]\n [ 0.3119922 ]\n [-0.17427671]\n [ 1.5330948 ]\n [-0.32898346]\n [-1.0716748 ]\n [ 0.4759701 ]\n [ 0.38536194]\n [ 0.44938764]\n [-0.47077373]\n [ 0.4646339 ]\n [-0.2674573 ]\n [-0.53014946]\n [ 0.4692264 ]\n [-0.36648053]\n [-0.17128243]\n [ 0.46965677]\n [-0.4580993 ]\n [-0.41612223]\n [-0.29821554]\n [-0.3317032 ]\n [-0.38525626]\n [-0.29353252]\n [-0.70621705]\n [ 0.36328483]\n [ 0.33950117]\n [ 0.5069086 ]\n [-0.2898966 ]\n [-0.3668898 ]\n [-0.25875616]\n [-0.28018376]\n [-0.45532408]\n [ 0.17357029]\n [-0.47715768]\n [ 0.36204374]\n [-0.27885517]\n [ 0.23322916]\n [-0.8515001 ]\n [ 0.3333282 ]\n [-0.43170747]\n [-0.548044  ]\n [-0.46676585]\n [-0.18599781]\n [-0.77635413]\n [ 0.22442095]\n [-0.31942505]\n [ 0.2785425 ]\n [-0.4530872 ]\n [ 0.26650706]\n [-0.29852805]\n [-0.11769525]\n [ 0.5092778 ]\n [ 0.2643714 ]\n [-0.3971225 ]\n [-0.360679  ]\n [ 0.42416784]\n [-0.27981514]\n [ 0.5266779 ]\n [-0.77097774]\n [ 0.24114135]\n [ 0.30628818]\n [-0.6560755 ]\n [-0.42456934]\n [-0.2845759 ]\n [ 0.28572443]\n [ 0.4037825 ]\n [-0.24304587]\n [-1.3239594 ]\n [-0.35043347]\n [-0.70506257]\n [ 0.45180672]\n [-0.58787334]\n [-0.46622306]\n [ 0.20125696]\n [-0.31792846]\n [-0.05364091]\n [-0.28378272]\n [ 0.46533388]\n [-0.25461152]\n [-0.40090457]\n [ 0.3716355 ]\n [-0.7180751 ]\n [ 0.45479625]\n [-0.3978658 ]\n [-0.3766241 ]\n [ 0.42620295]\n [-0.41332695]\n [ 0.2218933 ]\n [-0.43893188]\n [-0.43576765]\n [-0.5272732 ]\n [ 0.48110673]\n [ 0.32423097]\n [-1.8206252 ]\n [ 0.14624369]\n [ 0.3770266 ]\n [-1.4624933 ]\n [ 0.577717  ]\n [ 0.3590604 ]\n [ 0.47949004]\n [-0.30837408]\n [-0.28581473]\n [-0.37475348]\n [-0.22293134]\n [ 0.50619626]\n [-0.22782189]]"
        ]
    },
    "actor_critic":	"my_mlp_actor_critic",
    "clip_ratio":	0.2,
    "env_fn":	"Anymal",
    "epochs":	200,
    "gamma":	0.993,
    "lam":	0.97,
    "logger":	{
        "<spinup.utils.logx.EpochLogger object at 0x7f4e5034dda0>":	{
            "epoch_dict":	{},
            "exp_name":	null,
            "first_row":	true,
            "log_current_row":	{},
            "log_headers":	[],
            "output_dir":	"/home/shawn/Documents/DRL/experiments/Sun May 10 15:04:21 2020",
            "output_file":	{
                "<_io.TextIOWrapper name='/home/shawn/Documents/DRL/experiments/Sun May 10 15:04:21 2020/progress.txt' mode='w' encoding='UTF-8'>":	{
                    "mode":	"w"
                }
            }
        }
    },
    "logger_kwargs":	{
        "output_dir":	"/home/shawn/Documents/DRL/experiments/Sun May 10 15:04:21 2020"
    },
    "max_ep_len":	120,
    "on_policy":	true,
    "pi_lr":	0.0003,
    "prev_epochs":	1100,
    "save_freq":	10,
    "seed":	0,
    "steps_per_epoch":	600,
    "target_kl":	0.05,
    "train_pi_iters":	80,
    "train_v_iters":	80,
    "vf_lr":	0.001
}