{
    "GUI":	false,
    "ac_kwargs":	{
        "activation":	"tanh",
        "hidden_sizes":	[
            256,
            128
        ],
        "log_std_list":	"[-0.4559068  -0.4659654  -0.5027088  -0.4360418  -0.48382095 -0.47164154\n -0.53647745 -0.43050736 -0.54547036 -0.47814697 -0.45849794 -0.440469  ]",
        "pi_bias_list":	[
            "[-5.37325889e-02  1.97371230e-01 -3.93348709e-02  1.94830960e-03\n  3.45594957e-02 -5.23552112e-03  3.81394140e-02 -1.37506545e-01\n -6.09254390e-02  3.20715085e-02  7.20686093e-02  1.81191146e-01\n  6.90390393e-02  3.08452658e-02  1.03944361e-01  1.99155565e-02\n -9.79247764e-02  6.66734576e-03 -8.31864104e-02  1.66021138e-01\n  3.36514004e-02  1.68658748e-01  2.32529379e-02  1.27294675e-01\n -3.91163155e-02 -1.09031513e-01  1.37965277e-01 -1.00486465e-01\n  1.67511050e-02  8.72213095e-02  3.34103592e-02  4.98130843e-02\n -1.62775964e-01  1.46042362e-01  7.87363108e-03 -1.26404062e-01\n  3.37730572e-02  8.59674811e-02  4.00207043e-02  1.16300590e-01\n -5.60365133e-02 -3.87126468e-02 -1.17044486e-02 -3.33427861e-02\n -7.21436040e-03 -1.00301296e-01 -1.39280096e-01 -1.27601638e-01\n -3.31934653e-02 -1.33779440e-02 -1.18882626e-01 -1.76471770e-01\n -7.84856975e-02 -2.52308939e-02  1.14201922e-02  1.89534370e-02\n  1.12064939e-03  7.58358538e-02  9.62936431e-02  5.94890565e-02\n  2.05158778e-02 -4.04975414e-02  9.64524001e-02  6.99490234e-02\n  9.50912237e-02  1.79841754e-03 -7.90459886e-02  1.87332109e-02\n  1.43146619e-01 -1.06241830e-01 -1.21043168e-01  1.09795138e-01\n  7.87443146e-02 -2.31403410e-02  7.83096552e-02 -1.19151801e-01\n  6.56238198e-02 -4.76044007e-02  4.76697832e-02  2.35085133e-02\n -4.89565171e-02  2.99560502e-02 -9.63835418e-02 -1.02947131e-02\n  2.26144314e-01  9.81875584e-02  5.25144022e-03  1.77019581e-01\n  3.57277878e-02 -1.91270355e-02  8.76785517e-02 -9.80285555e-02\n  1.34630144e-01  1.27564380e-02  1.19684286e-01  3.15375365e-02\n -6.76499084e-02 -1.33903369e-01  1.88206896e-01  2.26130411e-02\n -4.48506288e-02  3.61924618e-02  5.30933999e-02  8.23400393e-02\n  4.29087691e-02 -5.94765022e-02 -1.13595091e-01  4.54704538e-02\n -4.90427017e-02  6.90701082e-02 -3.36532556e-02 -8.95109773e-02\n -1.82771683e-01 -3.30412276e-02 -4.06268518e-03  3.54066901e-02\n  2.60102126e-04  1.02209158e-01  1.57173216e-01  1.87775597e-01\n -9.28724334e-02  5.54024130e-02 -2.30831448e-02 -5.86153530e-02\n  1.33909494e-01 -6.38010725e-02 -4.03682813e-02 -1.31441906e-01\n  1.16253093e-01 -6.71623647e-02 -1.18951075e-01  1.48385078e-01\n -2.05681124e-03  1.27459496e-01  3.15217115e-02 -1.34617165e-01\n  4.17696014e-02  5.01400083e-02  1.18243411e-01  1.08096434e-03\n -2.96956822e-02 -7.80721009e-02  2.39259060e-02 -5.16856425e-02\n -2.48147696e-02 -1.40268996e-01  4.57373522e-02 -7.33799767e-03\n  9.43605602e-02 -3.47349159e-02 -1.29773155e-01  1.72669128e-01\n -2.51124054e-02 -3.56133133e-02 -5.98493889e-02 -1.96516085e-02\n  1.35718569e-01  1.74274251e-01  1.29702270e-01 -7.57616535e-02\n -2.14881331e-01  1.95779473e-01  1.17797494e-01  5.66501394e-02\n  6.04788139e-02 -1.65541887e-01 -3.14126462e-02 -9.90340114e-03\n -3.10136378e-02 -1.15329631e-01  2.16860101e-02 -3.35628577e-02\n  6.15320317e-02 -7.17257755e-03 -1.40587622e-02  1.95993547e-04\n -1.00698248e-01 -3.97036150e-02 -7.81638362e-03  5.51403351e-02\n -6.84670284e-02  3.77793610e-02  7.12988898e-02  1.11907604e-03\n  7.64748454e-02  8.95366631e-03 -1.80304527e-01 -6.68046251e-02\n -1.50665849e-01 -5.58989346e-02 -4.34090197e-02 -6.54036254e-02\n -5.43685979e-04  6.29071146e-02  1.58338174e-02 -8.50797519e-02\n -8.86947475e-03  3.65864895e-02  8.67892504e-02 -1.85825222e-03\n  1.00958841e-02  1.45382985e-01 -5.76338023e-02 -8.10140930e-03\n -5.63930571e-02  9.22425091e-02  1.39833629e-01  1.44372746e-01\n -5.37514221e-03  6.00718893e-02  5.17578982e-02 -4.07209396e-02\n -8.52821022e-02 -1.97351813e-01 -1.84981413e-02 -4.76926193e-02\n -4.19679359e-02 -1.70094762e-02 -5.34877228e-03  3.39744147e-03\n  1.03157476e-01  3.54166254e-02 -1.61196273e-02  5.22499755e-02\n  1.13452859e-01 -2.44162120e-02  1.11016996e-01 -9.33873877e-02\n  2.60386690e-02  4.98854928e-02 -1.06028393e-01  3.06909122e-02\n  5.12566715e-02  3.62568744e-03 -1.39194904e-02  8.21986049e-02\n  1.31738745e-02 -8.36126432e-02 -1.15420669e-01 -6.95058284e-03\n -2.59554088e-02 -2.03472115e-02 -3.06793917e-02  6.27425015e-02\n -6.35231212e-02 -1.90921463e-02  8.56494829e-02 -3.05915494e-02\n  1.79140065e-02  2.42433455e-02  5.11493161e-02  5.83606735e-02\n  6.27722368e-02 -1.40075982e-02  1.05466522e-01  7.57431537e-02]",
            "[ 0.00747603 -0.09212168 -0.00679915  0.04548363  0.02365592  0.19046438\n  0.0911836  -0.05698172 -0.04124187 -0.16782315  0.05493664 -0.20801166\n  0.047959    0.00441288  0.11636946 -0.11506444  0.06718293 -0.12207337\n  0.00843007  0.10071495 -0.1717056  -0.12176231  0.0868233  -0.0444827\n  0.09155563 -0.10077771 -0.02734342  0.03108792  0.05647159  0.02878103\n  0.01896079  0.14439146  0.05099072  0.04982866  0.0586088   0.07243829\n  0.11138535 -0.13715604  0.10277428  0.02819585 -0.09956574 -0.16971515\n -0.05853471  0.03037805  0.07203035 -0.07052706  0.15457371 -0.05203006\n  0.04556841 -0.00104375  0.20694263  0.00325454  0.06087032 -0.0047047\n -0.14284003 -0.00073172 -0.05667726 -0.04063018  0.01287059  0.07082818\n  0.1381414  -0.03060419 -0.02666593 -0.03395419 -0.10895684  0.05619761\n -0.0039515   0.0536506   0.04440035 -0.02184884  0.0379895  -0.10181946\n  0.03483363  0.00123819  0.02499424 -0.10657153 -0.00075069 -0.00320682\n -0.03816329  0.06073899  0.06879602 -0.06061644 -0.02578335 -0.00260163\n  0.05661648  0.10029303  0.0918602  -0.2694364   0.14522128  0.00848603\n  0.04453268 -0.05110886 -0.00533237  0.09220554  0.08367553 -0.08589736\n -0.02616029  0.06054433  0.05189481 -0.04979215 -0.18860662  0.12346402\n  0.13458605  0.00617543  0.13209882  0.0464646   0.00596315  0.07691544\n -0.03688877  0.03123063  0.19943617  0.03885291  0.05976936  0.07243814\n -0.05990834 -0.05977316 -0.10005449  0.13163199  0.08538348  0.09550042\n  0.0393356  -0.1642096   0.03463357  0.04975129  0.09233238 -0.11553404\n -0.01206687  0.01778788]",
            "[ 0.02644334 -0.02974745  0.02344081 -0.0501296  -0.00994687 -0.05089314\n -0.05074408 -0.06257902  0.00972842 -0.00821068 -0.05280638 -0.02375486]"
        ],
        "pi_weight_list":	[
            "[[ 0.14980976  0.19221626  0.11987759 ...  0.06883009 -0.24206492\n  -0.00291702]\n [-0.04485856  0.13591084  0.12521654 ... -0.10793521 -0.06527167\n   0.06028541]\n [-0.01226838  0.01563084 -0.18475245 ... -0.12433785 -0.1082636\n  -0.1062087 ]\n ...\n [-0.01096756 -0.2271114   0.03830042 ... -0.01551118  0.11962896\n  -0.20946796]\n [-0.12403198 -0.2689582   0.09531444 ...  0.02212834 -0.09122378\n  -0.09518042]\n [-0.02795457  0.11440136 -0.08540316 ... -0.05641094  0.0403301\n   0.17179582]]",
            "[[ 0.13704073  0.06151903 -0.04491281 ...  0.01743532 -0.01712037\n   0.12108768]\n [-0.09814029 -0.22690882 -0.01007472 ... -0.05369272  0.07352509\n  -0.0998879 ]\n [ 0.23549484 -0.17257746 -0.22058389 ... -0.05401126  0.02547747\n   0.08918034]\n ...\n [ 0.07398082  0.09604032 -0.00891085 ... -0.02312909 -0.1035589\n   0.08401943]\n [-0.17431085 -0.05194373  0.17517678 ...  0.16657571 -0.04042969\n   0.04704188]\n [ 0.10281145  0.02041013 -0.05597741 ... -0.09125642  0.0059855\n  -0.19834721]]",
            "[[ 0.12589559 -0.22974552 -0.08609087 ... -0.4098629   0.20079787\n   0.07040614]\n [-0.12454173  0.15549374 -0.05957336 ...  0.03701827 -0.04209344\n  -0.14068599]\n [-0.23102666  0.04976725  0.10018268 ... -0.11623008 -0.00834405\n  -0.12843342]\n ...\n [-0.13773417  0.01323283  0.14138217 ... -0.01554559 -0.05320686\n   0.17178874]\n [ 0.0742983   0.00247915  0.17062709 ... -0.10236637  0.1231969\n  -0.04795886]\n [ 0.00238874  0.15377659 -0.00906814 ... -0.02049001 -0.21863091\n  -0.0984017 ]]"
        ],
        "v_bias_list":	[
            "[ 2.2731411e+00  2.4157233e+00  4.2326838e-01  3.6268684e-01\n  4.8940584e-01 -1.4430683e+00  1.9660786e-01  1.6868550e+00\n -5.4422009e-01  1.3785677e+00  2.2042801e+00 -2.2517061e+00\n -1.3647540e+00  1.8830208e+00 -3.3358960e+00  7.6589841e-01\n -9.6685052e-01  2.2383131e-01  7.7442712e-01 -6.4330381e-01\n -5.8687598e-02  1.0557863e+00 -1.2705251e+00  1.8113258e+00\n -1.1181498e+00  1.3284239e+00 -1.5966225e+00  7.7816522e-01\n -5.2087434e-02  2.5953434e+00  8.2938719e-01  3.5566923e-01\n  1.1420320e+00 -3.7065876e-01 -9.8507786e-01  7.6255836e-02\n -9.1452128e-01 -1.1851785e+00  6.2838149e-01 -1.6578693e+00\n -1.8115291e-01 -1.0462894e+00  1.9026233e+00 -1.8215333e+00\n -3.4186313e+00  2.0440049e+00 -1.1883103e+00  5.7074022e-01\n -6.1153853e-01  1.2772261e-01  1.4395430e+00 -1.2144053e+00\n -2.9664381e+00  1.2648340e+00 -1.3328608e+00  3.9806518e-01\n  1.2069024e+00 -1.1818651e+00  1.3600765e-01  8.4519577e-01\n  1.1320211e+00 -2.1420562e+00 -2.2302551e+00 -3.0923245e+00\n -8.1670207e-01 -1.1986279e+00  5.0994545e-01 -2.0116131e+00\n -7.3311889e-01  2.2783659e+00  2.2368472e+00  2.5224254e-01\n  3.0926805e+00 -1.2151003e+00 -1.4281050e+00  8.6167628e-01\n  1.9520122e+00  1.9314358e-01  8.1230640e-01  8.2598907e-01\n  4.9992803e-01  1.0878443e-01 -7.1830744e-01 -1.5310026e+00\n -8.3310670e-01 -1.5865030e+00  8.5711634e-01  2.0874534e+00\n  1.1669717e+00 -2.1574168e-01  1.5449167e+00 -2.5202310e+00\n -1.4960471e+00 -1.8679872e+00  2.6755396e-01  1.7691244e+00\n  1.3530328e+00  3.0331638e-01 -1.4620749e+00 -2.6063728e+00\n -2.0593795e-01  2.1783991e+00 -1.5983112e-01 -1.7237734e+00\n -2.1113694e+00  1.9897145e+00  1.4247742e-01 -2.4681306e+00\n  1.6364959e+00 -3.0138283e+00 -4.8963577e-01  2.1517158e+00\n -1.1690649e+00  1.3279750e+00 -8.7333196e-01 -6.1115247e-01\n -2.3342812e+00 -2.3735774e+00 -1.2686813e+00 -5.5540138e-01\n -1.8201888e+00 -1.4381605e+00 -3.5970160e-01  1.1045327e+00\n -1.2838707e+00 -1.4460273e+00  1.2821788e-03 -1.9276235e+00\n  1.8542831e+00 -4.9074274e-01 -2.5903497e+00 -5.5382150e-01\n  9.7529715e-01 -1.2350032e+00  1.6224672e+00  2.4872198e+00\n -9.6472156e-01 -1.9377584e+00  2.8353269e+00  3.8670104e+00\n  1.7056644e+00  1.5044489e+00  1.0319822e+00 -1.3436365e+00\n -2.4420941e+00 -2.2284019e+00 -1.4628376e+00  1.3031304e+00\n  2.2205620e+00  2.3681438e+00 -5.1200455e-01  4.4597845e+00\n -9.8500675e-01  2.6212361e-01 -9.6454293e-02 -5.7598984e-01\n  1.4251482e+00  6.4161378e-01  6.9616812e-01 -4.5595276e-01\n -2.9681852e+00 -6.0658902e-01  2.5940940e+00  8.7425274e-01\n -5.6690240e-01  1.4289509e+00 -3.6847627e-01  1.3611956e+00\n -2.7868867e+00 -2.9308999e+00 -1.2609004e+00 -2.1714222e-01\n  1.1656142e+00  7.9726583e-01 -2.0988455e+00 -5.0865967e-02\n  1.1880708e+00  2.2615935e-01  1.7367265e-01 -7.6321125e-01\n -4.0957838e-01 -1.5722405e+00 -7.3084438e-01 -4.9554279e-01\n  8.4302016e-02 -9.3433589e-01  1.4266301e+00  1.7217236e+00\n -6.1821550e-01  4.8821610e-01  2.3411405e+00  5.3497022e-01\n -1.0881370e+00 -7.9315186e-01 -5.5795938e-02 -1.1567025e+00\n  2.5943835e+00 -2.7745971e-01  1.0846604e+00 -1.5091989e+00\n  1.3291869e+00 -9.7160977e-01  2.1782057e+00  3.0502310e-01\n  3.8363984e+00 -2.2895257e+00  1.2686902e+00  2.8892725e+00\n  4.6085989e-01 -4.0588829e-01 -1.1508604e+00 -1.0922261e-01\n  3.1637353e-01 -2.7451026e-01  3.5657164e-01 -2.0075927e+00\n  1.7656581e+00 -9.7534776e-02  4.8815587e-01  2.3910248e+00\n -2.0655470e+00  2.4120722e+00 -2.2222102e+00 -1.9351276e+00\n  4.8754084e-01  5.3914964e-01 -3.3349534e-03  1.8983437e+00\n  1.4537513e+00 -8.8090426e-01 -1.8782778e+00  2.0269957e+00\n  5.5464566e-01  2.5388892e+00 -2.0679703e+00 -1.2610043e+00\n  2.7364892e-01 -1.2969557e+00 -7.4147093e-01 -9.5519036e-01\n -1.2424160e+00 -1.0566871e+00 -2.1285523e-01  5.7009071e-01\n  1.7556092e+00  9.1908354e-01 -2.0674181e+00  1.6877421e+00\n -1.2111845e+00 -2.5608325e+00 -2.1276004e+00  2.9035890e+00\n  1.5664431e+00 -2.4576278e-01 -5.4257661e-01  6.5689826e-01]",
            "[ 1.9383996   2.9999087   1.0186378  -1.7028002   0.3251098   1.7439044\n -0.11709347 -0.96720266 -2.1017761   1.9679673   0.6507811   3.7510502\n -1.0066159   1.4482893   0.3422973   1.2584593  -1.1269869   1.4752785\n  0.4879299   0.415784    1.5664309   0.75920886  1.8594687  -1.3004185\n  1.0434664  -4.7844634  -0.36733976  2.6270096  -1.1360751  -2.4523942\n -2.2365499   2.3555348  -0.9742345  -0.17471811  0.91602784 -0.29953012\n  1.3224366   1.3377512  -1.5359002   0.5344247   0.6936614   1.6458704\n  0.74311286  0.60600734  2.6410623  -1.5908386  -0.4043071  -0.9978603\n -2.122054    1.9545641   1.0329955   1.0887371   0.9367126   0.81502867\n -1.9201092   1.4943895  -2.3045626  -2.2357466  -1.3012233   2.4794843\n -0.11316683 -1.3280959  -0.46988985  0.9114811   1.2250583   3.5150552\n  0.07021634  1.6323076  -1.4687403   0.01016716  0.02998544  0.53896487\n  0.6424382   0.0322179  -1.0355152   2.5392911   2.5076818   1.5963639\n  1.2645036  -0.4315681  -0.1826531  -0.6032953  -1.8583044   1.3553361\n  0.97985977  1.3389643  -1.6698731  -0.6484094   1.7481427   5.12747\n  2.3812444   0.7455846  -1.9436208   3.778653    0.8639301  -1.2338285\n  1.8330017  -0.742796    1.1340171  -2.1603699   2.8858583   0.81739104\n -1.5835302   1.8026315  -0.00577231 -0.14743367  0.6375433  -2.1893508\n  1.8613727  -0.2876361  -0.65439934  1.018563    3.0032713  -0.7634162\n -2.1116467   4.357613   -0.9466928  -1.6789359   4.7209935  -0.5041283\n -1.4662257   0.8989601   1.6778822   1.0803179   0.6042036   1.1999813\n -0.69641846  1.2550557 ]",
            "[-1.3658761]"
        ],
        "v_weight_list":	[
            "[[ 0.7013618   0.8292873   0.60322446 ... -0.9447396  -1.3078365\n   0.19838637]\n [ 1.0440984   1.0791181   0.02447483 ... -1.7905926   0.21341538\n   1.0984299 ]\n [ 4.2978706   5.895809    1.9214375  ... -0.9770031  -6.7011113\n   8.706704  ]\n ...\n [-1.1066791  -0.3145053   0.44910723 ... -0.02267759 -0.7196051\n   0.46112204]\n [-1.0323441   0.03004414  0.7660543  ...  0.43069142  0.40083358\n   0.80398303]\n [ 0.12498158  0.16141467 -0.37846312 ...  0.4140104   1.2459451\n  -0.8929926 ]]",
            "[[ 0.4057727   0.41691002 -0.27786824 ...  0.03326629  0.39189145\n   0.9657057 ]\n [-0.2818503  -0.44912124 -0.0606025  ... -0.5706173   2.5923278\n   0.7866404 ]\n [ 0.78622425  0.16678493  0.91709256 ...  0.9403091   0.41852683\n  -1.0807694 ]\n ...\n [-1.0594759   0.83017737  0.4754953  ... -0.09577059 -0.83816516\n  -1.0932097 ]\n [-1.2343252  -0.16856039  1.0064458  ...  2.6191638  -1.0997412\n   0.6134013 ]\n [ 1.7599005  -0.22323622  1.1689652  ... -1.2932187   0.83181417\n   0.81330514]]",
            "[[-0.20130113]\n [-0.23529604]\n [-0.27503446]\n [ 0.47103304]\n [-0.25661775]\n [ 0.5887503 ]\n [ 0.16795842]\n [ 0.3031752 ]\n [ 0.08076423]\n [-0.11795814]\n [-0.14254342]\n [-0.79990786]\n [ 0.18826294]\n [-0.2377497 ]\n [ 0.09785192]\n [-0.385712  ]\n [-0.30716103]\n [ 0.685984  ]\n [-0.25799727]\n [ 0.32645574]\n [-0.49657238]\n [-0.14407621]\n [-0.5253231 ]\n [ 0.20992593]\n [-0.21706459]\n [ 1.4934379 ]\n [-0.15526009]\n [-0.6254355 ]\n [ 0.18542893]\n [-0.06564186]\n [ 0.46585354]\n [-0.5488418 ]\n [ 0.27072814]\n [-0.18791041]\n [-0.22234602]\n [ 0.11208259]\n [-0.16082771]\n [ 0.01358365]\n [ 0.44406793]\n [-0.15366381]\n [-0.29834417]\n [-0.37091914]\n [ 0.20082009]\n [-0.17018655]\n [-0.17240271]\n [-0.65596867]\n [ 0.26850212]\n [ 0.35190484]\n [ 0.42447543]\n [-0.20055702]\n [-0.29531556]\n [-0.11466999]\n [-0.2518765 ]\n [-0.2210908 ]\n [ 0.2504652 ]\n [-0.2330137 ]\n [ 0.23271167]\n [-0.19331522]\n [ 0.10503434]\n [-0.7854872 ]\n [ 0.2111029 ]\n [-0.12501366]\n [-0.4393484 ]\n [-0.3046147 ]\n [-0.145986  ]\n [-0.57050383]\n [ 0.07730121]\n [-0.45099103]\n [ 0.2650787 ]\n [-0.33036005]\n [ 0.11473798]\n [-0.0947537 ]\n [ 0.17550524]\n [ 0.2500233 ]\n [ 0.22984043]\n [-0.29494128]\n [-0.3531935 ]\n [ 0.20593515]\n [-0.28659627]\n [ 0.18784751]\n [-0.49968284]\n [ 0.18629466]\n [ 0.09469188]\n [-0.47072113]\n [-0.3413801 ]\n [-0.23309684]\n [ 0.18040416]\n [ 0.4225849 ]\n [-0.21075016]\n [-1.275208  ]\n [-0.19828199]\n [-0.4299734 ]\n [ 0.6016181 ]\n [-0.32839814]\n [-0.23355623]\n [ 0.22318262]\n [-0.46200344]\n [-0.21630692]\n [-0.0893561 ]\n [ 0.0935879 ]\n [-0.2973015 ]\n [-0.21494807]\n [ 0.37445244]\n [-0.43622085]\n [ 0.10945781]\n [-0.208264  ]\n [-0.37172726]\n [ 0.5282364 ]\n [-0.40905005]\n [ 0.21419492]\n [ 0.10308164]\n [-0.30632162]\n [-0.36530477]\n [ 0.4323967 ]\n [ 0.12060557]\n [-1.7828826 ]\n [ 0.19553842]\n [ 0.21101928]\n [-1.4242964 ]\n [ 0.5227115 ]\n [ 0.24616367]\n [ 0.18124111]\n [-0.21647789]\n [-0.1675779 ]\n [-0.26520064]\n [-0.20026141]\n [ 0.25687277]\n [-0.38243195]]"
        ]
    },
    "actor_critic":	"my_mlp_actor_critic",
    "clip_ratio":	0.2,
    "env_fn":	"Anymal",
    "epochs":	1500,
    "gamma":	0.993,
    "lam":	0.97,
    "logger":	{
        "<spinup.utils.logx.EpochLogger object at 0x7fe94cbd3710>":	{
            "epoch_dict":	{},
            "exp_name":	null,
            "first_row":	true,
            "log_current_row":	{},
            "log_headers":	[],
            "output_dir":	"/home/shawn/Documents/DRL/experiments/Mon May 11 23:59:10 2020",
            "output_file":	{
                "<_io.TextIOWrapper name='/home/shawn/Documents/DRL/experiments/Mon May 11 23:59:10 2020/progress.txt' mode='w' encoding='UTF-8'>":	{
                    "mode":	"w"
                }
            }
        }
    },
    "logger_kwargs":	{
        "output_dir":	"/home/shawn/Documents/DRL/experiments/Mon May 11 23:59:10 2020"
    },
    "max_ep_len":	60,
    "on_policy":	true,
    "pi_lr":	0.0003,
    "prev_epochs":	0,
    "save_freq":	10,
    "seed":	0,
    "steps_per_epoch":	600,
    "target_kl":	0.01,
    "train_pi_iters":	80,
    "train_v_iters":	80,
    "vf_lr":	0.001
}