{
    "GUI":	false,
    "ac_kwargs":	{
        "activation":	"tanh",
        "hidden_sizes":	[
            256,
            128
        ],
        "log_std":	"[-2.457314  -2.4571183 -2.4570875 -2.4570904 -2.457181  -2.4575305\n -2.4567778 -2.457148  -2.4568772 -2.4571998 -2.4569113 -2.4568403]",
        "pi_bias_list":	[
            "[-1.0410670e-02  3.0961931e-03  4.1394397e-03 -1.8997572e-03\n  2.8434084e-03 -5.7989811e-03 -4.0525771e-03 -5.0549004e-03\n  9.8874681e-03 -3.6458625e-03  7.1164360e-03 -3.7878992e-03\n -4.6868348e-03  1.0663779e-02  3.3118112e-03 -3.2901489e-03\n -7.0419931e-03 -3.4056050e-03 -6.0107005e-03  2.7588883e-04\n -1.3044998e-02 -8.8895345e-03  4.3539009e-03  2.6084166e-03\n -1.0366273e-02 -8.2160486e-03  6.0630250e-03  8.9398874e-03\n  1.0332383e-03 -2.1037844e-03  6.5470096e-03 -4.5101778e-03\n -7.2024134e-03  7.4593499e-03  1.0942681e-03  8.7837258e-04\n -5.9595467e-03  6.6511063e-03 -2.1481498e-03  3.9845072e-03\n  1.2501501e-02  4.9329083e-03 -3.2199924e-03 -2.6433794e-03\n  3.1120593e-03  4.2756377e-03 -1.6416822e-02  7.4195764e-03\n -4.1805431e-03 -1.1757151e-02  4.0638484e-03  4.4401893e-03\n -4.5206449e-03 -5.6442884e-03 -8.5803624e-03 -2.3845006e-03\n  2.0084125e-03  3.4025270e-03  3.1461000e-02 -6.5149162e-03\n  1.1644232e-02 -7.7650561e-03  2.2217745e-03  6.1011673e-03\n  6.0772564e-04  7.2183907e-03 -1.8151527e-03 -6.0810009e-03\n  2.1956612e-03 -3.5593181e-03 -1.1105262e-02  4.4689612e-03\n  6.6296039e-03 -9.1599589e-03  8.7942164e-03  2.2348093e-03\n -2.4814934e-02 -3.4253497e-03 -2.2239206e-02  1.6969355e-02\n  3.3679316e-03  4.4619641e-03  3.4652753e-03  4.5536235e-03\n  2.2111593e-02  4.4812029e-03 -2.6853117e-03  5.8028912e-03\n -1.4203844e-02  4.4169803e-03  2.5186628e-02 -9.5802592e-03\n  8.8624842e-04  1.4322600e-02  6.5014958e-03  7.0949281e-03\n -4.8421862e-04 -3.3417456e-03  7.8227241e-03  1.9583467e-02\n -4.3051818e-04  3.2710037e-03 -8.3818212e-03 -9.8447455e-03\n  2.3951413e-02 -8.0685075e-03 -6.1464105e-03 -9.0332134e-03\n -6.8606413e-03 -8.3244853e-03 -3.5953582e-03 -1.9239279e-02\n  1.1311974e-03 -3.3633446e-03  1.0486198e-02  4.7024363e-03\n  8.7705636e-03  2.5905548e-03  2.0218326e-03  7.7373986e-03\n -3.1522820e-03  3.4669437e-03 -4.6233856e-03  2.1581815e-05\n -3.2678634e-02 -1.1498484e-02  8.3776508e-03 -5.1526390e-03\n  1.4733194e-02 -6.1242506e-03 -2.4191209e-04  7.4894838e-03\n -1.5365598e-03  5.4149982e-03 -4.5759981e-03  8.3206408e-03\n  9.6344789e-03  3.7427051e-03  8.1585431e-03  5.1775402e-03\n -1.3630727e-02  5.4072536e-04  2.9395074e-03  1.0148843e-02\n  1.1329789e-02 -1.8123577e-03  1.5439551e-03  8.9802761e-03\n -1.3994620e-02  1.9885845e-02  5.8804215e-03  5.3950510e-04\n  3.1171117e-03  3.4599364e-04 -3.7974920e-03  1.4192210e-02\n  2.3921668e-03  7.3013217e-03  4.1227224e-03 -1.0077091e-02\n -2.3904711e-03  1.0199898e-02  7.0773568e-03 -3.1807611e-03\n  1.3282305e-02 -5.8942307e-03 -3.7502409e-03 -1.6225399e-02\n -1.9917624e-02  2.7582231e-03 -2.3798202e-03 -5.9351129e-03\n -3.5779183e-03 -3.1743764e-03  2.9230341e-03 -5.2640452e-03\n -1.6501473e-02  3.4075950e-03  1.2152815e-03  4.3045552e-03\n  9.6003730e-03  1.6546370e-02 -2.6971994e-03  9.7540468e-03\n -1.3589417e-04  5.6154164e-03  7.4399859e-03 -4.1969758e-03\n -1.2110580e-02 -5.9552337e-03 -2.0460258e-03 -5.3013833e-03\n -8.2102856e-03  4.8283691e-04  2.7563861e-03  8.2410173e-03\n -9.4754063e-03 -1.5318491e-03  8.7483926e-03 -1.8023308e-03\n  7.0347795e-03  1.1891384e-02 -9.8158012e-04 -3.1126805e-02\n -9.0920189e-03  1.2387895e-03 -1.5876446e-02 -1.2176986e-03\n  3.3423947e-03 -1.5724054e-02 -7.9405587e-03  4.2314728e-05\n -5.6691673e-03 -9.3748504e-03 -6.8897512e-03 -2.5666351e-03\n  1.1086323e-03 -5.8917687e-03 -7.2663524e-03  1.4390535e-02\n  4.8839496e-03 -1.9497696e-03  8.0476683e-03  5.2094688e-03\n -8.1750937e-03 -7.9358416e-03  1.4244008e-02  1.0142132e-02\n -6.5651853e-03 -3.4020229e-03  1.8466352e-03 -3.0073643e-04\n  1.0106263e-02  1.8269379e-03 -6.6504544e-03  1.4650513e-02\n  1.3295982e-02 -4.0693358e-03 -3.3624470e-03  5.9944845e-04\n -4.7819717e-03  8.6506549e-03 -2.1083355e-03  4.4168001e-03\n  1.4597393e-03  3.9291652e-03  6.2295776e-03  5.4126238e-03\n  3.8141732e-03 -1.4466082e-02  6.6652736e-03  2.0726977e-02\n -9.2264946e-04 -5.6460947e-03  5.8985017e-03  3.8811304e-03]",
            "[ 5.93890762e-03  4.64807916e-03  4.15336341e-03 -2.17922055e-03\n  1.22915264e-02  1.57109406e-02  7.14958832e-03  2.24317377e-03\n -3.10493144e-03 -7.79310986e-03  3.82614532e-03 -2.75018122e-02\n -3.71702947e-03 -3.80782993e-03  8.82390793e-03  8.94126948e-03\n -1.64189213e-03 -6.86974404e-03 -1.30572845e-03  8.15870892e-03\n -1.30794966e-03 -4.01070202e-03  3.15082236e-03  2.52978061e-03\n  1.77115668e-02 -1.22045642e-02  7.99192276e-05  3.42884264e-03\n  1.83061371e-03  2.04424243e-02 -3.76506639e-03  7.20199710e-03\n  6.96226163e-03  8.88517406e-03  5.23288210e-04  2.55609443e-03\n  4.56838869e-03  6.70513744e-03  8.06998555e-03  1.15738355e-03\n -4.52773413e-03 -1.56105636e-02 -8.15608073e-03  1.79287698e-02\n  1.16016483e-02  6.17146771e-03  1.02644917e-02 -7.20203482e-03\n -4.83745011e-03 -1.52710616e-03  4.19535525e-02 -1.01987422e-02\n -8.41288734e-03  3.07179551e-04 -1.65091231e-02  4.73323325e-03\n -1.39968265e-02  7.50661828e-03  9.59502067e-04  1.89092138e-03\n  3.42593133e-03 -1.07830185e-02 -3.77237354e-03  3.41847260e-03\n  5.41655347e-04 -3.05843144e-03 -3.18519352e-03  9.02325474e-03\n  5.78838866e-03 -4.80739726e-03  3.32199573e-03  1.01533867e-02\n -5.57933142e-03 -9.46207624e-03  9.81275085e-03 -5.42515935e-03\n  4.52109100e-03  1.05677042e-02 -3.34425666e-03 -1.17997099e-02\n -8.02341476e-03  1.45365472e-03  5.20203495e-03 -9.79311299e-03\n -1.19827958e-02  7.23447790e-03  5.28514618e-03 -2.08728034e-02\n  6.30557211e-03 -7.48474151e-03  1.81917623e-02  5.82014583e-03\n  9.01297294e-03 -7.57254520e-03  1.15629658e-02 -8.57661571e-03\n  6.85003726e-03  1.08839413e-02  5.75897098e-03  4.17844532e-03\n -8.75508599e-03 -1.80131197e-03  3.56384329e-02  1.67865772e-02\n  5.56112733e-03 -8.88708048e-03 -1.34116812e-02  1.85634885e-02\n -1.10649010e-02  9.71965026e-03  3.63358925e-03  8.30177777e-03\n  8.24710913e-03 -4.92013665e-03  2.22550705e-03 -8.06645583e-03\n -8.40659440e-03  1.33673232e-02  1.23624960e-02  7.66817527e-03\n -7.86744431e-03 -1.52473096e-02 -2.83680088e-03  9.30858590e-03\n  3.93245369e-03  9.01784655e-03 -9.43909027e-03  4.95310361e-03]",
            "[ 0.00034359  0.00299185 -0.00615647 -0.00644062 -0.00255696 -0.00961255\n  0.00307891 -0.00186819  0.00486943 -0.00182809 -0.01213359  0.00936629]"
        ],
        "pi_weight_list":	[
            "[[ 0.05564106 -0.0217988   0.0441125  ...  0.09795578 -0.13037781\n   0.06539212]\n [ 0.04246533 -0.11343747  0.10767188 ... -0.06718263 -0.08877923\n   0.02719446]\n [-0.0953081   0.00535713 -0.08934604 ... -0.08753236 -0.00160968\n  -0.08012828]\n ...\n [-0.02998795 -0.11286891  0.00774354 ... -0.03891901  0.09353468\n  -0.10277047]\n [-0.05563264  0.0125557   0.01546244 ...  0.01334208 -0.12070685\n  -0.03638888]\n [-0.00101453 -0.04400455 -0.12640956 ...  0.02236845  0.00016824\n   0.05460868]]",
            "[[ 0.04391828  0.06419501 -0.06371158 ...  0.06602318 -0.001444\n   0.12264861]\n [-0.09777071 -0.10952131  0.06562752 ...  0.05357875  0.06652938\n  -0.09385772]\n [ 0.07782122 -0.09117072 -0.04922357 ... -0.01000675 -0.072599\n   0.07759359]\n ...\n [ 0.0322192   0.09175111  0.02746218 ...  0.03735651 -0.00307985\n   0.09171507]\n [-0.04291587  0.00103897  0.04654706 ...  0.01847766  0.02834032\n   0.10615321]\n [ 0.04855818  0.12313488  0.0449789  ... -0.08591039  0.031945\n  -0.09964821]]",
            "[[ 0.10447568 -0.16553178 -0.05620539 ... -0.12842023  0.13317461\n   0.1260604 ]\n [-0.09715283  0.13726872 -0.07099076 ... -0.06834578 -0.09702023\n  -0.148155  ]\n [-0.09906004  0.09270798  0.10452513 ... -0.05426421  0.02767855\n   0.03373076]\n ...\n [-0.1267875   0.08364332  0.14949043 ... -0.02053279 -0.07664211\n   0.11003694]\n [ 0.03783793 -0.10003556  0.16135821 ... -0.14967144  0.14624263\n  -0.00470317]\n [ 0.13792397  0.17932239  0.09485693 ... -0.19721422 -0.1636805\n  -0.18290362]]"
        ],
        "v_bias_list":	[
            "[ 2.03612279e-02  1.18695349e-02  1.31280590e-02 -2.38760319e-02\n -6.81384001e-03 -6.91128224e-02 -1.16932401e-02  8.47666804e-03\n -6.29086718e-02 -5.63252065e-03 -2.05524010e-03  2.71392297e-02\n  1.17183812e-02  4.26707510e-03 -2.98531028e-03 -9.07071307e-03\n  9.51553788e-03  3.59529853e-02 -2.52346322e-03 -1.29118189e-02\n -1.81290153e-02 -1.06415721e-02  2.77101379e-02  1.39689874e-02\n -2.21476108e-02  2.66726781e-02  3.33901960e-03  3.07672769e-02\n  2.15962734e-02  8.36234103e-05  5.58701856e-03  1.64391510e-02\n -3.31991278e-02 -1.17983501e-02  2.96093132e-02 -5.55617101e-02\n  3.55872847e-02 -6.07082015e-03  6.25681505e-03  1.94996390e-02\n -2.44355630e-02  2.81074196e-02 -3.15467939e-02  7.32708955e-03\n -4.38803062e-02  1.44754199e-03 -2.02516578e-02  4.35138382e-02\n  1.50174331e-02  1.62978228e-02  2.58803125e-02 -1.93993710e-02\n -2.71368250e-02  2.24235747e-03  5.80611825e-02 -1.58728436e-02\n -4.26369021e-03  1.27391405e-02 -2.66288519e-02  5.11233173e-02\n  1.26642408e-02  5.89906471e-04 -1.04413042e-02 -3.21101444e-03\n -1.89894326e-02 -2.38256287e-02 -1.20688025e-02  9.52624530e-03\n -6.09048642e-04  2.22917516e-02  1.72095820e-02 -1.41899465e-02\n -1.43982833e-02 -4.61589843e-02  2.25246567e-02  1.95811614e-02\n  2.17195489e-02  5.95687777e-02  1.08342117e-03  4.64266762e-02\n  4.74576792e-03  2.49062795e-02  3.44259292e-02 -3.62051278e-02\n -5.01487777e-02 -8.48299079e-03  1.92542952e-02  2.72560995e-02\n  2.74886284e-02  2.70152465e-02  1.38275716e-02 -1.66254472e-02\n  2.02294346e-02 -1.48238773e-02 -5.67134516e-03 -2.46678502e-03\n  1.44404452e-02 -1.42350057e-02 -4.00337391e-02 -6.01031771e-03\n  3.06494534e-03  1.28901238e-03 -1.31537346e-03 -1.74230500e-03\n -3.95599380e-02  5.43125323e-04  1.46142235e-02 -4.54086289e-02\n -1.67823918e-02  2.24745087e-02 -3.41064064e-04  4.58362792e-03\n -2.37500872e-02  4.44928668e-02  2.46522091e-02  1.34243385e-03\n -8.97209626e-03 -1.27307524e-03  5.16493898e-03 -5.50342211e-03\n -4.48185094e-02 -1.63092073e-02  1.13208089e-02  7.15876669e-02\n -2.41078772e-02  1.20086288e-02  1.60523374e-02 -5.10125421e-02\n  5.94627764e-03 -4.90338579e-02 -2.74717975e-02  4.14535701e-02\n  3.94989289e-02  2.74968892e-02  2.88072117e-02  2.19424311e-02\n -2.44148374e-02 -8.65270384e-04  1.71204042e-02  1.26867937e-02\n  1.14876572e-02  2.99360981e-04  2.94549894e-02  7.78513262e-03\n  3.99694964e-02 -2.39092894e-02 -6.26192391e-02  8.93159863e-03\n  7.80988811e-03  2.21212395e-02  9.42629296e-03  1.41925504e-02\n -7.53671164e-03  1.23832002e-02  6.34925887e-02  8.15732218e-03\n -1.13389231e-02 -3.19477194e-03  9.82963294e-03 -2.04125117e-03\n -3.91559042e-02  3.00871879e-02  2.02323012e-02 -1.59171578e-02\n  1.80394039e-03  8.52885749e-03  3.71642746e-02  2.49013212e-02\n -2.04747412e-02 -1.84762459e-02  3.21686231e-02 -9.41591784e-02\n -1.22520244e-02  1.15694460e-02  4.76829521e-03  6.06065895e-03\n -7.45077524e-03  2.30794353e-03 -8.54481012e-03 -9.33881907e-04\n  1.90595277e-02 -6.80204772e-04 -2.49827486e-02  4.18399181e-03\n  2.75164489e-02  1.07614417e-02  1.55316126e-02  3.84685025e-02\n -3.39304730e-02  3.30896601e-02 -4.35781926e-02  5.84042482e-02\n -4.21869010e-03 -3.88143882e-02  3.26372776e-03  1.84225552e-02\n  1.46366507e-02 -6.92732492e-03  1.69805717e-02 -1.87212136e-02\n  3.93302739e-02  1.91241596e-02  2.14939169e-03 -2.44459789e-02\n  2.99891010e-02 -9.23020300e-03  1.18950866e-02  3.57730202e-02\n  1.55412424e-02 -1.99466106e-02 -3.39242741e-02  2.71549523e-02\n -3.15906969e-03 -2.72791069e-02  1.29731437e-02  1.80660654e-02\n  1.93422884e-02  1.53227253e-02  5.30987754e-02  2.43642777e-02\n -7.23513169e-03  1.87487844e-02 -5.44797182e-02 -2.51111705e-02\n  2.29517408e-02  2.32594144e-02 -2.85878079e-03  1.96428560e-02\n  1.68878678e-02 -5.14185503e-02 -2.31501106e-02  2.95436941e-03\n  8.25372990e-03  2.05920525e-02 -1.87013783e-02  4.15606517e-03\n -2.60419236e-03 -7.50444597e-03  8.67512077e-03 -6.92619458e-02\n  5.22838021e-03  1.65814515e-02 -1.88411027e-02 -1.85146797e-02\n -2.28319559e-02  5.76062687e-03  1.16102106e-03  3.10110860e-02\n -1.52162630e-02 -2.48177405e-02 -5.81839830e-02  7.39233792e-02\n  8.17309320e-02 -4.32200804e-02 -1.83714908e-02  4.39951196e-02]",
            "[ 1.73010845e-02  2.01892495e-01 -3.17064971e-02  2.54411921e-02\n -2.25316323e-02  8.86123404e-02 -8.86010304e-02 -1.99832186e-01\n -9.87920612e-02  1.19683389e-02 -2.24518683e-02  4.43985946e-02\n -1.08375587e-01 -3.52898501e-02  1.53294690e-02 -3.94467562e-02\n -2.27432512e-02  5.69812879e-02  1.53909266e-01 -3.49545032e-02\n  3.82544994e-02  1.34123703e-02  2.07145944e-01 -4.91178818e-02\n -2.34106481e-02  3.59831899e-02  3.00258677e-02  5.86620718e-02\n -1.50993541e-01 -3.93834338e-02 -1.78825818e-02  1.05102634e-04\n -2.55575441e-02  1.25697348e-02 -1.04906661e-02 -5.31538837e-02\n  1.16132060e-02 -5.08307060e-03 -2.12019637e-01 -4.48526163e-03\n -3.52471881e-02 -3.73577303e-03  1.05716698e-02 -4.77491356e-02\n  2.03779027e-01 -8.91527086e-02  6.94444356e-03  6.87497407e-02\n  7.88364001e-03 -1.82013512e-02  7.31811672e-03  1.33117601e-01\n  2.69281166e-03 -1.43727008e-02 -3.71960402e-02  7.83248618e-02\n -1.00053839e-01 -8.18936527e-02 -3.00658941e-02  1.82061195e-01\n -3.23676765e-02 -2.36960333e-02  6.51826710e-02  1.24772400e-01\n -1.73868574e-02 -1.56305591e-03  1.59689058e-02 -1.37757184e-02\n  1.42787006e-02  4.00406159e-02 -4.42211609e-03 -1.22264221e-01\n  1.09794727e-02  4.84803580e-02 -9.77415498e-03 -1.08836647e-02\n  1.72188953e-01  3.07883509e-02  2.03062613e-02  3.68490517e-02\n  1.77598577e-02  2.57839151e-02 -1.99716508e-01 -3.82012315e-02\n  2.10001707e-01  5.17720310e-03 -3.00186798e-02  2.20838338e-02\n  5.38536496e-02  1.99890491e-02 -1.90591682e-02  5.08124940e-02\n -1.07625104e-01  1.37652466e-02 -3.15150991e-02  1.21588656e-03\n  1.85079038e-01 -3.63536999e-02  3.75738833e-03  1.37760714e-02\n  2.05401823e-01 -1.52693139e-02  5.35932705e-02  7.29680657e-02\n -1.12923339e-03 -2.54429486e-02  7.50616342e-02 -7.47875124e-02\n  1.91624323e-03 -1.70618653e-01 -3.48072536e-02 -3.84050459e-02\n -1.07026948e-02  7.76944384e-02 -3.60875465e-02  5.90412207e-02\n -2.03859270e-01  2.97391303e-02  1.16371186e-02  1.26659013e-02\n -1.11370258e-01  1.00688122e-01  6.29565772e-03 -2.23433767e-02\n  6.27199486e-02  1.29558388e-02  5.05607538e-02 -1.77964903e-02]",
            "[-0.03295572]"
        ],
        "v_weight_list":	[
            "[[ 0.08725948  0.08408425  0.24125819 ... -0.09330726 -0.04697081\n   0.10447158]\n [ 0.05034576  0.00621039  0.10010061 ... -0.101877   -0.02106959\n   0.05437905]\n [-0.02170108  0.18265009  0.05544543 ... -0.20238522 -0.06363028\n   0.32647666]\n ...\n [ 0.04192068  0.09819674 -0.09983017 ... -0.02055548  0.13982822\n  -0.01518026]\n [ 0.03726978  0.08918523 -0.12305185 ... -0.01354002 -0.00134135\n  -0.04881918]\n [-0.05482366  0.1376552  -0.2588455  ...  0.05334862  0.05015203\n  -0.22114696]]",
            "[[-0.0651188  -0.0580436   0.01072595 ...  0.10110156 -0.06036795\n  -0.04742571]\n [-0.07696348  0.23374522 -0.06361205 ...  0.14266178 -0.10044543\n   0.0639989 ]\n [ 0.04979464  0.08184859 -0.11325894 ...  0.0180013  -0.02524701\n   0.00653128]\n ...\n [-0.04156642 -0.19370888  0.05804275 ... -0.04624635 -0.10011293\n  -0.0889859 ]\n [ 0.16840473  0.07116508  0.16591077 ...  0.19517711 -0.08950981\n  -0.01883614]\n [-0.05303688  0.12080379  0.20038852 ... -0.11605529  0.15036109\n   0.06840965]]",
            "[[-7.50603005e-02]\n [-1.57525629e-01]\n [ 4.64616083e-02]\n [-6.57110363e-02]\n [ 9.96651361e-05]\n [-9.08938497e-02]\n [ 1.86787814e-01]\n [ 2.36520573e-01]\n [ 2.01890782e-01]\n [-5.57292812e-02]\n [-1.16688570e-04]\n [ 1.59319374e-04]\n [ 8.61435309e-02]\n [ 9.26612120e-06]\n [-2.82205958e-02]\n [-6.35748802e-06]\n [ 1.28967345e-01]\n [-1.87104553e-01]\n [-1.54448688e-01]\n [ 9.96783972e-02]\n [ 1.63361146e-05]\n [-6.27715281e-06]\n [-1.93571061e-01]\n [ 1.47316605e-01]\n [ 7.88550460e-05]\n [-6.28829524e-02]\n [-3.82508710e-02]\n [-1.23863198e-01]\n [ 2.23041624e-01]\n [-8.89643878e-02]\n [ 1.20405499e-02]\n [-1.01725258e-04]\n [-3.48295132e-03]\n [ 5.35320869e-05]\n [-7.85499724e-05]\n [ 2.35675601e-04]\n [-9.92182642e-02]\n [-1.87545993e-05]\n [ 1.57449067e-01]\n [-1.88311953e-02]\n [ 7.16969818e-02]\n [-1.45077527e-01]\n [-1.45360574e-01]\n [ 2.05179229e-01]\n [-1.49523243e-01]\n [ 1.53648987e-01]\n [-2.78948825e-02]\n [ 1.55138537e-01]\n [-2.11301986e-02]\n [ 3.91031826e-05]\n [-1.10314377e-01]\n [-1.30902857e-01]\n [-2.67365649e-02]\n [ 6.36369884e-02]\n [-6.66797496e-05]\n [-1.57349229e-01]\n [ 8.50093663e-02]\n [ 1.62069723e-01]\n [-3.90188843e-02]\n [-1.21220976e-01]\n [ 1.27680346e-01]\n [ 3.94097343e-02]\n [-1.15184076e-01]\n [-1.40293539e-01]\n [-8.09971534e-05]\n [-1.21602461e-01]\n [-7.32163414e-02]\n [ 5.19152805e-02]\n [-2.53590842e-04]\n [-8.63574892e-02]\n [-1.17983902e-04]\n [ 1.78964451e-01]\n [ 6.97763608e-05]\n [ 6.75379852e-05]\n [ 1.02485574e-05]\n [ 6.34488612e-02]\n [-9.36188549e-02]\n [-6.09922633e-02]\n [ 7.88228572e-05]\n [-3.65119390e-02]\n [-6.98566873e-05]\n [-7.46333599e-02]\n [ 1.44458666e-01]\n [ 1.52224839e-01]\n [-1.94532409e-01]\n [-1.97120607e-06]\n [ 1.47076339e-01]\n [ 9.87368185e-06]\n [-1.14122242e-01]\n [-1.19690135e-01]\n [ 1.33850408e-05]\n [ 6.22369043e-06]\n [ 1.56176791e-01]\n [-1.65056372e-06]\n [ 3.89495008e-02]\n [ 3.70612179e-05]\n [-3.96197364e-02]\n [-5.49118631e-05]\n [ 1.20234728e-01]\n [-4.11839373e-02]\n [-2.15854883e-01]\n [-5.58395914e-06]\n [-4.40918617e-02]\n [-1.88365921e-01]\n [ 3.09376162e-04]\n [ 4.34455387e-02]\n [-1.13929309e-01]\n [ 1.29868492e-01]\n [ 8.74792561e-02]\n [ 1.83283865e-01]\n [-4.65337580e-05]\n [-7.74788037e-02]\n [-1.72134351e-05]\n [-1.16918392e-01]\n [ 7.57221654e-02]\n [-2.04931349e-01]\n [ 1.85811087e-01]\n [-1.62797369e-06]\n [-7.55890533e-02]\n [ 1.16765238e-01]\n [ 1.62527904e-01]\n [-6.45746812e-02]\n [-8.39705244e-02]\n [ 4.78288271e-02]\n [-2.07216926e-02]\n [ 7.75967240e-02]\n [-1.08888201e-01]\n [ 2.14781407e-02]]"
        ]
    },
    "actor_critic":	"my_mlp_actor_critic",
    "clip_ratio":	0.2,
    "env_fn":	"Anymal",
    "epochs":	3000,
    "gamma":	0.99,
    "lam":	0.97,
    "logger":	{
        "<spinup.utils.logx.EpochLogger object at 0x7f5da8ade2e8>":	{
            "epoch_dict":	{},
            "exp_name":	null,
            "first_row":	true,
            "log_current_row":	{},
            "log_headers":	[],
            "output_dir":	"/home/shawn/Documents/DRL/experiments/Fri May  1 21:46:30 2020",
            "output_file":	{
                "<_io.TextIOWrapper name='/home/shawn/Documents/DRL/experiments/Fri May  1 21:46:30 2020/progress.txt' mode='w' encoding='UTF-8'>":	{
                    "mode":	"w"
                }
            }
        }
    },
    "logger_kwargs":	{
        "output_dir":	"/home/shawn/Documents/DRL/experiments/Fri May  1 21:46:30 2020"
    },
    "max_ep_len":	4000,
    "on_policy":	false,
    "pi_lr":	0.0003,
    "prev_epoch":	1000,
    "save_freq":	10,
    "seed":	0,
    "steps_per_epoch":	4000,
    "target_kl":	0.05,
    "train_pi_iters":	80,
    "train_v_iters":	80,
    "vf_lr":	0.001
}