{
    "GUI":	false,
    "ac_kwargs":	{
        "activation":	"tanh",
        "hidden_sizes":	[
            256,
            128
        ],
        "log_std_list":	"[-0.78861046 -0.8195972  -0.90135956 -0.8849135  -0.9468019  -0.8510977\n -0.8607609  -0.78218746 -0.84311944 -0.92302823 -0.81891793 -0.80141795]",
        "pi_bias_list":	[
            "[ 5.32432012e-02  2.25394413e-01  7.10996147e-03 -8.45716745e-02\n -3.91021222e-02 -2.26598009e-02  4.16442417e-02 -1.27960220e-01\n -3.84019502e-02  1.17197307e-02  1.65244177e-01  2.29513541e-01\n  2.50031315e-02  1.10290743e-01  1.40062988e-01  4.15221937e-02\n -5.11536822e-02  3.10717672e-02 -1.32392138e-01  1.47723615e-01\n  6.39853701e-02  1.65564209e-01  2.58369301e-03  1.45034209e-01\n -8.19341764e-02 -6.13984354e-02  9.01269093e-02 -1.35562122e-01\n -9.25635613e-05  1.12113908e-01 -3.28211598e-02 -1.60587300e-02\n -1.93840697e-01  1.75603449e-01 -2.13767197e-02 -9.15324241e-02\n  8.85300934e-02  9.11358669e-02  1.20836357e-02  9.90945771e-02\n -4.68321256e-02  3.25394683e-02 -2.75026797e-03 -1.12718098e-01\n -4.71367408e-03 -1.38185754e-01 -1.91598684e-01 -1.38419181e-01\n -8.49380121e-02 -5.39363027e-02 -5.79806753e-02 -2.13684902e-01\n -8.80932808e-02  4.70737964e-02 -5.94186895e-02 -1.32863910e-03\n -2.94053834e-02  1.39434636e-01  2.61192918e-02  3.48618738e-02\n  8.80653635e-02 -7.39529449e-03  9.84825343e-02  9.09133181e-02\n  1.54050723e-01  2.55733225e-02 -1.08427964e-01  3.51231098e-02\n  1.82177380e-01 -1.35134786e-01 -2.27626070e-01  9.70991552e-02\n  1.53765872e-01 -7.39860833e-02  7.37733543e-02 -8.80438834e-02\n  2.05882620e-02 -7.00418353e-02  4.83589880e-02  1.03083789e-01\n -4.15534042e-02  8.69777128e-02 -1.50493085e-01  1.12971008e-01\n  3.08888346e-01 -1.51072498e-02  4.81556840e-02  2.46039495e-01\n  1.10371690e-02 -8.84633288e-02  1.53848678e-01 -1.94978848e-01\n  1.73989147e-01 -2.03986261e-02  1.30559981e-01  6.60331771e-02\n -7.18209669e-02 -1.27529100e-01  2.49149218e-01  6.69190241e-03\n -3.40922400e-02  1.04552940e-01  3.88923585e-02  7.83324465e-02\n  8.21054876e-02 -5.19064069e-02 -1.01439640e-01  9.13222805e-02\n -1.06461763e-01  7.96593130e-02 -6.08770456e-03 -2.90275924e-02\n -2.25838304e-01  5.17134741e-02  1.80657096e-02  8.02835077e-02\n  1.08034886e-01  8.50962624e-02  8.50687027e-02  1.39568314e-01\n -1.09647557e-01  8.30967873e-02 -6.58321679e-02 -4.96995263e-02\n  1.00606173e-01 -1.88191921e-01 -4.04163413e-02 -1.77074015e-01\n  1.81356892e-01 -6.29829466e-02 -1.43896833e-01  1.37769982e-01\n  1.58820614e-01  1.66894570e-01  2.89484989e-02 -1.93059385e-01\n  6.61716759e-02  2.80072615e-02  1.75464690e-01  6.47815838e-02\n -9.96896438e-03 -1.52057512e-02  2.53835153e-02 -1.41199790e-02\n -5.35090342e-02 -1.88153639e-01  6.08581342e-02 -7.03554088e-03\n  8.49021003e-02 -2.07634512e-02 -8.68241340e-02  1.92070723e-01\n -6.21960200e-02 -1.43033220e-02 -7.31677795e-03 -3.70815657e-02\n  2.26464480e-01  1.55483231e-01  2.06194639e-01 -9.35633332e-02\n -2.22199246e-01  2.92922229e-01  9.43485722e-02 -1.34163974e-02\n  2.48158649e-02 -2.80493915e-01 -8.72550234e-02  6.27135392e-03\n  2.17598062e-02 -5.85728846e-02 -3.01354565e-02  3.74262454e-03\n  7.34323487e-02  1.05992079e-01 -5.97447716e-02  2.21475679e-02\n -1.62034392e-01 -1.15665281e-02 -6.48954213e-02  4.03855136e-03\n -7.86675587e-02  6.90290108e-02  1.03459336e-01  4.02931198e-02\n  7.69157708e-02  4.89133317e-03 -2.26627707e-01 -8.09598714e-02\n -1.85032442e-01 -1.44107137e-02 -5.57743087e-02 -1.20123364e-01\n -7.98475519e-02 -1.07119074e-02  1.06952116e-02 -8.56707245e-02\n -7.45357871e-02  8.35366920e-02  1.58295810e-01 -2.18909346e-02\n  1.77032817e-02  1.34152770e-01 -7.28060678e-02 -2.93428004e-02\n -2.78979000e-02  5.37764430e-02  1.73888832e-01  2.21529827e-01\n -3.57323587e-02  1.10194371e-04  5.56359887e-02 -3.84637304e-02\n -1.03664726e-01 -2.50055671e-01 -7.83056170e-02 -8.04952681e-02\n -1.19701929e-01  2.49256920e-02  3.12031806e-02 -7.23306984e-02\n  8.94696042e-02  5.82203455e-02  8.52994621e-03  8.03524852e-02\n  1.29607186e-01 -4.59084697e-02  1.15540363e-01 -1.08095393e-01\n  9.95134097e-03 -1.38562433e-02 -1.70224652e-01 -5.43235056e-03\n -9.10445023e-03  4.66438793e-02 -5.67542575e-02  1.46866173e-01\n  1.53807411e-02 -7.20490217e-02 -6.15640841e-02 -1.08823776e-01\n -6.00058213e-02  3.40743996e-02 -1.08298011e-01  7.25690275e-02\n -6.20245859e-02 -2.28397734e-03  1.13971397e-01 -5.27091548e-02\n -2.06940528e-02  9.00627449e-02  8.37142393e-02  4.64277714e-02\n  1.49895614e-02 -3.44045311e-02  1.52480736e-01  7.30959550e-02]",
            "[ 0.01613828 -0.07616729 -0.03058312  0.10099015  0.00864581  0.20629427\n  0.08930562 -0.10095157 -0.02022671 -0.22729091  0.07820296 -0.26394185\n  0.10895589  0.03826405  0.17285605 -0.21644208  0.0278774  -0.22925758\n  0.02934274  0.09478547 -0.16201288 -0.05559111  0.07265802 -0.028712\n  0.0931077  -0.3118436  -0.00728427  0.00926623 -0.0014106   0.08577099\n -0.06508736  0.2074076  -0.01399704  0.10524109  0.03292093  0.10898074\n  0.14514256 -0.0380794   0.06172892  0.01357464 -0.18965116 -0.36086947\n -0.04630268 -0.00618963  0.0485394  -0.07484579  0.21924068 -0.0123647\n  0.11117983  0.08253633  0.13694781  0.04607861  0.10947369 -0.03553765\n -0.15325873  0.02261018 -0.14798225 -0.02108739 -0.00584449  0.04098613\n  0.22070199  0.00177747 -0.03640406 -0.08176296 -0.1412475   0.07650676\n -0.01382778  0.0391653  -0.04023102  0.03652328  0.08499468 -0.11820996\n  0.01480448  0.0145054  -0.03909037 -0.11834875  0.04028687 -0.01709135\n -0.05862667  0.0274645   0.07653528 -0.06333344  0.01809836 -0.029812\n  0.17599005  0.19441076  0.09583543 -0.1992202   0.18722999  0.04578049\n  0.04175289 -0.06383622  0.06331261  0.11334208  0.17880084 -0.05425589\n -0.08451838  0.05551179  0.00229666 -0.03573308 -0.2360478   0.11091469\n  0.142153    0.04114522  0.19823061 -0.0126655   0.11571447  0.02382936\n -0.04554049 -0.03735748  0.25618398  0.07855683  0.05813652  0.17158028\n -0.23179935 -0.00843483 -0.12803277  0.22925495  0.06252447  0.1662969\n  0.02605611 -0.21858788  0.11267744  0.11976354  0.15171556 -0.09068639\n -0.02055138  0.03679872]",
            "[-0.02046189 -0.0685306   0.05506939 -0.0162267  -0.07412498  0.06274488\n -0.03052918 -0.07868839  0.0682513  -0.05522526 -0.09580004  0.00273263]"
        ],
        "pi_weight_list":	[
            "[[ 0.13065778  0.29188406  0.10843327 ...  0.0613063  -0.23085064\n   0.01299673]\n [ 0.04098932  0.14027485  0.1539406  ... -0.05215298 -0.05105452\n   0.07964686]\n [-0.07354369  0.00714724 -0.26654822 ... -0.01103806 -0.14562623\n  -0.08872769]\n ...\n [-0.021279   -0.29072908 -0.07031251 ...  0.08134518  0.08141702\n  -0.20599   ]\n [-0.22568564 -0.2706132  -0.02819262 ...  0.06046987 -0.18765572\n  -0.03493465]\n [ 0.01275016  0.1258242  -0.01838484 ... -0.09832773  0.07005402\n   0.11752491]]",
            "[[ 0.1675087   0.04404751 -0.0073437  ...  0.01021437 -0.01008763\n   0.13109295]\n [-0.08524254 -0.203188   -0.07728577 ... -0.06088928  0.12156978\n  -0.06847342]\n [ 0.21144901 -0.14351286 -0.2517765  ... -0.05377863  0.00377368\n   0.15777583]\n ...\n [ 0.04004292  0.16688709  0.11360467 ...  0.01006265 -0.142503\n   0.04838696]\n [-0.18233505 -0.00312686  0.1405739  ...  0.16858792 -0.02957234\n   0.11930403]\n [ 0.17179069 -0.0054357   0.03480036 ... -0.01083958 -0.02912778\n  -0.29011872]]",
            "[[ 0.12282294 -0.18059412 -0.06489789 ... -0.34285316  0.21454641\n   0.04209524]\n [-0.07175889  0.21207306 -0.03066039 ...  0.12286163  0.02588671\n  -0.12043773]\n [-0.26875675  0.18375857  0.1498728  ... -0.0577528  -0.0727509\n  -0.12206965]\n ...\n [-0.09892321  0.08495297  0.13225606 ... -0.02249413 -0.10786498\n   0.11369063]\n [ 0.02808364 -0.07898029  0.18245377 ... -0.12932926  0.15973102\n  -0.06117827]\n [-0.02288871  0.09074049 -0.0079831  ... -0.07534587 -0.24310777\n  -0.12288419]]"
        ],
        "v_bias_list":	[
            "[ 3.1040019e-01  3.6170526e+00 -2.6601782e-01 -4.3119690e-03\n  1.8813384e+00 -1.8821862e+00 -3.7764260e-01 -9.7415650e-01\n -2.4862344e+00  1.4286427e+00  4.3213186e+00 -3.6144650e+00\n -2.5022855e+00  2.3547370e+00 -5.2307606e+00  1.9513974e-01\n  5.1413566e-01 -4.4649675e-01  1.8052977e+00 -3.0740099e+00\n  5.1403826e-01  1.6664639e+00 -2.0263648e+00  4.2890291e+00\n -2.5497227e+00  6.7695528e-01 -2.2003829e+00  1.9096394e+00\n -1.3949777e-01  2.8347497e+00 -1.6110959e+00 -7.8243899e-01\n  1.6125165e+00 -9.5018327e-01 -3.4124598e-01 -8.3841592e-01\n -1.8423333e+00 -9.1050375e-01  1.1508046e+00 -1.7945914e+00\n -1.8529670e-01 -1.9744980e+00  3.0402164e+00 -3.2608445e+00\n -3.6510592e+00 -3.0179012e-01 -1.4045707e+00 -2.1812367e+00\n -2.3416162e+00  4.8995107e-01  2.9607601e+00 -2.5274000e+00\n -3.5618663e+00  9.1916621e-01 -1.5886892e+00  1.7523222e+00\n  2.1144977e+00 -1.3936998e+00  7.8413683e-01 -9.0866870e-01\n  2.4648361e+00 -3.4558073e-02 -4.0928073e+00 -3.7818289e+00\n -2.4875290e+00 -2.2242870e+00  9.4932753e-01 -3.5210404e+00\n -7.4590123e-01  2.6003857e+00  4.2957320e+00  6.6892987e-01\n  6.2781825e+00 -2.6313670e+00 -2.5856802e+00  2.2849486e+00\n  1.7488441e+00  1.0438470e-01 -1.2957488e+00  3.3486149e+00\n -5.3057373e-01 -1.5002950e+00 -2.6406798e+00 -4.6387892e+00\n -1.2879779e+00 -1.9773008e+00  2.4900362e+00  3.6115344e+00\n  7.3627204e-01  1.5878764e+00  3.9988635e+00 -3.1645508e+00\n -4.4793954e+00 -5.0433245e+00  2.2513182e-01  1.8339871e+00\n  2.2127934e+00  9.2172295e-01 -1.8817554e+00 -3.0079291e+00\n -3.3705023e-01  4.2016630e+00  1.7922798e-01 -1.8838238e+00\n -1.8296635e+00  1.7802719e+00 -3.0897364e-01 -4.5393481e+00\n  2.6983503e-01 -3.6970789e+00 -2.8035500e+00  2.1035569e+00\n -2.8830893e+00  2.7263215e+00 -6.5907121e-01 -6.2895513e-01\n -3.8553448e+00 -1.0820671e+00 -2.6323833e+00 -4.0585172e-01\n -1.2020128e+00 -3.1779233e-01 -1.8754311e+00  2.5510941e+00\n -1.6743032e+00 -2.3745961e+00 -1.7081060e-02 -2.0402627e+00\n  2.9365582e+00 -4.4088456e-01 -2.5312057e+00 -1.1413517e+00\n  1.2377198e+00 -1.4690180e+00  1.4252399e+00  2.6161928e+00\n -2.6362369e+00 -4.7869682e+00  4.4168653e+00  5.8959546e+00\n  2.5225751e+00  2.7706113e+00  1.8475716e+00 -3.4961274e+00\n -5.1476784e+00 -1.0108361e+00 -1.8356110e+00 -4.7167742e-01\n  1.6503127e+00  1.9639233e+00 -6.9508827e-01  6.4793668e+00\n -1.9762369e+00  1.4127530e+00 -2.2430806e-01  3.5092434e-01\n  2.7111201e+00  2.8120184e+00  2.5682506e-01 -7.3344171e-01\n -4.9510345e+00 -8.7077880e-01  3.2833412e+00  6.4386904e-01\n -2.0227685e+00  1.5159692e+00  8.9896643e-01  3.3865242e+00\n -3.9867411e+00 -5.6518798e+00 -2.6430478e+00 -8.3610642e-01\n -4.7873852e-01 -1.5388879e-01 -1.9463043e+00 -1.9499730e+00\n  1.6642275e+00  1.4069103e-01 -1.4936725e+00  1.1027399e+00\n -9.2852008e-01 -2.7592950e+00 -2.7043240e+00 -2.4603176e+00\n -7.8629208e-01  4.8869917e-01  2.3543570e+00  1.6914917e+00\n -9.9389201e-01  9.2936659e-01  4.1725140e+00  5.7048982e-01\n -1.7700763e+00 -1.7399305e+00  2.2221704e+00  4.2771831e-02\n  3.3228762e+00 -8.3441645e-01  3.1468132e+00 -7.6302218e-01\n  3.1792302e+00 -2.3524337e+00  2.8506060e+00  1.6614606e+00\n  4.5892458e+00 -5.0933919e+00  1.8453498e+00  3.6884365e+00\n  2.0848529e+00 -3.6607137e-01  6.6102451e-01 -2.7179077e+00\n -2.7358693e-01  1.9700500e+00  2.0989189e+00 -5.3292606e-02\n  4.2927046e+00  2.1852601e-01  3.0971665e+00  1.7359290e+00\n -1.8043873e+00  4.0922794e+00 -3.3197858e+00 -3.6531870e+00\n  9.0730679e-01  2.8908011e-01  2.5512640e+00  1.0997747e+00\n  2.1898761e+00  1.1650935e-01 -2.1294920e+00  2.3903534e+00\n  2.3599324e+00  2.9409597e+00 -2.4399064e+00 -2.7626812e+00\n -5.6457990e-03 -1.1075220e+00  1.7859438e-01 -3.3062282e-01\n -1.8293388e+00 -6.3979131e-01 -1.4740403e+00  5.1077813e-01\n  2.2646141e+00  3.6986518e+00 -1.4700054e+00  2.9178038e+00\n  2.2931945e-01 -4.4098902e+00 -4.2537923e+00  4.8770666e+00\n  7.1991146e-01  1.3340997e+00  2.2381701e+00 -1.4786993e+00]",
            "[ 1.9854212   3.4713666   0.7247129  -5.9919744  -1.0333077   0.8725868\n  0.09224442 -0.28244168 -3.288615    3.3388782   0.20941526  7.511238\n -0.07211576  2.1582053   0.39295542  2.8272705  -2.9255028   4.465149\n -0.199263    0.25373778  3.07055     1.2192181   0.35843787 -1.431051\n  1.4269048  -3.8769922  -0.10578969  2.1869462  -1.9951094  -4.404607\n -2.5341284   1.092035   -1.1639183   2.4567811   1.3523453   4.2892394\n  1.9195993   3.2351809  -0.03816339  1.7572993  -4.4220896   3.5222142\n -0.31235152 -1.3169378  -0.90505904 -0.4048841   4.1554294  -1.3592213\n -1.814336    1.5742462   0.5945081   0.85631317 -2.940328   -1.0243578\n -0.3418018   0.7723728  -3.5683649  -0.36282822  0.96254075  1.0707536\n -0.34536073 -2.279027   -2.015117    1.3118377   5.555329    5.5317206\n  4.9195204   2.224665   -1.166413    1.2210064  -4.3629293   0.371133\n -1.037136   -1.879579   -2.161249    5.52336     2.26229     4.6648026\n  2.635757    0.22007486 -3.5560007  -1.0523118  -1.2466508   2.1405163\n  2.1060092   5.5708013  -1.5359578  -2.0408514   3.195713    8.734316\n  2.7831469   1.5153365  -6.038637    6.8074784   0.3187471  -1.7383233\n  5.1899867  -2.3176644   0.5256743   2.1460674   1.394302   -0.2855618\n -0.7939269   1.4629779   2.5128155   0.94637036  1.3470608  -3.6452072\n  0.19385624 -0.441425   -4.454286    3.398875    4.1049743  -2.5331137\n  0.58369386  7.200473   -0.76788336 -1.0021893   5.626334    3.2767174\n -1.302426    3.9848616   2.2079537  -2.9748485   1.20699     0.64179\n -2.7681015   1.412351  ]",
            "[-5.8990555]"
        ],
        "v_weight_list":	[
            "[[-0.508289    2.3188324   1.5955893  ...  0.81747764 -2.335629\n   1.2560867 ]\n [-0.6412745   2.2998223   0.61695427 ... -0.35348463  2.033795\n   0.38887268]\n [ 7.940956    7.1521277   2.3363485  ... -1.5685799  -8.304644\n  10.325858  ]\n ...\n [-0.87026423 -0.9203365   1.4323236  ... -0.5820622  -1.3733618\n  -0.596742  ]\n [ 1.5685338  -0.19948706  0.24327563 ...  0.8171397  -1.6304964\n   1.0827636 ]\n [-2.9216392  -0.19579844 -1.2344488  ...  1.705998    1.5750884\n  -0.9601389 ]]",
            "[[ 1.0753027   1.5275947   0.2943035  ...  2.2841172  -0.13679336\n   0.25265375]\n [ 1.2129253  -1.3926873   0.24352325 ...  0.40600526  1.9909467\n  -1.4018589 ]\n [ 0.893877   -1.8579562   0.66658396 ...  0.5895249   0.45914108\n  -1.1626765 ]\n ...\n [-0.10616979  0.7758326   1.1467637  ... -0.5260474  -1.8370937\n  -1.7891784 ]\n [-0.85755724 -1.8659617   1.1838372  ...  3.3324797  -0.21166486\n   2.4177215 ]\n [ 2.3875558   0.8208322   1.8849846  ... -1.4556209   1.4709135\n   2.1910071 ]]",
            "[[ 0.98889834]\n [-1.9371872 ]\n [ 4.0161924 ]\n [ 3.543165  ]\n [ 1.4822699 ]\n [-1.1211073 ]\n [-3.3940487 ]\n [-4.3065696 ]\n [ 3.2849076 ]\n [-2.1764517 ]\n [ 5.1226735 ]\n [-3.9616132 ]\n [-3.090811  ]\n [-2.028987  ]\n [ 3.2998693 ]\n [-2.6126401 ]\n [ 4.4709797 ]\n [-3.410763  ]\n [-4.2735653 ]\n [-2.576664  ]\n [-1.6106148 ]\n [ 1.7787287 ]\n [ 3.9200666 ]\n [ 3.8512943 ]\n [-4.378797  ]\n [ 3.2624164 ]\n [ 3.6551309 ]\n [ 3.2854588 ]\n [-1.0342661 ]\n [ 3.4936693 ]\n [ 3.5908246 ]\n [-0.728026  ]\n [ 2.4858067 ]\n [-3.3689241 ]\n [-2.140372  ]\n [-2.838899  ]\n [-2.928498  ]\n [-1.7600273 ]\n [-2.582672  ]\n [-3.762835  ]\n [ 2.9752314 ]\n [-3.6708033 ]\n [ 2.820583  ]\n [ 4.971903  ]\n [ 2.4953535 ]\n [ 4.2389474 ]\n [-3.1866548 ]\n [-2.191766  ]\n [ 3.7351177 ]\n [-3.4326098 ]\n [ 3.252938  ]\n [-3.0448723 ]\n [ 3.5631785 ]\n [ 2.7217999 ]\n [-2.036101  ]\n [ 2.034996  ]\n [ 4.0643487 ]\n [ 1.4311985 ]\n [-3.0212262 ]\n [-2.9203684 ]\n [-2.4060228 ]\n [ 1.2174577 ]\n [ 2.3129575 ]\n [ 1.9337468 ]\n [-3.4149237 ]\n [-2.2133327 ]\n [-2.8057828 ]\n [-3.1861842 ]\n [-3.5832782 ]\n [ 3.8207319 ]\n [ 2.8668716 ]\n [ 3.3721342 ]\n [ 3.1026506 ]\n [ 4.116982  ]\n [ 4.878873  ]\n [-3.3656693 ]\n [-1.9648563 ]\n [-2.3738203 ]\n [-4.1258936 ]\n [-2.0190256 ]\n [ 2.4037344 ]\n [-2.7567766 ]\n [-2.4652905 ]\n [-2.1912665 ]\n [-2.6711297 ]\n [-3.3377829 ]\n [ 4.9045825 ]\n [ 3.2017884 ]\n [-4.1028395 ]\n [-3.924435  ]\n [-3.5358372 ]\n [-3.7123096 ]\n [ 3.6446126 ]\n [-3.8044107 ]\n [ 3.146579  ]\n [-3.1401944 ]\n [-3.6237826 ]\n [ 4.2620616 ]\n [-2.7263932 ]\n [-3.3957472 ]\n [ 4.3431425 ]\n [ 2.3862288 ]\n [-2.7991745 ]\n [ 1.1882563 ]\n [-3.5221941 ]\n [-2.9865928 ]\n [ 1.8032323 ]\n [ 4.1889734 ]\n [-1.4793766 ]\n [-1.6524502 ]\n [ 2.9020844 ]\n [-1.9501609 ]\n [-5.0264196 ]\n [-2.4712906 ]\n [-2.869007  ]\n [-4.5703163 ]\n [-3.4472015 ]\n [-5.3322334 ]\n [-1.6624873 ]\n [-2.729838  ]\n [ 3.5228179 ]\n [-3.5913503 ]\n [ 3.6300554 ]\n [ 4.0778446 ]\n [ 4.1206975 ]\n [ 1.8141599 ]\n [ 2.306216  ]\n [-3.49652   ]]"
        ]
    },
    "actor_critic":	"my_mlp_actor_critic",
    "clip_ratio":	0.2,
    "env_fn":	"Anymal",
    "epochs":	100,
    "gamma":	0.993,
    "lam":	0.97,
    "logger":	{
        "<spinup.utils.logx.EpochLogger object at 0x7f97e2ecef60>":	{
            "epoch_dict":	{},
            "exp_name":	null,
            "first_row":	true,
            "log_current_row":	{},
            "log_headers":	[],
            "output_dir":	"/home/steven/Documents/Shawn_DRL/experiments/Thu May 21 15:16:48 2020",
            "output_file":	{
                "<_io.TextIOWrapper name='/home/steven/Documents/Shawn_DRL/experiments/Thu May 21 15:16:48 2020/progress.txt' mode='w' encoding='UTF-8'>":	{
                    "mode":	"w"
                }
            }
        }
    },
    "logger_kwargs":	{
        "output_dir":	"/home/steven/Documents/Shawn_DRL/experiments/Thu May 21 15:16:48 2020"
    },
    "max_ep_len":	60,
    "on_policy":	true,
    "pi_lr":	0.0003,
    "prev_epochs":	800,
    "save_freq":	10,
    "seed":	0,
    "steps_per_epoch":	30000,
    "target_kl":	0.01,
    "train_pi_iters":	80,
    "train_v_iters":	80,
    "vf_lr":	0.001
}