{
    "GUI":	false,
    "ac_kwargs":	{
        "activation":	"tanh",
        "hidden_sizes":	[
            256,
            128
        ],
        "log_std_list":	"[-0.35667494 -0.35667494 -0.35667494 -0.35667494 -0.35667494 -0.35667494\n -0.35667494 -0.35667494 -0.35667494 -0.35667494 -0.35667494 -0.35667494]",
        "pi_bias_list":	[
            "[-0.01644966  0.14074117 -0.02702561 -0.01146921  0.02940234 -0.01000292\n  0.00894837 -0.06443086 -0.04214394  0.01523536  0.01596678  0.15565854\n -0.02719353  0.06974718  0.02559518 -0.00583035 -0.02903463 -0.02521364\n -0.06597503  0.06090427  0.02098416  0.08707458 -0.04639209  0.06430975\n -0.01520173  0.03816874  0.09079988 -0.03211429  0.00953352  0.05283915\n  0.02243826  0.07899576 -0.04243135  0.04463445  0.0198047  -0.0673475\n -0.02213303  0.03308361  0.03952741  0.05725004  0.04194365  0.04959275\n -0.00184797 -0.01139311  0.03570318 -0.03175024 -0.02809731 -0.03110301\n  0.03271002 -0.00804699 -0.02470032 -0.02309923  0.0311591   0.02741258\n -0.04385326 -0.00343256  0.03414825  0.03183891  0.05203231 -0.01602763\n -0.00630802  0.02326233  0.03399644  0.07393744  0.10628702  0.00601168\n -0.02058623 -0.01264617  0.08893849 -0.03411829 -0.00972091  0.04574239\n  0.06439584  0.00042274  0.03031112 -0.02629158 -0.01864887 -0.08973292\n  0.05053022 -0.02752651 -0.06119194  0.01409613 -0.0141396  -0.04251328\n  0.14865462  0.04987945 -0.01186611  0.06691776 -0.00502125 -0.01301669\n  0.06013347 -0.07070331  0.02019885  0.02652446  0.03068945  0.02114687\n -0.02379045 -0.02837992  0.05969724 -0.0268567  -0.02325533  0.0490155\n -0.00837838  0.0575843   0.02098953 -0.04241248 -0.05616761  0.02978203\n -0.01320687  0.00594898  0.01420578 -0.03761025 -0.03014078  0.00313673\n -0.03486032  0.0390373  -0.02304721  0.01741594  0.06236908  0.07932686\n -0.05884271  0.00298636  0.00430309  0.03033972  0.06809295 -0.04041878\n -0.01195112 -0.07328363  0.04692218 -0.05829896  0.0525357   0.12422103\n -0.02137079  0.10181823  0.06976821 -0.03808293 -0.0138527   0.02694782\n  0.03421006  0.02133032 -0.01596519  0.00887253  0.03054815  0.00296221\n -0.00795336 -0.07243713  0.00766998  0.01054238  0.03253493  0.06880191\n  0.00157227  0.01178881 -0.01379309 -0.03063391 -0.00344636 -0.0240792\n  0.07392002  0.08504049  0.02637275 -0.03352136 -0.1132002   0.06579128\n  0.06630868  0.00742826  0.03635426 -0.07745791 -0.0248649   0.01672335\n -0.04241098 -0.03150595  0.00046511 -0.03320723  0.01334176  0.04754898\n  0.00740709 -0.00091907 -0.07757466 -0.06392101 -0.03890561  0.04249861\n -0.00909531  0.03666626  0.03739241 -0.03126403  0.0233429  -0.0223639\n -0.11311903 -0.02817572 -0.08794627  0.02856458  0.0014355  -0.05089114\n -0.00972498 -0.00276109  0.09965279  0.01904345  0.03045294  0.01783695\n  0.04549406  0.00706627  0.03040592  0.04660497 -0.05379989  0.02990895\n -0.00522686  0.06911537  0.09983736  0.02043146  0.06661277  0.00406507\n  0.07757897  0.04141704 -0.06067739 -0.09503558 -0.02827643 -0.02284903\n -0.00772349 -0.0531162  -0.00742322  0.00764411  0.02771044  0.02094614\n  0.04297398 -0.01576844  0.06766102 -0.0032154   0.04147198 -0.05842605\n  0.02048388 -0.01613582 -0.02697232  0.02029896 -0.00400087 -0.00210303\n -0.04242358 -0.01586396 -0.03543407 -0.04392185 -0.04739636  0.02848975\n -0.04183666  0.03779373 -0.04765454  0.02772551  0.0138211  -0.03262946\n  0.08788665 -0.02564051  0.03128359  0.01950342  0.00773819  0.084202\n  0.0178434  -0.03278432 -0.01742404  0.06250709]",
            "[ 0.01605711 -0.06033228 -0.02117154  0.04829257 -0.00125181  0.0872198\n  0.08569197 -0.02632554 -0.02107241 -0.05406004  0.05802612 -0.15669881\n  0.00835603 -0.03479236  0.07295401 -0.07451455  0.04492037 -0.11061947\n -0.02308718  0.05813807 -0.12859076 -0.05701599  0.03132376  0.00390521\n  0.05960548 -0.03524344 -0.00294124  0.01301716 -0.0201101   0.02970847\n  0.01448242  0.04614122  0.07831927 -0.00460704  0.03792074  0.01617957\n -0.0007627  -0.01524017  0.04549805  0.04536684 -0.01810686 -0.14351884\n -0.05100391  0.0063071  -0.00020371 -0.08544913  0.0566177  -0.06350178\n  0.00577966  0.04245698  0.15447295 -0.01408277 -0.01989773 -0.0096579\n -0.10752254 -0.01764645 -0.06825875 -0.01855845 -0.03053095 -0.01690006\n  0.04513629 -0.01961786 -0.06250317 -0.04953513 -0.04818325 -0.03101798\n -0.01353802  0.00105495  0.03360117  0.00320711  0.01020698 -0.07138161\n  0.01867504 -0.00788637  0.04808139 -0.05213704  0.03961584  0.01899278\n -0.04991276  0.0157154   0.00391598  0.01305675  0.0131132   0.03314304\n  0.00699967  0.06836675  0.03788537 -0.12501982  0.03802204  0.00703965\n  0.09715767 -0.015433   -0.00359552  0.06609854  0.06660711 -0.08677347\n  0.05195626  0.0319641   0.05937798 -0.00737532 -0.12089012  0.02586518\n  0.16798404  0.01536367  0.10004629 -0.01520036  0.00355651  0.06602361\n -0.03910275  0.03360334  0.12933359  0.06285004  0.05778866  0.01611638\n -0.01864865 -0.0460314  -0.07614169  0.07836231  0.04154446  0.00303385\n  0.0124973  -0.09833781 -0.0097636   0.02350166  0.05432394 -0.02948003\n -0.03939041  0.00068285]",
            "[ 0.01244528 -0.00479208 -0.03582111 -0.01629411  0.01911313 -0.04603574\n -0.02973167 -0.00528181  0.00294987 -0.02243457 -0.02000894  0.00953732]"
        ],
        "pi_weight_list":	[
            "[[ 1.03283569e-01  1.07977994e-01  9.39710140e-02 ... -6.12350041e-03\n  -1.30060896e-01 -2.27280837e-02]\n [ 1.81414951e-02  4.80068736e-02  1.26141921e-01 ... -1.12495832e-01\n  -1.13401189e-01  3.86118442e-02]\n [-3.73765714e-02  2.74161100e-02 -1.70044437e-01 ... -1.75019458e-01\n   1.98697904e-04 -1.10088527e-01]\n ...\n [ 2.49964464e-02 -2.37775475e-01  1.58369169e-02 ... -9.66309197e-03\n   1.39500484e-01 -1.60925627e-01]\n [-8.42002481e-02 -1.33202970e-01  1.75908040e-02 ...  2.74200714e-03\n  -8.63550156e-02 -4.32191901e-02]\n [ 1.13728531e-02  3.80356833e-02 -1.05159789e-01 ... -1.12229884e-02\n  -1.24503076e-02  3.89431007e-02]]",
            "[[ 9.32082087e-02  1.11016007e-02 -2.45318748e-02 ...  6.35103881e-02\n  -9.43170711e-02  1.63297728e-01]\n [-7.56234527e-02 -2.52320588e-01  1.69852339e-02 ...  4.54172790e-02\n   7.35589266e-02 -1.28495187e-01]\n [ 1.95475355e-01 -1.72357872e-01 -2.72899210e-01 ... -3.93740507e-03\n   4.80450550e-03  1.89122424e-01]\n ...\n [ 6.62678629e-02  1.01804137e-01  2.00544558e-02 ... -4.07067463e-02\n  -1.02017544e-01  1.13290526e-01]\n [-1.67503893e-01 -3.71097326e-02  1.77491620e-01 ...  4.97154295e-02\n   6.16439898e-03  1.60382580e-04]\n [ 6.88939169e-02  3.72977182e-02 -6.01444859e-03 ... -6.81595802e-02\n   1.83787234e-02 -1.15944095e-01]]",
            "[[ 0.10832423 -0.22857709 -0.0432633  ... -0.29109696  0.15118176\n   0.06387281]\n [-0.09443799  0.14788929 -0.08752082 ... -0.019836   -0.06829315\n  -0.1386493 ]\n [-0.18666951  0.03779401  0.12478276 ... -0.05382905  0.06981309\n  -0.06681091]\n ...\n [-0.16116737  0.02750895  0.12514192 ...  0.09079798 -0.09994007\n   0.1590042 ]\n [ 0.05747451 -0.00896893  0.1645134  ... -0.13401568  0.14388128\n  -0.0360538 ]\n [ 0.04248135  0.09549378  0.03598824 ... -0.0796796  -0.07673861\n  -0.17038235]]"
        ],
        "v_bias_list":	[
            "[ 1.4172632   1.4121003  -0.05805625  0.52581376  0.26287603 -0.6742222\n  0.18101822  1.4190615  -0.08156163  0.7517617   1.0139848  -1.6330534\n -1.4964917   1.7915709  -2.5613499   0.6566428   0.16320284  0.5975934\n  0.9550258  -0.54836214 -0.05526658  1.4957919  -0.21967065  1.4073225\n -1.2949268   1.3489677  -0.7910418   0.5218455   0.3220875   1.6441845\n  1.2355751   0.31480318  0.38583973 -0.16444215 -0.89812154 -0.41662675\n  0.2896431  -1.1251976   1.2591838  -1.1947391  -0.5308658  -0.5158197\n  1.3424811  -1.6587138  -2.2288244   0.93923175 -1.7481793   0.0051882\n -0.7094103   0.2085743   1.3194427  -0.9461594  -1.53079     1.1928807\n -0.721587    0.99581665  1.0811088  -1.4235941   0.5097504   0.35891125\n  1.174198   -1.4003308  -2.3990812  -1.9555714  -0.80965376 -0.5376547\n  0.4053019  -1.5286574  -0.3528359   1.4261935   0.2604786   0.23298341\n  1.7209663  -1.07585    -0.9283923   0.6565921   1.256356    0.1357359\n  0.24307582  0.42739716  0.7590856   0.23367698 -1.0298821  -1.3416713\n -0.43294826 -0.734037   -0.5550391   1.6345389   1.6967045  -0.5257604\n  1.1328324  -2.0109413  -0.8764428  -1.5260881   0.8999957   1.0113059\n  1.2992783  -0.94379675 -1.6044439  -1.917217   -1.4095066   0.77695817\n -0.79144573 -1.6756387  -1.0795401   1.4011782  -0.1829534  -2.139893\n  0.39185297 -2.120418   -1.1800793   1.5285853  -0.36354935  0.7275747\n -1.004553   -0.69647175 -0.7675442  -1.1962646  -1.0058287   0.08917198\n -1.6436547  -1.4089427   0.5485582   0.81740147 -0.7484273  -1.0455405\n -0.10614067 -1.639604    2.383377   -0.8102478  -1.42693    -0.41218203\n  1.0579895  -1.4126524   0.6254291   1.6621428  -0.71204257 -1.3558346\n  1.5902426   2.3183105   0.99000996  1.5833709   1.1279129  -0.71209806\n -1.0199409  -1.5169362  -1.6131953   1.4579872   1.3500613   1.9659148\n -0.9852453   3.0099254  -0.734818   -0.36663824 -0.3401734  -0.9474555\n  0.9772471  -0.05664136  0.64052117 -0.21361147 -1.958689    0.26347154\n  1.0175762   0.4698723  -0.98544836  0.7892156   0.15899423  0.9898187\n -1.4604557  -1.8929685  -0.10614885 -0.34224847  0.9322813   0.4302698\n -1.5664189  -0.42475718  0.9103179  -0.306731    0.31169257 -0.70460516\n  0.24763876 -1.2368513  -0.4785595  -0.78223693 -0.12657075 -1.2552354\n  1.5692264   1.8412647  -0.4014288   0.3577773   0.8340305   0.8506476\n -0.58355016 -0.6997621   0.6462516  -0.61668926  2.5167627  -0.20010549\n  0.87354547 -1.8120143   1.3709972  -0.68406564  1.4883997  -0.09314346\n  2.4742064  -1.988882    0.19922493  2.313655    0.6285738  -0.3788641\n -1.4162326  -0.45615128  0.03180643 -0.3914829   0.15219417 -1.3721278\n  1.1209309   0.3947642   0.7348688   1.3523456  -0.8738087   1.2064469\n -1.7929643  -1.2711664   1.0774091   0.19029745  0.7554244   1.1314954\n  1.2969503  -0.4802326  -1.1313769   0.9048162   0.93529075  2.0726945\n -1.3338376  -0.70833814  0.82029116 -1.2456652  -0.80978197 -0.95166075\n -1.4219111  -0.38406008 -0.71265     0.6957347   1.5891831   0.6830857\n -1.6750587   1.6629391  -1.354696   -1.7788209  -1.4382493   2.594986\n  0.8762093  -0.25467768 -0.6066672   1.3452907 ]",
            "[ 1.5242612   1.4337271   1.5221072  -1.0805705   1.253701    1.7644919\n -0.58916885 -1.4753481  -1.6198466   1.5231307   0.67275167  1.2579905\n -1.6652768   0.85129035  0.47674084  1.1167963  -1.1888294   1.6646793\n  0.36814526  0.9585078   1.1221626   0.6451233   1.3618073  -1.3669375\n  1.0981609  -2.3372216   0.2976702   2.63883    -1.8646737  -1.2406739\n -1.2050794   1.4761169  -0.24441174  0.6969484   1.3525534  -0.41523075\n  0.92255217  1.0929357  -1.7349951   0.6188192   0.39296988  1.4398876\n  0.8581899   1.063192    2.239698   -1.5284523  -0.5841352  -0.663451\n -1.2697352   1.3169751   1.0777777   0.9024661   1.0561564   0.5993572\n -2.308119    1.5956116  -1.9193287  -1.6001282  -1.2071065   0.89528793\n -0.13953017 -0.86956096  0.6218883   1.1318784   1.0352602   1.2474934\n  0.30654913  0.6825661  -1.6678234   0.24899037 -0.24239415  0.2131333\n  0.48508394  0.30583593 -1.2089148   1.6698083   1.4356735   1.0933152\n  1.1454691  -0.01241233 -0.2541001  -0.80139184 -1.6716952   0.81119186\n  0.8987425  -0.18672644 -1.2090734   0.01241306  1.0374604   2.4791658\n  1.5704316   0.46217024 -1.4897168   1.6919869   1.076037   -1.2672691\n  1.8336214  -0.6514313   1.2324939  -1.2426807   2.1014855   0.4954516\n -1.0785918   1.840101    0.11794856 -0.66309094  1.0822262  -1.4393572\n  1.2886695  -0.5814871  -0.71822983  0.6667322   2.6058328  -0.58961576\n -1.5019205   2.7974238  -1.2701664  -1.9356627   2.6038682  -0.63096917\n -1.2250214   0.48722774  1.1926237   0.99738604 -0.14168768  1.271511\n -0.1963802   0.6950923 ]",
            "[-0.49894753]"
        ],
        "v_weight_list":	[
            "[[-0.3325483   0.83654904  0.92191255 ... -0.82509744 -0.88982844\n  -0.34383854]\n [ 0.31269458  0.30047697 -0.45709947 ... -1.3034183   0.12225328\n   1.9779464 ]\n [ 4.2487125   5.4325857   2.0720212  ... -0.3927437  -5.751866\n   7.8786564 ]\n ...\n [-1.0588361  -0.32530922  0.089577   ...  0.16732788  0.5074177\n  -0.16258086]\n [-0.38253582  0.7488169   0.25043222 ...  0.15071991  0.94140744\n   0.09843215]\n [ 0.8430313  -0.02652441 -0.2153241  ...  0.2633911   0.17756808\n  -0.2852619 ]]",
            "[[ 0.1720308   0.6861223   0.24800667 ...  0.92050755  0.46827206\n   0.99362385]\n [ 0.7790128   0.22156401  0.5273744  ... -0.73519605  1.2013229\n   0.1869557 ]\n [-0.0887922   0.21680246 -0.05240893 ...  0.93869907  0.5139822\n  -0.22105667]\n ...\n [-0.92657846  0.18689181  0.08298358 ...  0.40934214  0.04369606\n  -1.5643167 ]\n [-0.43383452 -0.14410183  0.28566182 ...  1.1034892  -0.57174754\n  -0.10419672]\n [ 1.6255295  -0.1862474   1.1018159  ... -0.6373653   0.9507375\n   0.35983703]]",
            "[[-0.19370843]\n [-0.1797193 ]\n [-1.0975009 ]\n [ 0.37005547]\n [-0.20378397]\n [-0.07377446]\n [ 0.30266005]\n [ 0.507806  ]\n [ 0.33851174]\n [-0.20110025]\n [-0.75719345]\n [-0.11881083]\n [ 0.46726328]\n [-0.1487568 ]\n [ 0.34725836]\n [-0.08979209]\n [ 0.06015852]\n [-0.05419315]\n [-1.2781347 ]\n [-0.02002556]\n [-0.4355986 ]\n [-0.3331631 ]\n [-0.41125607]\n [ 0.14213578]\n [-0.23434202]\n [ 0.711778  ]\n [-0.5085    ]\n [-0.6427935 ]\n [ 0.28374875]\n [ 0.16701934]\n [ 0.35265943]\n [-0.19782549]\n [ 0.45265743]\n [-0.17208923]\n [-0.521805  ]\n [ 0.96360284]\n [-0.74332327]\n [-0.25359195]\n [ 0.5864239 ]\n [-0.9899887 ]\n [-0.8872662 ]\n [-0.16239588]\n [-0.26467884]\n [-0.7605849 ]\n [-0.15254831]\n [ 0.0690963 ]\n [ 0.5845984 ]\n [ 0.6665805 ]\n [ 0.20165864]\n [-0.2987052 ]\n [-0.3813421 ]\n [-0.7715851 ]\n [-0.884726  ]\n [-0.72649395]\n [ 1.1265893 ]\n [-0.2540893 ]\n [ 0.24587907]\n [ 0.16230714]\n [ 0.15301725]\n [-0.74950665]\n [ 1.1047432 ]\n [-0.335987  ]\n [-0.7727672 ]\n [-0.5319362 ]\n [-0.6192895 ]\n [-0.28546798]\n [-0.15355608]\n [-0.29746723]\n [ 1.0852598 ]\n [-0.80367815]\n [ 0.16306789]\n [-0.20645764]\n [-0.46570337]\n [ 0.5282461 ]\n [ 0.2520384 ]\n [-0.18442781]\n [-0.24104977]\n [ 0.3218124 ]\n [-0.39695677]\n [ 0.87394124]\n [-0.945874  ]\n [ 0.2294323 ]\n [ 0.39927906]\n [-0.7506392 ]\n [-0.6160083 ]\n [-0.3427492 ]\n [ 0.46446162]\n [ 0.6116251 ]\n [-0.32139823]\n [-0.5229546 ]\n [-0.2965128 ]\n [-0.52185655]\n [ 0.32068732]\n [-0.35886064]\n [-0.3809775 ]\n [ 0.0603418 ]\n [-0.1494315 ]\n [-0.41710567]\n [-0.02142081]\n [ 0.24284647]\n [-0.30840087]\n [-1.100443  ]\n [ 0.2171767 ]\n [-0.3511483 ]\n [ 0.64241874]\n [-0.4018544 ]\n [-0.4504637 ]\n [ 0.31882977]\n [-0.31110024]\n [ 0.8559573 ]\n [-0.76720977]\n [-0.3583918 ]\n [-0.7078905 ]\n [ 0.6987069 ]\n [ 0.19854301]\n [-0.90594107]\n [ 0.43099535]\n [ 0.14614467]\n [-0.5967463 ]\n [ 0.63163   ]\n [ 0.671273  ]\n [ 0.6769745 ]\n [-0.4624166 ]\n [-0.19158356]\n [-0.22292697]\n [-0.14393587]\n [ 0.98332685]\n [-0.27747753]]"
        ]
    },
    "actor_critic":	"my_mlp_actor_critic",
    "clip_ratio":	0.2,
    "env_fn":	"Anymal",
    "epochs":	150,
    "gamma":	0.993,
    "lam":	0.97,
    "logger":	{
        "<spinup.utils.logx.EpochLogger object at 0x7fae7130fd68>":	{
            "epoch_dict":	{},
            "exp_name":	null,
            "first_row":	true,
            "log_current_row":	{},
            "log_headers":	[],
            "output_dir":	"/home/shawn/Documents/DRL/experiments/Sat May  9 19:22:36 2020",
            "output_file":	{
                "<_io.TextIOWrapper name='/home/shawn/Documents/DRL/experiments/Sat May  9 19:22:36 2020/progress.txt' mode='w' encoding='UTF-8'>":	{
                    "mode":	"w"
                }
            }
        }
    },
    "logger_kwargs":	{
        "output_dir":	"/home/shawn/Documents/DRL/experiments/Sat May  9 19:22:36 2020"
    },
    "max_ep_len":	120,
    "on_policy":	true,
    "pi_lr":	0.0003,
    "prev_epochs":	0,
    "save_freq":	10,
    "seed":	0,
    "steps_per_epoch":	600,
    "target_kl":	0.05,
    "train_pi_iters":	80,
    "train_v_iters":	80,
    "vf_lr":	0.001
}