{
    "GUI":	false,
    "ac_kwargs":	{
        "activation":	"tanh",
        "hidden_sizes":	[
            256,
            128
        ],
        "log_std_list":	"[-0.56615275 -0.648941   -0.6643074  -0.6279908  -0.70919615 -0.6364655\n -0.7043139  -0.5954951  -0.6338271  -0.66201645 -0.6601876  -0.64627254]",
        "pi_bias_list":	[
            "[ 1.19604468e-02  2.01389462e-01 -4.47344705e-02 -8.32988396e-02\n -1.67901888e-02  1.69095676e-02  4.14977148e-02 -1.83919072e-01\n -3.45978700e-02  8.22692811e-02  1.28157333e-01  2.26666272e-01\n  3.96377034e-02  5.44923209e-02  1.23023160e-01  5.31005785e-02\n -7.37703890e-02  3.62532362e-02 -1.30175114e-01  1.88980728e-01\n  6.21195063e-02  1.53491154e-01 -3.93072329e-02  1.22719862e-01\n -9.73937213e-02 -7.61487409e-02  1.69137970e-01 -8.10842738e-02\n -1.11820530e-02  1.49935514e-01  1.09106954e-02  3.57367937e-03\n -1.96471855e-01  1.87254816e-01 -2.91797798e-02 -1.11731276e-01\n  1.15255162e-01  2.96015907e-02  2.41068210e-02  1.00576587e-01\n -8.98790061e-02 -1.49090523e-02  4.85758157e-03 -5.67722619e-02\n -4.08140309e-02 -1.09468125e-01 -1.74441680e-01 -1.43940285e-01\n -8.81284103e-02 -7.58121610e-02 -6.15482107e-02 -2.36118540e-01\n -7.65014067e-02  5.68573326e-02 -6.03462458e-02 -3.10270526e-02\n  8.15007463e-03  1.34746596e-01  7.84898177e-02 -4.17444073e-02\n  1.39828930e-02  9.01367143e-03  7.85494000e-02  1.17874116e-01\n  1.21474683e-01  1.31218890e-02 -7.95402154e-02 -8.33629351e-03\n  1.63324803e-01 -1.56873286e-01 -1.95619941e-01  1.00284882e-01\n  1.47558302e-01 -7.69902617e-02  9.38166156e-02 -9.79697034e-02\n  1.92265157e-02 -6.11418076e-02  6.09129854e-02  6.57887235e-02\n -7.74243549e-02  7.87992850e-02 -8.84520262e-02  5.99870495e-02\n  3.27810615e-01  6.89937696e-02 -3.29826400e-02  2.31185272e-01\n  7.19133988e-02 -3.11713144e-02  1.83946863e-01 -1.63322181e-01\n  1.59214139e-01  6.57403842e-02  9.53814387e-02  3.97563092e-02\n -6.43565878e-02 -1.42720357e-01  1.99702442e-01  7.30034038e-02\n -6.06386550e-02 -2.63305823e-03  8.01214799e-02  1.02135867e-01\n  6.84424415e-02 -1.07472450e-01 -1.19292155e-01  6.72910810e-02\n -7.57415444e-02  6.45533726e-02 -4.38266881e-02 -7.42542446e-02\n -1.93366364e-01 -2.40737014e-02 -1.65359080e-02  7.26031512e-02\n  7.76051506e-02  1.25394478e-01  8.89189541e-02  1.97011948e-01\n -6.09217845e-02  2.16908362e-02 -2.77161058e-02 -8.32956657e-02\n  1.26431942e-01 -1.41215757e-01 -1.89585630e-02 -2.09303617e-01\n  1.34194285e-01 -5.12000844e-02 -1.48155063e-01  1.68662921e-01\n  7.66480714e-02  1.53005466e-01  7.21980333e-02 -2.07074270e-01\n  5.42442277e-02 -1.90983228e-02  1.47118941e-01  2.05532014e-02\n -6.81463555e-02 -2.91353986e-02  1.78961288e-02  3.91572155e-02\n -2.74114534e-02 -1.98215231e-01  3.49498987e-02 -2.16381047e-02\n  1.38460189e-01 -4.48994935e-02 -1.26187310e-01  2.34771311e-01\n -3.71406786e-02  9.30304732e-03 -5.24416901e-02 -3.81167866e-02\n  1.93061098e-01  1.52514786e-01  1.47887573e-01 -9.95237455e-02\n -2.43285060e-01  2.60635883e-01  9.86746773e-02  1.94843262e-02\n  3.89216244e-02 -2.49592468e-01 -1.02000922e-01  2.70988587e-02\n  1.04343360e-02 -9.15345177e-02  3.61284881e-04 -1.10021234e-02\n  7.17977583e-02  1.91733725e-02  1.78860631e-02 -3.35878693e-02\n -1.51209831e-01 -3.40845063e-02 -4.46848832e-02  6.14468381e-02\n -1.01433769e-01  8.70245174e-02  1.00671157e-01  5.94595447e-02\n  9.05291140e-02  8.05764517e-04 -2.20438406e-01 -8.28948468e-02\n -1.45381182e-01 -3.91687043e-02 -2.61143595e-02 -1.12166323e-01\n -2.30002943e-02  7.57125542e-02  1.66572258e-02 -6.10123090e-02\n -6.91665262e-02  1.13089509e-01  1.14157915e-01 -1.22326203e-02\n -3.87819894e-02  1.23859093e-01 -7.64641836e-02 -5.25921071e-03\n -5.31537794e-02  2.05106474e-02  2.05881834e-01  2.09606811e-01\n -2.80068759e-02  4.00261320e-02  7.49779269e-02 -7.33398739e-03\n -1.09472252e-01 -2.75354356e-01 -5.90674691e-02 -9.12879035e-02\n -3.27426642e-02 -1.56696867e-02  2.42304634e-02 -2.13008132e-02\n  9.59119797e-02  6.23934083e-02 -1.72327515e-02  6.93253800e-02\n  7.95486048e-02 -2.74503045e-03  1.31760702e-01 -1.67180970e-01\n  9.18114930e-02  2.98949482e-04 -1.50112644e-01  7.43082073e-03\n  1.57387229e-03 -5.75608388e-03 -2.80687381e-02  9.30470079e-02\n  2.60775145e-02 -6.65027648e-02 -9.48478878e-02 -5.39977364e-02\n -5.44997863e-02 -2.07264461e-02 -5.85054755e-02  8.98890197e-02\n -4.76827659e-02 -7.76373781e-03  5.89859188e-02 -7.35301804e-03\n  1.27180740e-02  1.03620932e-01  5.95165603e-02 -1.03829056e-02\n  2.25010216e-02 -4.50373702e-02  1.04251191e-01  1.05124518e-01]",
            "[ 0.02222912 -0.07862425  0.0057953   0.03727527  0.00276454  0.20700668\n  0.12255263 -0.08913533 -0.04725296 -0.21042266  0.05679537 -0.2441512\n  0.09905723  0.02339751  0.1544503  -0.15752481  0.04043579 -0.1691176\n  0.01586521  0.06726266 -0.15529096 -0.03803673  0.07782186 -0.03174411\n  0.02167527 -0.19829255 -0.00394134  0.03079572 -0.0142083   0.04873507\n -0.08624663  0.20848657  0.01466238  0.0876361   0.07315212  0.07050624\n  0.16423345 -0.05396984  0.05862952  0.02800693 -0.13516001 -0.21284144\n -0.03024522 -0.02456533  0.07207726 -0.08631947  0.22442189 -0.00228195\n  0.09133074  0.02847854  0.17733224  0.03339856  0.05773504 -0.03667868\n -0.14200571  0.01690265 -0.1266705   0.05250556  0.03052687  0.08699428\n  0.2120197  -0.03398243 -0.02806947 -0.05738598 -0.12748805  0.05986591\n -0.02743677  0.02905092 -0.0154227   0.0602594   0.10172421 -0.12416074\n  0.00174449 -0.02113271 -0.03503039 -0.11608583  0.00936611 -0.03011395\n -0.07162212  0.00588913  0.10067791 -0.04004395 -0.01863733 -0.02743691\n  0.11941846  0.16700166  0.13122573 -0.25574982  0.18402347  0.00213276\n  0.07756846 -0.07450891  0.04636992  0.06041392  0.10793548 -0.0530355\n -0.07710911  0.03165033  0.01491529 -0.04561692 -0.20120041  0.10754941\n  0.1367413   0.01325706  0.19416569 -0.02820658  0.07007354  0.07029126\n -0.02524002 -0.01816039  0.24352501  0.07644117  0.04791021  0.15180422\n -0.14699824 -0.00554031 -0.138646    0.18390125  0.03051724  0.09634952\n  0.01588346 -0.21330993  0.08145411  0.06633251  0.14463139 -0.10998397\n -0.02120117  0.0022371 ]",
            "[ 0.00260321 -0.06144923  0.03777861 -0.01169409 -0.0422085   0.03626958\n -0.0277327  -0.08199826  0.05694837 -0.0425306  -0.06892831  0.00475949]"
        ],
        "pi_weight_list":	[
            "[[ 0.19355829  0.22393246  0.12599888 ...  0.02719406 -0.24066718\n   0.00849653]\n [ 0.01130232  0.09691355  0.12395386 ... -0.10038413 -0.1030203\n   0.10816961]\n [-0.05567496 -0.00415174 -0.20152085 ... -0.03646861 -0.14151557\n  -0.08592089]\n ...\n [ 0.02384887 -0.23379387 -0.05560831 ...  0.06048141  0.06645251\n  -0.26398784]\n [-0.18653668 -0.24994467  0.02833387 ...  0.04689927 -0.15248762\n  -0.09062036]\n [ 0.01286024  0.09158932 -0.04581139 ... -0.06428569  0.04095722\n   0.16588525]]",
            "[[ 0.15401042  0.03034478 -0.03735241 ...  0.01380731 -0.00853071\n   0.16009575]\n [-0.14651927 -0.18098152 -0.0041058  ... -0.04636967  0.10233697\n  -0.08409264]\n [ 0.18210477 -0.13632308 -0.22403333 ... -0.05324361  0.0198176\n   0.1056935 ]\n ...\n [ 0.04757854  0.1280257   0.03240281 ... -0.00210727 -0.10029814\n   0.05307462]\n [-0.15908791 -0.00674124  0.15468742 ...  0.16410343 -0.05148363\n   0.08189943]\n [ 0.17045142  0.027886   -0.01284777 ... -0.06816601 -0.04305571\n  -0.21325071]]",
            "[[ 0.10426706 -0.20244892 -0.07936521 ... -0.36741635  0.22815296\n   0.07156093]\n [-0.11655901  0.16663416 -0.07706891 ...  0.09399101 -0.0039753\n  -0.13675731]\n [-0.22783002  0.11704326  0.1214521  ... -0.12159911 -0.05428246\n  -0.10398629]\n ...\n [-0.13357139  0.04634075  0.10611694 ... -0.01367392 -0.07961039\n   0.14363407]\n [ 0.06375353 -0.02699382  0.16945703 ... -0.09060385  0.1299582\n  -0.02398213]\n [-0.03722851  0.10261206 -0.04340898 ... -0.00336618 -0.2108763\n  -0.08183501]]"
        ],
        "v_bias_list":	[
            "[ 2.09239197e+00  3.04079056e+00  2.23658048e-03  1.16259575e+00\n  1.12092865e+00 -2.09480238e+00 -3.37589867e-02 -6.94621205e-02\n -1.37395787e+00  7.75218368e-01  3.35819721e+00 -2.66769242e+00\n -3.12038565e+00  2.18188715e+00 -3.61490130e+00  8.38131189e-01\n -4.71141130e-01  3.36020619e-01  1.08134842e+00 -1.63935900e+00\n  9.04909670e-01  1.91974473e+00 -2.91216636e+00  2.70021486e+00\n -1.81304133e+00  3.38029899e-02 -1.18165314e+00  9.71507803e-02\n  5.09513140e-01  2.87045050e+00 -4.35988605e-01 -4.57661301e-02\n  1.38099825e+00 -7.46222913e-01 -8.69698644e-01 -1.04522491e+00\n -9.02833104e-01 -1.88520062e+00  1.44300866e+00 -2.21347499e+00\n -6.39380634e-01 -2.30632448e+00  2.59522915e+00 -2.70479822e+00\n -4.19775963e+00  1.09202158e+00 -1.66883004e+00 -1.52852201e+00\n -1.51345909e+00  5.80028951e-01  2.93053603e+00 -8.67448032e-01\n -3.98845482e+00  1.77777231e+00 -1.03739405e+00  9.48892117e-01\n  2.33744335e+00 -1.81179929e+00  1.07455754e+00  1.08144927e+00\n  1.62341201e+00 -8.53049934e-01 -3.58632588e+00 -3.77500463e+00\n -3.06011343e+00 -1.37295663e+00  9.40825462e-01 -2.69297504e+00\n -1.33609557e+00  2.82957029e+00  2.90925813e+00  1.71856952e+00\n  3.82360864e+00 -2.15667748e+00 -1.75760150e+00  1.16936135e+00\n  1.98621845e+00  8.16417813e-01 -5.03937066e-01  2.16580033e+00\n -1.41616791e-01 -6.05372846e-01 -1.25346351e+00 -2.43766618e+00\n -1.68164301e+00 -1.98286355e+00  1.84239602e+00  3.16626716e+00\n  1.66289639e+00  1.27978337e+00  3.16143298e+00 -3.43527222e+00\n -3.13945389e+00 -3.35897756e+00  3.63923013e-01  2.28457379e+00\n  1.96960223e+00  1.07133508e+00 -1.86302018e+00 -3.42453527e+00\n -1.13744926e+00  3.33011913e+00  4.84514207e-01 -1.87497437e+00\n -1.80164969e+00  2.75262523e+00  2.73430586e-01 -3.25814724e+00\n  1.08044946e+00 -3.34151840e+00 -2.24991512e+00  2.52160263e+00\n -1.74558628e+00  2.31783462e+00 -6.55230880e-02  4.24711704e-01\n -3.08606839e+00 -1.91406536e+00 -2.75177193e+00 -4.61485028e-01\n -2.35115027e+00 -1.17702508e+00 -1.13770711e+00  2.54838943e+00\n -1.28259420e+00 -3.41605282e+00  2.51251101e-01 -2.90014267e+00\n  2.44412208e+00 -1.36052501e+00 -2.13148594e+00 -1.12554920e+00\n  1.25661755e+00 -1.21483719e+00  2.45062518e+00  2.18619490e+00\n -1.30474973e+00 -3.82914662e+00  3.17069459e+00  5.38989353e+00\n  1.82609403e+00  2.29995608e+00  1.76394606e+00 -2.55712342e+00\n -2.92880893e+00 -2.15156412e+00 -1.54035687e+00  9.54093099e-01\n  2.21310139e+00  3.16624594e+00 -1.46685645e-01  4.55660009e+00\n -2.27279305e+00  2.46384189e-01  1.88749447e-01 -1.33357421e-01\n  2.40005636e+00  1.90280902e+00 -4.73124206e-01 -8.94758999e-01\n -3.57340527e+00 -1.21399558e+00  4.27686644e+00  9.42776799e-01\n -1.86971271e+00  1.52119946e+00 -1.85711831e-01  2.20809126e+00\n -2.95277262e+00 -4.24632168e+00 -1.48279488e+00  5.09277619e-02\n -3.79298985e-01 -1.72609091e-01 -2.04980636e+00 -9.42133248e-01\n  1.37545359e+00  1.56195521e-01  3.35086703e-01 -4.76190001e-01\n -3.34611624e-01 -2.39185596e+00 -2.10013366e+00 -3.64309520e-01\n -5.34326792e-01 -9.44132984e-01  2.36504531e+00  2.71332049e+00\n -1.42785442e+00  5.33167958e-01  3.20937347e+00  3.07876498e-01\n -2.07953382e+00 -2.34877872e+00  9.03789997e-01 -9.87622738e-01\n  3.15719533e+00 -7.07222164e-01  2.87194848e+00 -9.10807073e-01\n  1.90754211e+00 -1.90630114e+00  3.34064054e+00  9.73052144e-01\n  3.96443510e+00 -4.01125765e+00  2.73061919e+00  3.78814888e+00\n  1.86690009e+00 -7.52785861e-01 -3.09890568e-01 -2.25661588e+00\n -4.19446528e-01 -4.44139659e-01  1.48249459e+00 -1.48779035e+00\n  3.57043624e+00 -3.61416519e-01  1.68533301e+00  2.59263968e+00\n -3.20524263e+00  3.38598585e+00 -3.01057529e+00 -2.26491094e+00\n -1.35424480e-01 -2.13933617e-01  1.96544850e+00  1.14547825e+00\n  2.00858498e+00 -1.10911834e+00 -1.84938204e+00  2.26253533e+00\n  1.04837036e+00  2.65238690e+00 -2.87476110e+00 -2.84396935e+00\n  1.22070861e+00 -1.14359522e+00 -1.03772454e-01 -9.53839421e-01\n -1.65575981e+00 -3.97818208e-01 -1.19359481e+00  2.01557025e-01\n  2.48315692e+00  2.02935171e+00 -2.95083356e+00  3.16414309e+00\n -1.03899372e+00 -3.75102258e+00 -3.55788970e+00  4.08252954e+00\n  1.17864633e+00 -3.74759525e-01  5.00967324e-01  2.96281595e-02]",
            "[ 1.1717891e+00  3.8376570e+00  2.7677467e-01 -2.5394835e+00\n -3.3982766e-01  2.2287531e+00  7.9980291e-02 -1.0198808e+00\n -2.6261864e+00  2.5977411e+00 -4.4151604e-02  5.9100327e+00\n -1.4843228e+00  2.0545731e+00 -5.1641059e-01  9.5009905e-01\n -2.1911159e+00  2.4471288e+00  9.6195555e-01  4.0036798e-01\n  2.6742706e+00  1.1196009e+00  1.0261595e+00 -2.1022792e+00\n  1.0691752e+00 -4.6856685e+00  7.9765052e-01  2.5394664e+00\n -4.4740942e-01 -2.5897882e+00 -2.6849680e+00  2.6114562e+00\n -1.6370817e+00  2.1141081e+00  1.5850430e+00  1.1276400e+00\n  2.4186349e+00  2.2735887e+00 -3.8025299e-01  1.1437600e+00\n -8.7490863e-01  2.9855118e+00 -2.4553758e-01  1.3846047e-03\n  1.8543139e-01 -9.4516516e-01  9.6203417e-01 -8.5369956e-01\n -2.0132012e+00  2.7383783e+00  3.5169947e-01  1.7700005e+00\n  5.3682721e-01  9.6312922e-01 -6.1823654e-01  1.5490140e+00\n -2.5019248e+00 -2.1329699e+00 -5.8842093e-01  2.3568535e+00\n  9.8862976e-01 -2.0954037e+00 -1.8110791e+00  8.9936662e-01\n  3.3759372e+00  4.9707351e+00  1.8862498e+00  1.8220062e+00\n -1.9835210e+00 -1.6674712e-01 -6.3732761e-01 -2.8806770e-01\n -4.7340080e-01 -8.8545609e-01 -1.8545336e+00  3.4137216e+00\n  3.1995361e+00  2.0293703e+00  2.4907954e+00  9.8662311e-01\n -6.0952795e-01 -6.6531157e-01 -2.6857750e+00  2.8217287e+00\n  1.8834060e+00  2.7763259e+00 -1.2508187e+00 -1.2644322e+00\n  2.7824790e+00  7.0825057e+00  3.5932844e+00  1.4151089e+00\n -2.7920663e+00  4.4804249e+00  6.2739134e-01 -1.8944694e+00\n  2.1602421e+00 -1.3616401e+00  1.7440752e+00  1.7949893e-01\n  2.6822805e+00  4.2722039e-02 -1.4173520e+00  1.0960068e+00\n  1.7921085e+00  3.9255875e-01  5.4717314e-01 -3.0263202e+00\n  8.3968931e-01  6.1094970e-01 -1.0472494e+00  2.6330171e+00\n  2.8311207e+00 -1.1846133e+00 -1.4813801e+00  5.8435960e+00\n -4.5773882e-01 -2.0197334e+00  6.3094034e+00  4.2127514e-01\n -1.6539043e+00  1.5109746e+00  2.3103485e+00 -1.3671484e+00\n  7.6645923e-01  4.7708368e-01 -1.4832819e+00  1.5350101e+00]",
            "[-2.3466644]"
        ],
        "v_weight_list":	[
            "[[ 0.48568833  1.5003488   0.7711574  ... -0.46664882 -2.1420019\n  -0.3568554 ]\n [ 0.8656082   1.2776933   0.26281306 ... -1.8006631   0.3824207\n   0.9576049 ]\n [ 5.4724483   5.683365    1.9942317  ... -0.73987424 -8.049614\n   9.007692  ]\n ...\n [-0.62470526 -0.57800466  1.0896752  ... -0.8905153  -1.3823552\n   0.5546484 ]\n [ 0.07947514 -0.20612308  0.75812775 ...  0.0988131  -0.98068106\n   1.9422337 ]\n [-0.32490146 -0.116195   -0.7861612  ...  0.9553047   2.148827\n  -1.8628148 ]]",
            "[[-0.24784788  1.3290187  -0.29000992 ... -0.16671643  0.3664397\n   1.1045926 ]\n [ 0.08711595  0.04600842 -0.27929685 ... -1.2329402   1.2945876\n  -1.0732219 ]\n [ 1.0539395   0.07925232 -0.23550591 ... -0.20764525  1.3444146\n  -0.6137914 ]\n ...\n [-1.3133941   1.3021806   0.50328636 ... -1.9871489  -1.7691468\n  -1.307475  ]\n [-1.0661794  -0.43416518  0.73057896 ...  2.8802185  -0.7799396\n   2.1908062 ]\n [ 2.8127537   0.27003703  2.2910233  ... -0.3413662   1.0034642\n   1.8635777 ]]",
            "[[-0.23652244]\n [ 0.10386085]\n [ 0.33737397]\n [ 0.4036611 ]\n [ 0.3223888 ]\n [ 0.3973929 ]\n [ 0.3087616 ]\n [ 0.26063785]\n [-0.04326089]\n [ 0.3286862 ]\n [-0.37804183]\n [-0.26736444]\n [ 0.1804167 ]\n [ 0.44186303]\n [ 0.11645962]\n [-0.43192494]\n [ 0.4660056 ]\n [ 0.31144124]\n [-0.17344797]\n [ 0.3419899 ]\n [-0.51110935]\n [ 0.24554609]\n [-0.23151805]\n [ 0.14223945]\n [-0.21402887]\n [ 0.23233002]\n [-0.15964244]\n [-0.23382874]\n [ 0.21164474]\n [-0.4245021 ]\n [ 0.13031718]\n [-0.43056616]\n [ 0.26492912]\n [ 0.17029303]\n [-0.11866601]\n [ 0.40108883]\n [-0.26293552]\n [ 0.13015577]\n [ 0.3040005 ]\n [-0.3971638 ]\n [-0.28203717]\n [-0.45409194]\n [ 0.27988163]\n [-0.36648157]\n [ 0.39643142]\n [ 0.17263721]\n [ 0.28772813]\n [-0.19965497]\n [-0.25190997]\n [ 0.32611123]\n [-0.29675892]\n [-0.2742113 ]\n [ 0.5520927 ]\n [-0.3550434 ]\n [-0.39495245]\n [-0.13431709]\n [-0.38575268]\n [-0.4184023 ]\n [ 0.33170575]\n [-0.3855696 ]\n [ 0.28099778]\n [-0.3422222 ]\n [-0.50182205]\n [-0.31020817]\n [-0.25244826]\n [-0.36876503]\n [ 0.36957297]\n [-0.18503456]\n [-0.14630513]\n [-0.36610186]\n [ 0.15127942]\n [-0.29435167]\n [-0.21483466]\n [ 0.21328396]\n [ 0.5084735 ]\n [-0.3148659 ]\n [-0.30622098]\n [ 0.5711923 ]\n [-0.12527914]\n [-0.53321546]\n [-0.6325828 ]\n [ 0.12171026]\n [-0.2413458 ]\n [-0.49125203]\n [-0.17624766]\n [-0.2575026 ]\n [ 0.1421487 ]\n [ 0.10497727]\n [-0.5341082 ]\n [-0.4633642 ]\n [-0.36381495]\n [-0.45789978]\n [ 0.48712254]\n [-0.5782806 ]\n [-0.26279643]\n [-0.12553309]\n [-0.38675123]\n [-0.33555788]\n [ 0.2623112 ]\n [-0.34078142]\n [-0.28486735]\n [ 0.30817348]\n [-0.15596841]\n [ 0.34435797]\n [-0.40880486]\n [ 0.26179513]\n [-0.4120016 ]\n [ 0.14152391]\n [-0.24376665]\n [ 0.21752644]\n [-0.19315988]\n [-0.40879452]\n [ 0.2549985 ]\n [ 0.39915243]\n [ 0.3732606 ]\n [-0.32051846]\n [-0.38304234]\n [ 0.20656718]\n [-0.39344478]\n [ 0.40555134]\n [ 0.19494435]\n [ 0.10909981]\n [-0.24824698]\n [ 0.2616373 ]\n [-0.37118328]\n [-0.12342897]\n [ 0.18150315]\n [-0.15122585]]"
        ]
    },
    "actor_critic":	"my_mlp_actor_critic",
    "clip_ratio":	0.2,
    "env_fn":	"Anymal",
    "epochs":	1500,
    "gamma":	0.993,
    "lam":	0.97,
    "logger":	{
        "<spinup.utils.logx.EpochLogger object at 0x7fda0f42dc88>":	{
            "epoch_dict":	{},
            "exp_name":	null,
            "first_row":	true,
            "log_current_row":	{},
            "log_headers":	[],
            "output_dir":	"/home/shawn/Documents/DRL/experiments/Tue May 12 23:10:52 2020",
            "output_file":	{
                "<_io.TextIOWrapper name='/home/shawn/Documents/DRL/experiments/Tue May 12 23:10:52 2020/progress.txt' mode='w' encoding='UTF-8'>":	{
                    "mode":	"w"
                }
            }
        }
    },
    "logger_kwargs":	{
        "output_dir":	"/home/shawn/Documents/DRL/experiments/Tue May 12 23:10:52 2020"
    },
    "max_ep_len":	60,
    "on_policy":	true,
    "pi_lr":	0.0003,
    "prev_epochs":	1300,
    "save_freq":	10,
    "seed":	0,
    "steps_per_epoch":	600,
    "target_kl":	0.01,
    "train_pi_iters":	80,
    "train_v_iters":	80,
    "vf_lr":	0.001
}