{
    "GUI":	false,
    "ac_kwargs":	{
        "activation":	"tanh",
        "hidden_sizes":	[
            256,
            128
        ],
        "log_std_list":	"[-0.35667494 -0.35667494 -0.35667494 -0.35667494 -0.35667494 -0.35667494\n -0.35667494 -0.35667494 -0.35667494 -0.35667494 -0.35667494 -0.35667494]",
        "pi_bias_list":	[
            "[-7.99858756e-03  1.39441997e-01 -1.58963222e-02 -2.74922140e-02\n -1.27556119e-02 -5.62363118e-03  1.27329482e-02 -9.56272483e-02\n -5.44721037e-02  3.26601379e-02  6.97611319e-03  1.44377351e-01\n -2.84098219e-02  7.39770383e-02  7.47000948e-02  2.08405238e-02\n -2.68125515e-02 -3.86732593e-02 -9.46132615e-02  8.13235939e-02\n  3.19652483e-02  1.41725525e-01 -8.54963623e-03  5.87768368e-02\n -5.26233502e-02  1.86708849e-03  1.11567363e-01 -3.37084010e-02\n  2.15901192e-02  8.77387896e-02  4.38807458e-02  6.63397834e-02\n -5.82825318e-02  4.83909473e-02  2.59616598e-02 -8.35126340e-02\n  1.50966831e-02  1.57482270e-02  6.33751154e-02  6.18147291e-02\n -7.11395079e-03  1.21811863e-04  8.44186079e-03 -2.97227316e-02\n  2.48324163e-02 -2.93550082e-02 -7.80560151e-02 -8.02470967e-02\n  2.01742202e-02 -3.07770707e-02 -7.17843771e-02 -1.03688754e-01\n  2.97683664e-02  3.26255672e-02 -2.36726031e-02  1.07070990e-02\n  5.26727773e-02  4.03435230e-02  6.89754710e-02 -2.42829463e-03\n  2.51639411e-02 -1.56917591e-02  7.15901777e-02  3.59247699e-02\n  9.18804631e-02  2.35070549e-02 -3.37731987e-02 -3.34777348e-02\n  1.05936438e-01 -9.02809054e-02 -7.39417076e-02  7.34260976e-02\n  8.66659805e-02 -2.90721189e-02  3.65385078e-02 -7.32927397e-02\n  4.38192068e-03 -7.59717524e-02  3.75764072e-02  4.84451326e-03\n -7.93357268e-02  1.65094212e-02 -1.15704415e-02 -4.51786742e-02\n  1.71880975e-01  8.45683366e-02  2.63892468e-02  9.53840315e-02\n -7.45911943e-03 -3.47216092e-02  5.08435480e-02 -8.44357386e-02\n  1.77386515e-02  1.55685851e-02  4.63779308e-02 -1.17864367e-02\n -3.01378779e-02 -5.96938096e-02  7.43195415e-02  4.62201703e-03\n -1.70129689e-03  5.89845851e-02  9.06639826e-03  4.69178669e-02\n  9.69175436e-03 -2.83632223e-02 -1.23873428e-01  2.86633559e-02\n  4.72078286e-03  4.96050343e-02  2.12453846e-02 -7.37545416e-02\n -5.68304248e-02 -8.41115974e-03 -7.05114529e-02  2.13245414e-02\n -2.17727032e-02 -1.53777739e-02  6.28861040e-02  1.06139533e-01\n -7.15410188e-02  6.54779151e-02 -3.69751975e-02  1.86733622e-02\n  7.03961179e-02 -6.38613626e-02 -3.95486988e-02 -9.84956026e-02\n  7.44765401e-02 -8.51844177e-02  3.41535406e-03  1.23473436e-01\n -7.32519152e-03  8.76523703e-02  5.20994850e-02 -7.67177492e-02\n  2.87026563e-03  5.67695610e-02  8.84157345e-02  8.31955019e-03\n -4.53618690e-02 -4.48178593e-03  5.86944520e-02  1.26371095e-02\n -4.08959761e-02 -8.27904642e-02  5.34352474e-02  7.63403950e-03\n  4.34789807e-02  4.53538224e-02 -5.34406258e-03  3.92138772e-02\n -3.35918367e-02 -1.94863491e-02 -5.65584712e-02 -2.01956369e-02\n  8.84847865e-02  1.06544301e-01  7.72663578e-02 -6.30383343e-02\n -1.26067802e-01  9.09608752e-02  5.65270185e-02  2.75469366e-02\n  2.20648833e-02 -7.18942136e-02 -5.51004633e-02  2.07856260e-02\n -5.12523130e-02 -3.91668342e-02 -4.80491109e-03 -4.64877188e-02\n  9.94425081e-03  7.40144402e-02 -3.02104838e-02  3.54277194e-02\n -8.37512687e-02 -6.28714859e-02 -7.16189221e-02  4.67967764e-02\n -3.35962884e-02  6.26355708e-02  3.09750680e-02  2.25245208e-03\n  6.84271008e-02  1.32393781e-02 -1.16366364e-01 -4.82121408e-02\n -1.05836220e-01  4.83878851e-02 -2.57987883e-02 -8.31982493e-02\n -2.97542103e-02  2.16489658e-02  9.78593454e-02 -8.78624246e-03\n  3.88864032e-03  1.15872035e-02  4.34267446e-02 -3.80237289e-02\n  4.00048960e-03  5.50083853e-02 -6.99213818e-02  5.97781874e-03\n -3.18163000e-02  3.72868478e-02  9.94796306e-02  9.24667343e-02\n  8.48843232e-02  5.87770380e-02  5.82788549e-02 -6.09344244e-03\n -6.34680092e-02 -9.81023908e-02 -4.14623041e-03  1.75565053e-02\n -1.97738465e-02 -7.25982040e-02  3.48332077e-02  2.96998993e-02\n  3.97779532e-02  6.48223236e-02  2.55258866e-02 -1.05888685e-02\n  1.27680019e-01  1.23828808e-02  4.58730198e-02 -7.59952217e-02\n  4.04047854e-02 -3.05837393e-02 -2.10224483e-02 -4.93032450e-04\n  1.95534471e-02 -1.75728332e-02 -1.82400160e-02  6.15097471e-02\n -4.38705795e-02 -2.84733754e-02 -9.12622362e-02  8.85355519e-04\n -5.49885370e-02 -6.01459760e-03 -8.21554884e-02  4.76223417e-02\n -4.85318061e-03  2.90548010e-03  1.37131497e-01 -2.37083230e-02\n  5.81737198e-02  3.60315591e-02  4.33767065e-02  4.73677889e-02\n  5.93632050e-02 -1.33801438e-02  4.48026247e-02  8.48365128e-02]",
            "[ 1.01502100e-02 -8.40427876e-02 -5.98939974e-03  4.88825813e-02\n -6.22219779e-03  8.23692158e-02  8.09163228e-02 -5.37629575e-02\n -3.72020528e-02 -6.65393770e-02  3.59286480e-02 -1.71331346e-01\n  1.73948482e-02  1.38323652e-02  5.69524467e-02 -5.97400665e-02\n  6.63262755e-02 -1.09134138e-01 -1.57372542e-02  9.76977423e-02\n -1.14911839e-01 -9.92529616e-02  7.07476661e-02 -3.04005784e-03\n  6.02025427e-02 -3.95729356e-02 -1.62456315e-02  4.73529398e-02\n  9.91261750e-03  8.83373544e-02  3.75328809e-02  5.07994816e-02\n  7.59292543e-02  1.48659395e-02  4.86276485e-02  2.91595310e-02\n  2.73489896e-02 -3.99028212e-02  6.32728636e-02  1.90799832e-02\n -3.41611467e-02 -1.78958625e-01 -4.29830775e-02  3.40740085e-02\n  3.12320441e-02 -7.79139251e-02  9.06179547e-02 -1.11352399e-01\n  2.07009092e-02  1.87347399e-03  1.76800340e-01 -5.29102795e-02\n  3.43796574e-02  7.02593429e-03 -1.05890408e-01 -4.88504022e-02\n -3.90172228e-02 -1.10500939e-02 -5.07998727e-02  1.52784064e-02\n  3.62144709e-02  1.35342889e-02 -3.42299677e-02 -5.21114729e-02\n -6.96954802e-02 -8.10646234e-05  3.76195982e-02  3.00582014e-02\n  2.42860932e-02  1.54528683e-02  6.01737499e-02 -1.09043539e-01\n  3.94103974e-02  1.92447174e-02  6.06218539e-02 -9.46647227e-02\n  3.68572660e-02 -3.46571649e-03 -3.29967439e-02  2.90924795e-02\n  3.57914306e-02  1.07226390e-02 -3.97781990e-02  5.78028634e-02\n  4.42460403e-02  6.37413412e-02  5.13407066e-02 -1.76262185e-01\n  4.16330695e-02  1.80540793e-02  9.20361504e-02 -2.68390197e-02\n  2.69316230e-03  9.25569907e-02  4.53613885e-02 -9.27176550e-02\n  2.89238077e-02  4.79231067e-02  7.26219043e-02 -2.07775235e-02\n -1.22204088e-01  3.62648740e-02  1.69821382e-01  7.43883988e-03\n  1.02643371e-01 -1.42428624e-02 -1.07877115e-02  8.02052915e-02\n -2.70518512e-02  2.77420618e-02  1.52645126e-01  6.33976609e-02\n  1.07133456e-01  2.72408221e-02 -4.48836274e-02 -5.91159388e-02\n -6.69941306e-02  7.59191588e-02  4.86033373e-02  4.57048714e-02\n  3.78504097e-02 -1.19821839e-01 -2.46898886e-02  1.94959585e-02\n  6.89951032e-02 -2.38721035e-02 -4.88355905e-02  4.97447280e-03]",
            "[ 0.02443476 -0.02667126  0.00016957 -0.04356012  0.02282022 -0.04115919\n -0.02439788 -0.0359493  -0.0114646  -0.01009617 -0.04172495 -0.01431423]"
        ],
        "pi_weight_list":	[
            "[[ 0.06938879  0.18476878  0.11400668 ...  0.00316041 -0.15857397\n  -0.00464758]\n [ 0.01468401  0.03633594  0.13041371 ... -0.0923781  -0.07905509\n   0.05830966]\n [-0.01167473 -0.00826949 -0.1826167  ... -0.13016295 -0.02770926\n  -0.07252055]\n ...\n [-0.01753806 -0.24825388 -0.01032713 ... -0.00127202  0.11841986\n  -0.20859073]\n [-0.12437584 -0.19096388  0.03436505 ...  0.00387302 -0.09177664\n  -0.08191661]\n [ 0.03065974  0.05834707 -0.10342423 ... -0.01977945  0.00770682\n   0.11442604]]",
            "[[ 0.09378407 -0.01383768  0.00182545 ...  0.06869252 -0.09718797\n   0.14257315]\n [-0.0699992  -0.26224232 -0.0031992  ...  0.02478473  0.06325237\n  -0.1177232 ]\n [ 0.21430823 -0.17109108 -0.29996893 ... -0.02041659 -0.0193172\n   0.18354733]\n ...\n [ 0.08319888  0.09245341  0.01749083 ... -0.05309682 -0.09263323\n   0.11756415]\n [-0.13888733 -0.02903746  0.21140042 ...  0.07172866  0.0146833\n   0.01061046]\n [ 0.09788573  0.02851458 -0.01536472 ... -0.07509655  0.00628373\n  -0.1555354 ]]",
            "[[ 0.13095479 -0.23723097 -0.03677085 ... -0.28455502  0.16445638\n   0.05407423]\n [-0.121449    0.15364397 -0.09169587 ... -0.0072116  -0.07168488\n  -0.15415022]\n [-0.19081125  0.0340003   0.10126303 ... -0.09497526  0.0928444\n  -0.12144879]\n ...\n [-0.18698645 -0.00379998  0.13747323 ...  0.08792239 -0.08032804\n   0.18710035]\n [ 0.04866706  0.00396032  0.17613536 ... -0.14096488  0.13095856\n  -0.04218609]\n [ 0.06751852  0.12704478 -0.00618129 ... -0.08096538 -0.11954613\n  -0.12235466]]"
        ],
        "v_bias_list":	[
            "[ 1.1175505e+00  1.3944577e+00 -3.7640318e-02  4.6326616e-01\n  9.3673974e-02 -7.7981198e-01  1.7714161e-01  1.2872823e+00\n -2.7820060e-01  1.1292763e+00  1.6686593e+00 -1.6402811e+00\n -1.6528264e+00  2.1435707e+00 -2.4995458e+00  7.1807253e-01\n -7.4621335e-02  4.9124843e-01  9.5649999e-01 -7.0859122e-01\n -1.3164607e-02  1.9287760e+00 -8.6004221e-01  1.3794787e+00\n -1.5909326e+00  8.1509399e-01 -8.6402470e-01  1.8037573e-01\n  5.4783463e-01  1.8253535e+00  1.4739294e+00  3.0248240e-01\n  3.8036436e-01 -3.7145272e-01 -9.5303774e-01 -7.0207959e-01\n  3.3684027e-01 -9.4346875e-01  1.1035322e+00 -1.2099577e+00\n -7.0615846e-01 -3.0516043e-01  1.6905097e+00 -1.5439826e+00\n -2.3008354e+00  1.2900460e+00 -1.9689982e+00 -7.6516770e-02\n -5.2854913e-01  3.7663829e-01  1.4621551e+00 -5.2735722e-01\n -1.9165564e+00  1.6226137e+00 -1.2029740e+00  1.4505391e+00\n  1.1684787e+00 -1.2839608e+00  5.2353203e-01  3.0235636e-01\n  1.3873725e+00 -1.7422814e+00 -2.3526232e+00 -2.4496305e+00\n -9.0775597e-01 -6.3885820e-01  2.7644920e-01 -1.6129687e+00\n -3.1826809e-01  1.8588594e+00  1.6749646e-01  2.0558968e-01\n  2.1048944e+00 -1.0909295e+00 -1.2045155e+00  8.4840500e-01\n  1.5119827e+00  2.7595228e-01  1.4722955e-01  7.3097843e-01\n  1.2587092e+00  5.1998913e-01 -6.4385056e-01 -1.5936557e+00\n -8.0331260e-01 -9.8047733e-01 -1.8913433e-01  1.6952832e+00\n  1.3709357e+00 -7.8980637e-01  1.0254043e+00 -2.2412632e+00\n -1.1854337e+00 -1.4277149e+00  7.5247991e-01  1.4343071e+00\n  1.1317992e+00 -1.9145708e-01 -1.5409112e+00 -1.8835318e+00\n -1.4243915e+00  9.7086596e-01 -1.1685669e+00 -2.0923014e+00\n -1.1662197e+00  1.8241814e+00 -1.4261956e-03 -2.2562411e+00\n  9.2574126e-01 -2.3004320e+00 -9.8717833e-01  1.2779118e+00\n -5.6453675e-01  4.3144131e-01 -1.0780730e+00 -8.1455791e-01\n -9.4884211e-01 -1.3798020e+00 -1.5402948e+00 -9.8483965e-02\n -1.9869750e+00 -1.2141793e+00  4.5740926e-01  7.7323258e-01\n -9.0924287e-01 -1.1902241e+00  1.9971199e-01 -1.8609333e+00\n  2.2600412e+00 -4.2002305e-01 -1.5400318e+00 -3.1155872e-01\n  1.1290667e+00 -1.0815791e+00  6.6986310e-01  1.6919832e+00\n -5.8115274e-01 -1.9343302e+00  2.0817058e+00  2.9477882e+00\n  7.7036762e-01  1.6300938e+00  8.3915943e-01 -8.9691597e-01\n -1.3217379e+00 -1.4288657e+00 -1.6400858e+00  1.2593610e+00\n  1.2499821e+00  1.9784434e+00 -5.1549923e-01  3.3849518e+00\n -7.7031219e-01 -1.8237717e-01 -4.1634279e-01 -6.0907930e-01\n  1.1833358e+00  2.2914039e-01  4.4206238e-01 -3.2785255e-01\n -2.4689207e+00 -1.8315183e-01  1.4859709e+00  3.8905656e-01\n -7.8509915e-01  9.6740776e-01  5.6022320e-02  1.0783831e+00\n -2.0281744e+00 -2.6117554e+00 -3.7103835e-01 -4.0553188e-01\n  1.2390138e+00  3.1178969e-01 -2.0629787e+00 -4.5328060e-01\n  1.2563305e+00 -6.1744016e-01 -1.9431460e-01 -1.2722087e+00\n -3.4810815e-02 -1.2956069e+00 -8.2026970e-01 -8.1152749e-01\n  4.5191136e-01 -1.5347850e+00  1.2245883e+00  1.7907099e+00\n -8.8824576e-01  5.7995606e-02  9.5689934e-01  7.7611727e-01\n -1.0895818e+00 -5.2990234e-01  4.0489772e-01 -5.8237833e-01\n  2.6904030e+00 -2.7463442e-01  8.7706232e-01 -1.8511984e+00\n  1.3566806e+00 -1.2237511e+00  1.7656848e+00  9.9231666e-03\n  2.7249329e+00 -1.6726389e+00  1.3967805e-01  2.5893042e+00\n  2.9341683e-01 -6.2320459e-01 -1.2914107e+00 -7.1946748e-02\n  5.6692684e-01 -2.8530920e-01  7.4659026e-01 -1.5096098e+00\n  1.4602363e+00  6.7881510e-02  8.2174230e-01  1.9717354e+00\n -1.3619447e+00  1.1257097e+00 -1.9308046e+00 -1.5892303e+00\n  4.4833311e-01  8.7932110e-01  8.5428834e-01  1.2521194e+00\n  1.4482242e+00 -4.4148085e-01 -1.3126245e+00  1.2819445e+00\n  9.8659575e-01  2.1369433e+00 -2.0704982e+00 -8.3676463e-01\n  8.9395958e-01 -1.4428514e+00 -9.5417047e-01 -1.3508385e+00\n -1.8225799e+00 -3.3322623e-01 -6.5774649e-01  5.2374852e-01\n  1.3966041e+00  9.2188442e-01 -1.8716816e+00  1.7463791e+00\n -1.1311212e+00 -2.5326645e+00 -1.5812265e+00  3.1577234e+00\n  1.2337846e+00 -6.7193948e-02 -9.2451805e-01  1.1592009e+00]",
            "[ 1.7906538   2.016513    1.4303033  -1.2070432   1.1242152   1.6478288\n -0.49033916 -0.99460685 -1.951117    1.9107398   0.84184676  1.6759183\n -1.9584922   1.1046898   0.4186945   1.0888147  -1.1175041   1.8799592\n -0.08585604  0.62087655  1.3699174   0.71499497  1.5406457  -1.3372167\n  1.2374738  -3.3311498   0.46800748  2.8191714  -1.6073647  -1.2074825\n -1.5597994   1.423187   -0.5104217   0.52585423  1.1747023  -0.37917534\n  1.3136955   1.346831   -1.7105987   0.7731754   0.1034646   1.4895467\n  1.2440951   1.4182004   2.1717649  -1.7525342  -0.66836774 -1.0497736\n -1.8693044   1.6473768   1.0270828   1.1109506   1.0830076   0.806511\n -2.2396266   1.8514026  -1.9200993  -1.9418939  -1.3475174   0.7453831\n -0.25529313 -0.87436515  0.42395344  0.9132381   1.245218    1.9448997\n  0.3311013   0.9185551  -1.7916797   0.28866756 -0.10467751  0.19756784\n  0.828451    0.2406661  -1.3869694   1.8228947   1.4001938   1.2565955\n  1.3519953  -0.4403548  -0.20682654 -0.729882   -1.9454355   0.9913757\n  1.1462224   0.30359778 -1.8015944  -0.18563378  1.4720095   3.5027995\n  1.908798    0.5791616  -1.8518287   2.3730588   1.5073125  -1.7372824\n  1.9345562  -0.5880035   1.223639   -1.5362688   2.4676611   0.6211745\n -1.3191344   2.0941734  -0.03450317 -0.55852383  0.8865341  -1.6265874\n  1.3608593  -0.6461697  -0.5667586   0.75598407  2.8298528  -0.70059776\n -1.9194189   3.188672   -1.2730284  -1.7578818   3.3402505  -0.9019458\n -1.4812926   0.40605354  1.3087981   1.2131048  -0.22882628  1.7423855\n -0.5454788   1.0221677 ]",
            "[-0.58756566]"
        ],
        "v_weight_list":	[
            "[[ 1.0400839e-01  5.7993525e-01  9.9971825e-01 ... -1.1313939e+00\n  -1.1411942e+00 -5.6887269e-01]\n [ 1.0931754e-01  4.3203601e-01 -4.3812394e-01 ... -1.2733899e+00\n  -1.5631129e-01  1.8840960e+00]\n [ 4.1596389e+00  5.8043299e+00  2.2296674e+00 ... -5.3340966e-01\n  -5.5184937e+00  8.3065929e+00]\n ...\n [-7.6248950e-01 -5.3288633e-01  9.9402994e-02 ... -1.4013299e-01\n   4.6807632e-01 -3.4404019e-01]\n [-7.4512102e-03  3.5191697e-01  1.3291635e-01 ... -1.5215982e-01\n   9.7274393e-01  4.0818390e-01]\n [ 2.3788171e-01  4.6859923e-01 -3.8889781e-01 ...  5.9429163e-01\n   2.3261061e-01 -3.1322694e-01]]",
            "[[ 0.47040886  0.76378727 -0.01669142 ...  1.1289039   0.35500023\n   1.4371217 ]\n [ 1.3357749   0.37402406  0.280394   ... -0.4032419   1.7361498\n   0.3302533 ]\n [-0.16641437  0.5561846  -0.0727741  ...  1.1151977   0.68593764\n  -0.5307549 ]\n ...\n [-0.8218308   0.24462332  0.3662514  ...  0.2201175  -0.2822586\n  -1.6668236 ]\n [-0.38850218 -0.10587296  0.59899783 ...  1.2298408  -0.7526654\n   0.16011457]\n [ 1.5841326  -0.2091861   0.83578205 ... -0.33139607  1.1456791\n   0.48690036]]",
            "[[-0.06031735]\n [-0.19421776]\n [-0.53273237]\n [ 0.28571615]\n [-0.19908616]\n [ 0.28000382]\n [ 0.4472978 ]\n [ 0.5318744 ]\n [ 0.17554665]\n [-0.08172428]\n [-0.58646804]\n [-0.38469607]\n [ 0.19015336]\n [-0.3840556 ]\n [ 0.23328395]\n [-0.05895238]\n [ 0.02744673]\n [ 0.12339287]\n [-0.6863335 ]\n [ 0.26439735]\n [-0.40164948]\n [-0.3428498 ]\n [-0.41351092]\n [ 0.18105005]\n [-0.20391525]\n [ 0.75557584]\n [-0.71206737]\n [-0.54849297]\n [ 0.30412805]\n [ 0.19292818]\n [ 0.38631082]\n [-0.18966368]\n [ 0.5725094 ]\n [-0.26837733]\n [-0.52377826]\n [ 0.8714843 ]\n [-0.4817515 ]\n [-0.19618891]\n [ 0.36994454]\n [-0.9452841 ]\n [-0.8627275 ]\n [-0.1559097 ]\n [-0.25167042]\n [-0.67892385]\n [-0.33430684]\n [-0.19065316]\n [ 0.42318344]\n [ 0.5462773 ]\n [ 0.14615051]\n [-0.43200636]\n [-0.24876602]\n [-0.35234135]\n [-0.7237767 ]\n [-0.71370715]\n [ 0.61526716]\n [-0.23564741]\n [ 0.13699536]\n [ 0.05505934]\n [ 0.15199263]\n [-0.874663  ]\n [ 0.94457525]\n [-0.4786561 ]\n [-0.9830442 ]\n [-0.43433902]\n [-0.44928232]\n [-0.33359542]\n [ 0.4009815 ]\n [-0.38780728]\n [ 0.96159667]\n [-0.7147818 ]\n [ 0.38987526]\n [-0.43347245]\n [-0.28593144]\n [ 0.547252  ]\n [ 0.28058445]\n [-0.24056168]\n [-0.24640773]\n [ 0.36579296]\n [-0.33044854]\n [ 0.8572207 ]\n [-0.9629209 ]\n [ 0.0793781 ]\n [ 0.4366555 ]\n [-0.7802783 ]\n [-0.4825732 ]\n [-0.39358723]\n [ 0.2017152 ]\n [ 0.64408445]\n [-0.2711317 ]\n [-0.57307976]\n [-0.10359871]\n [-0.56839806]\n [ 0.2469663 ]\n [-0.39650288]\n [-0.40522593]\n [ 0.01349485]\n [-0.17974077]\n [-0.58750886]\n [-0.09987668]\n [ 0.08723313]\n [-0.14932889]\n [-0.97204286]\n [ 0.2824817 ]\n [-0.45952708]\n [ 0.437483  ]\n [-0.5159385 ]\n [-0.27599883]\n [ 0.3222286 ]\n [-0.26512274]\n [ 0.5710033 ]\n [-0.5467266 ]\n [-0.38788247]\n [-0.8333063 ]\n [ 0.6745349 ]\n [ 0.1228036 ]\n [-1.0302874 ]\n [ 0.4806246 ]\n [ 0.10713568]\n [-0.68812865]\n [ 0.46620673]\n [ 0.34102532]\n [ 0.7215757 ]\n [-0.47776794]\n [-0.14466177]\n [-0.23400821]\n [-0.234623  ]\n [ 0.90920395]\n [-0.22702803]]"
        ]
    },
    "actor_critic":	"my_mlp_actor_critic",
    "clip_ratio":	0.2,
    "env_fn":	"Anymal",
    "epochs":	600,
    "gamma":	0.993,
    "lam":	0.97,
    "logger":	{
        "<spinup.utils.logx.EpochLogger object at 0x7f94542dcd30>":	{
            "epoch_dict":	{},
            "exp_name":	null,
            "first_row":	true,
            "log_current_row":	{},
            "log_headers":	[],
            "output_dir":	"/home/shawn/Documents/DRL/experiments/Sun May 10 00:39:31 2020",
            "output_file":	{
                "<_io.TextIOWrapper name='/home/shawn/Documents/DRL/experiments/Sun May 10 00:39:31 2020/progress.txt' mode='w' encoding='UTF-8'>":	{
                    "mode":	"w"
                }
            }
        }
    },
    "logger_kwargs":	{
        "output_dir":	"/home/shawn/Documents/DRL/experiments/Sun May 10 00:39:31 2020"
    },
    "max_ep_len":	120,
    "on_policy":	true,
    "pi_lr":	0.0003,
    "prev_epochs":	150,
    "save_freq":	10,
    "seed":	0,
    "steps_per_epoch":	600,
    "target_kl":	0.05,
    "train_pi_iters":	80,
    "train_v_iters":	80,
    "vf_lr":	0.001
}