{
    "GUI":	false,
    "ac_kwargs":	{
        "activation":	"tanh",
        "hidden_sizes":	[
            256,
            128
        ],
        "log_std_list":	"[-0.7153936  -0.75471056 -0.81990546 -0.81446743 -0.88947105 -0.77916765\n -0.82227325 -0.7488373  -0.7623022  -0.85130256 -0.774051   -0.7259466 ]",
        "pi_bias_list":	[
            "[ 0.05297724  0.22862779  0.01550934 -0.09446505 -0.03638119 -0.0286516\n  0.04021264 -0.12851818 -0.03819735  0.0107503   0.15865968  0.23139276\n  0.01676212  0.11124198  0.14306776  0.05021653 -0.05341917  0.02706365\n -0.12515044  0.1470528   0.06084005  0.1606612   0.00523207  0.14965068\n -0.08405828 -0.05627161  0.08929439 -0.13201624 -0.00206707  0.12027407\n -0.03282445 -0.01502086 -0.19493283  0.17749444 -0.02254749 -0.0958564\n  0.08623724  0.09119218  0.00906113  0.09874051 -0.04605857  0.03630082\n -0.01174682 -0.10636583 -0.00152074 -0.1331337  -0.1881876  -0.13548987\n -0.08162408 -0.06186999 -0.05837429 -0.21646245 -0.08981212  0.04377709\n -0.05973916 -0.00100202 -0.03069909  0.14705615  0.03956455  0.03045364\n  0.08303196 -0.00180829  0.0979355   0.09093289  0.15207078  0.03113998\n -0.11945497  0.03408784  0.17895043 -0.13445362 -0.2257367   0.10153618\n  0.1577337  -0.06421398  0.07681794 -0.08619925  0.02265269 -0.07255414\n  0.04376648  0.09931923 -0.0395596   0.08846319 -0.14994684  0.10286386\n  0.3070183  -0.00679386  0.04480288  0.24722946  0.01666369 -0.08682\n  0.15478882 -0.1985474   0.18247364 -0.02642253  0.12422615  0.07647077\n -0.07441755 -0.13768218  0.2621765  -0.01374867 -0.02883449  0.10243472\n  0.03720999  0.09630059  0.07930313 -0.05746397 -0.10228243  0.0879299\n -0.11035902  0.07497441 -0.00095935 -0.02852517 -0.23292957  0.0516986\n  0.01081535  0.08061298  0.09835938  0.08342313  0.09046971  0.14623551\n -0.10597506  0.08243322 -0.06355073 -0.05143864  0.0982568  -0.19374709\n -0.03591821 -0.17892331  0.18369626 -0.06481194 -0.13983303  0.13182399\n  0.14967209  0.1613439   0.02308145 -0.18855879  0.07509194  0.02364158\n  0.1834049   0.06182656 -0.0097718  -0.01505539  0.02224413 -0.00745934\n -0.05035499 -0.18719476  0.0652613  -0.01024157  0.08704981 -0.02186663\n -0.08758709  0.18920371 -0.0606449  -0.01539489 -0.01128362 -0.03713515\n  0.2222254   0.14514011  0.19021642 -0.09620528 -0.22275409  0.29062894\n  0.0933632  -0.02156949  0.02699296 -0.2876155  -0.08569608  0.00479119\n  0.02306855 -0.05135795 -0.01952274  0.00261433  0.07231623  0.10889833\n -0.05860661  0.03061171 -0.15945564 -0.01259298 -0.07046416  0.00771606\n -0.07626628  0.07749923  0.11338731  0.03937069  0.0802345  -0.00871525\n -0.22786771 -0.07463863 -0.17702913 -0.01027455 -0.06179423 -0.11705561\n -0.0819732  -0.00509043  0.01586556 -0.08689269 -0.06738483  0.07789904\n  0.15583186 -0.02524904  0.01773691  0.13273428 -0.08066471 -0.03056594\n -0.03509287  0.05229467  0.17390831  0.20322248 -0.0438538   0.00379813\n  0.05794277 -0.03924226 -0.11262871 -0.25838125 -0.06832539 -0.07739221\n -0.11546207  0.02448834  0.03003796 -0.07152562  0.09195988  0.05492083\n  0.00977929  0.0788049   0.13305822 -0.04459357  0.12114313 -0.10835057\n  0.00671198 -0.01193586 -0.17320696 -0.00465365 -0.01014935  0.04477469\n -0.05421005  0.14341606  0.01755242 -0.06721688 -0.06456116 -0.12063498\n -0.05708615  0.03122462 -0.10550677  0.07579821 -0.05644707 -0.00410309\n  0.11452404 -0.04818029 -0.01032656  0.0902176   0.08380839  0.04928228\n  0.0158811  -0.03820392  0.1484493   0.070669  ]",
            "[ 1.63629632e-02 -7.47445598e-02 -3.19213085e-02  1.00364909e-01\n  7.81561248e-03  2.01621071e-01  9.34046730e-02 -1.01110421e-01\n -1.89976115e-02 -2.24861145e-01  7.45120198e-02 -2.58097231e-01\n  1.06804036e-01  3.74320410e-02  1.77699640e-01 -2.20831469e-01\n  2.46343706e-02 -2.28349537e-01  2.87672542e-02  9.26499590e-02\n -1.61636114e-01 -5.41543774e-02  7.40475655e-02 -2.58598253e-02\n  9.40512866e-02 -2.96538860e-01 -7.99025502e-03  1.82177611e-02\n -6.07786374e-03  8.12352821e-02 -6.20560832e-02  2.08671883e-01\n -1.05483923e-02  1.04598366e-01  3.30032669e-02  1.05642654e-01\n  1.43613711e-01 -4.07751128e-02  5.07074073e-02  1.87025536e-02\n -1.79852873e-01 -3.33565235e-01 -4.27082703e-02 -5.98710310e-03\n  5.41891418e-02 -8.16054866e-02  2.12250546e-01 -1.26562836e-02\n  1.06509097e-01  8.35144818e-02  1.37129724e-01  4.41185534e-02\n  1.03230283e-01 -2.75078174e-02 -1.50847510e-01  2.10546851e-02\n -1.45215690e-01 -9.43061430e-03 -1.43586041e-03  3.53751630e-02\n  2.24084988e-01  8.55490071e-05 -4.13582847e-02 -8.49408880e-02\n -1.41519219e-01  7.58332238e-02 -1.77185144e-02  4.24560159e-02\n -4.33257669e-02  3.88602167e-02  8.95230547e-02 -1.12294056e-01\n  1.86905526e-02  1.67119019e-02 -3.80885974e-02 -1.21150479e-01\n  3.89070623e-02 -1.46146249e-02 -5.30474186e-02  2.87684612e-02\n  7.90768117e-02 -6.09211102e-02  1.67151093e-02 -2.69512869e-02\n  1.62859917e-01  1.93358824e-01  9.75053906e-02 -2.01820061e-01\n  1.94208175e-01  4.63805981e-02  4.22871821e-02 -6.35035709e-02\n  7.37315714e-02  1.11709036e-01  1.73659742e-01 -5.19281104e-02\n -8.60376656e-02  5.79467192e-02  2.76512979e-03 -3.39217745e-02\n -2.36280560e-01  1.07983679e-01  1.40374035e-01  4.31693085e-02\n  1.99384555e-01 -1.17011126e-02  1.18174165e-01  2.33455729e-02\n -4.53466624e-02 -2.96378676e-02  2.51279563e-01  7.74192065e-02\n  6.28398582e-02  1.66419417e-01 -2.19432309e-01 -3.92432325e-03\n -1.29598722e-01  2.36749664e-01  6.05002567e-02  1.64136589e-01\n  2.37799231e-02 -2.15972692e-01  1.02712542e-01  1.17695384e-01\n  1.47243619e-01 -9.44286808e-02 -1.55561343e-02  4.01327349e-02]",
            "[-0.01897137 -0.06736207  0.05476278 -0.01363936 -0.07398053  0.06064938\n -0.03159524 -0.0797164   0.06638812 -0.05492273 -0.09358234  0.00415313]"
        ],
        "pi_weight_list":	[
            "[[ 0.15759647  0.28429356  0.0888334  ...  0.05779476 -0.22190627\n   0.01344579]\n [ 0.04487467  0.13813762  0.17516035 ... -0.06530587 -0.06767128\n   0.07365698]\n [-0.07039302 -0.00548249 -0.23901807 ... -0.02481129 -0.1519136\n  -0.09749053]\n ...\n [-0.02226941 -0.28793466 -0.08407029 ...  0.08920745  0.07843562\n  -0.21322699]\n [-0.2248445  -0.27337265 -0.0244262  ...  0.0490428  -0.19412832\n  -0.04183572]\n [ 0.00759666  0.1284634  -0.0220549  ... -0.0903973   0.07495169\n   0.12042755]]",
            "[[ 0.17082421  0.04299521 -0.01563535 ...  0.01998197 -0.0152425\n   0.13547938]\n [-0.07229703 -0.19950658 -0.07950253 ... -0.05796986  0.1140162\n  -0.07017956]\n [ 0.21362019 -0.14556617 -0.25618324 ... -0.05062324  0.01386405\n   0.1555466 ]\n ...\n [ 0.04079687  0.16314285  0.09978794 ... -0.00484052 -0.15061721\n   0.05883695]\n [-0.18154737 -0.0019578   0.13949186 ...  0.16182137 -0.02878164\n   0.1232641 ]\n [ 0.16775277 -0.00674845  0.04130285 ... -0.02042311 -0.02695703\n  -0.28230277]]",
            "[[ 0.12624814 -0.1848117  -0.06199038 ... -0.35104942  0.21827123\n   0.04591691]\n [-0.08645524  0.20437594 -0.03255255 ...  0.12765995  0.01884003\n  -0.11828417]\n [-0.25679386  0.17689541  0.14481604 ... -0.05323165 -0.06797622\n  -0.1265846 ]\n ...\n [-0.10346146  0.09272058  0.13665344 ... -0.01720842 -0.09577209\n   0.117849  ]\n [ 0.03654969 -0.06829486  0.17252739 ... -0.12632485  0.15715264\n  -0.05995742]\n [-0.02302142  0.09354658 -0.01143148 ... -0.07136334 -0.24419968\n  -0.12274659]]"
        ],
        "v_bias_list":	[
            "[ 2.8728521e-01  3.8426375e+00 -1.6220729e-01  3.2686096e-02\n  1.9688812e+00 -2.1103671e+00 -7.1617764e-01 -1.0588992e+00\n -2.1196024e+00  1.5218449e+00  4.4728551e+00 -3.5401781e+00\n -2.4586284e+00  2.3811212e+00 -4.9464231e+00  1.2613197e-01\n  3.8105604e-01 -6.7425454e-01  2.2592587e+00 -3.1490660e+00\n  4.8331204e-01  1.5302364e+00 -1.8407941e+00  3.6464441e+00\n -2.3496184e+00  8.0568224e-01 -2.1289494e+00  1.6981646e+00\n  1.9688821e-01  2.8756700e+00 -1.7078832e+00 -6.5532243e-01\n  1.6768559e+00 -8.2477367e-01 -5.0504941e-01 -6.6345847e-01\n -1.9794015e+00 -7.1549767e-01  1.2538259e+00 -1.8193032e+00\n -3.2436587e-02 -2.0787468e+00  3.0273960e+00 -3.1987488e+00\n -3.6877177e+00  1.8648580e-02 -1.3860092e+00 -1.8168199e+00\n -2.1237888e+00  7.3483038e-01  2.7801228e+00 -2.3402476e+00\n -3.6449215e+00  9.1424966e-01 -1.4490216e+00  1.8337173e+00\n  2.4483190e+00 -1.7499419e+00  9.5341641e-01 -1.1281220e+00\n  2.4330606e+00 -4.1096255e-02 -4.1313052e+00 -3.6072237e+00\n -2.4142666e+00 -2.2989035e+00  1.0159655e+00 -3.7109568e+00\n -6.6360992e-01  2.8838291e+00  4.1880798e+00  5.3149176e-01\n  5.9270520e+00 -2.7510338e+00 -2.6152027e+00  2.3638153e+00\n  1.7240791e+00  1.4067092e-03 -1.4291748e+00  3.0455587e+00\n -3.9521250e-01 -1.5869622e+00 -2.6365399e+00 -4.3855896e+00\n -1.1526375e+00 -1.8621120e+00  2.5435367e+00  3.9322798e+00\n  7.4256939e-01  1.4234743e+00  3.8326933e+00 -3.2980902e+00\n -4.1689687e+00 -4.9088969e+00  3.1652567e-01  1.5129050e+00\n  2.1532664e+00  1.1805803e+00 -2.0281756e+00 -3.0353243e+00\n -2.7680227e-01  4.1109381e+00  2.4300162e-01 -1.9390495e+00\n -1.8675610e+00  1.4930197e+00 -4.1170016e-01 -4.5968819e+00\n  9.7102653e-03 -3.9591653e+00 -2.8049164e+00  2.1125731e+00\n -2.7266383e+00  2.6623394e+00 -6.8979114e-01 -4.7178701e-01\n -3.6245594e+00 -9.0229148e-01 -2.4983082e+00 -7.3328215e-01\n -1.2866664e+00 -3.0102971e-01 -1.8468926e+00  2.6177032e+00\n -1.6823702e+00 -2.2069683e+00  6.7781292e-02 -2.1352828e+00\n  2.9867435e+00 -5.1801962e-01 -2.5138860e+00 -1.0946879e+00\n  1.1088699e+00 -1.6060863e+00  1.5205122e+00  2.2827625e+00\n -2.8577917e+00 -4.7046795e+00  4.5781322e+00  5.8444686e+00\n  2.5180769e+00  2.6226630e+00  1.7675318e+00 -3.2629101e+00\n -4.8090734e+00 -1.0726124e+00 -1.9701030e+00 -2.1544309e-01\n  1.6047620e+00  1.9907918e+00 -8.1627297e-01  6.0488558e+00\n -1.9660916e+00  1.2780983e+00 -5.7249337e-01  2.2578394e-01\n  2.5573337e+00  2.8940828e+00  4.6426332e-01 -8.1743979e-01\n -5.2438612e+00 -1.4056755e+00  3.1505446e+00  5.3763592e-01\n -2.2670352e+00  1.5057850e+00  7.3321289e-01  3.1857462e+00\n -3.9498515e+00 -5.4430270e+00 -2.2996836e+00 -1.0309625e+00\n -3.7445259e-01 -6.2939924e-01 -2.0545390e+00 -1.7306226e+00\n  1.7417095e+00  2.6010883e-01 -1.4483088e+00  1.1759690e+00\n -7.7256620e-01 -2.6893599e+00 -2.7080209e+00 -1.9937794e+00\n -5.3456712e-01  6.3669771e-01  2.2668898e+00  1.7701540e+00\n -8.0491519e-01  8.5370702e-01  3.9352078e+00  4.1224784e-01\n -1.6944065e+00 -1.9606438e+00  1.8482527e+00  1.7772898e-01\n  3.2922950e+00 -9.7230190e-01  3.4209862e+00 -6.6457540e-01\n  3.2579184e+00 -2.3718383e+00  2.9444182e+00  1.5622143e+00\n  4.7154093e+00 -4.8605380e+00  1.7651815e+00  3.6887820e+00\n  2.0962422e+00 -6.7886993e-02  4.9579218e-01 -2.5917711e+00\n -4.9058586e-01  1.6748488e+00  2.1473675e+00  7.2150901e-02\n  4.1911402e+00  4.6031290e-01  2.8445990e+00  1.9275340e+00\n -1.9790283e+00  4.0234485e+00 -3.3195827e+00 -3.4086921e+00\n  7.2304428e-01  2.6421964e-01  2.4389601e+00  1.3869523e+00\n  2.0675154e+00  7.7543169e-02 -1.8826644e+00  2.7101247e+00\n  2.6876988e+00  3.0565612e+00 -2.5076385e+00 -2.7389562e+00\n  1.0811776e-01 -1.1146495e+00  2.8412905e-01 -5.2478701e-01\n -1.7950314e+00 -8.3059996e-01 -1.7158620e+00  6.5326852e-01\n  2.5054243e+00  3.5407281e+00 -1.2807691e+00  3.0582268e+00\n  3.8248983e-01 -4.0186353e+00 -4.2786059e+00  4.8027730e+00\n  5.8923948e-01  1.3126646e+00  2.3505661e+00 -1.3458961e+00]",
            "[ 1.889032    3.4299982   0.5278699  -5.1956763  -0.9002109   0.7138013\n  0.12740433 -0.35510856 -3.3451211   3.3832378   0.19854344  7.1385365\n -0.11589564  2.2401628   0.44893458  2.68463    -2.6840272   4.183318\n  0.15761226  0.12360391  3.064655    1.2259179   0.4185592  -1.67223\n  1.470325   -3.9022996   0.18342605  2.307808   -1.8237492  -4.2072163\n -2.4509463   0.9238013  -1.4480715   2.2995234   1.3588997   3.824685\n  1.7444596   3.1931736  -0.07952214  1.7390618  -3.7624235   3.2802184\n -0.56594855 -0.70858186 -0.9119292  -0.7193456   3.4332156  -1.3441074\n -1.2921178   1.816495    0.4382279   0.8852237  -2.1456184  -1.1011894\n -0.3254686   0.77802724 -3.3529584  -0.5665792   0.9048063   0.8611268\n -0.25694838 -2.2188685  -1.991023    1.3023988   5.140436    5.4657207\n  4.0416346   2.2630968  -1.1493587   1.3698236  -3.9184031   0.28064212\n -1.0190163  -1.7590623  -2.100941    5.1557937   2.3107584   3.9337146\n  2.6990895   0.22528717 -3.0050979  -0.8576413  -1.2638875   2.1485999\n  2.152075    4.965468   -1.4756173  -1.98153     2.9667242   8.462384\n  2.7833283   1.5402149  -5.4889703   6.088893    0.24909288 -1.7901533\n  4.4143195  -2.1655152   0.6064501   2.26182     1.3165255  -0.11358549\n -0.69538623  1.4178588   2.5120425   1.0371624   1.0660731  -3.485436\n  0.13387185 -0.56381303 -3.969091    3.265109    4.038562   -2.3439775\n  0.17645353  6.816169   -0.6912586  -1.4095045   5.5532923   2.4688551\n -1.3950387   3.7022572   2.3804142  -2.9520037   1.271003    0.62612826\n -2.603442    1.4317752 ]",
            "[-5.903611]"
        ],
        "v_weight_list":	[
            "[[-0.260364    2.2883458   1.8761746  ...  0.55555296 -2.8212523\n   1.3445256 ]\n [-0.49775136  2.1709638   0.6292121  ... -0.5928961   2.2044728\n   0.14896259]\n [ 7.975777    6.4553585   1.9725114  ... -1.6558415  -8.24293\n   9.518457  ]\n ...\n [-0.52812046 -0.9343593   1.3254402  ... -0.5346092  -1.1898919\n  -0.63850474]\n [ 1.4075882  -0.22281513  0.24633944 ...  0.6250075  -1.6611164\n   1.2676603 ]\n [-2.487176   -0.11050496 -1.0930349  ...  1.8552637   1.5585004\n  -1.1036165 ]]",
            "[[ 1.1784917   2.138588   -0.13655257 ...  2.1581666  -0.3141759\n   0.33781913]\n [ 1.3878075  -1.4799652   0.17471467 ...  0.33745268  2.099609\n  -1.5027696 ]\n [ 1.2056674  -1.8717335   0.9591418  ...  0.6421861   1.1611379\n  -1.609135  ]\n ...\n [ 0.13441807  0.65512615  0.7671379  ... -0.57661945 -1.6161461\n  -1.5355564 ]\n [-0.98651713 -1.9167689   1.2132357  ...  3.231202   -0.18320517\n   2.4215174 ]\n [ 2.3546896   1.0573742   2.1433244  ... -1.1676683   1.2933091\n   2.9639287 ]]",
            "[[ 0.78029275]\n [-1.8530215 ]\n [ 4.9557767 ]\n [ 3.5762303 ]\n [ 2.725626  ]\n [-0.82429427]\n [-3.9551685 ]\n [-4.4261217 ]\n [ 3.0313997 ]\n [-3.3256564 ]\n [ 5.642583  ]\n [-4.0067706 ]\n [-3.1469786 ]\n [-2.8736942 ]\n [ 3.2285638 ]\n [-3.6510072 ]\n [ 4.8174167 ]\n [-3.5017195 ]\n [-4.2254624 ]\n [-3.4206007 ]\n [-3.6962264 ]\n [ 3.9981909 ]\n [ 5.425198  ]\n [ 3.690284  ]\n [-5.823825  ]\n [ 4.942881  ]\n [ 4.095218  ]\n [ 3.591411  ]\n [-0.9488708 ]\n [ 3.6378014 ]\n [ 3.6096375 ]\n [-0.61776495]\n [ 2.4206128 ]\n [-3.1198666 ]\n [-2.0422726 ]\n [-2.8836114 ]\n [-2.9859812 ]\n [-3.0526264 ]\n [-3.4976032 ]\n [-4.168982  ]\n [ 3.0051427 ]\n [-4.0115    ]\n [ 4.0682163 ]\n [ 5.235078  ]\n [ 3.8709898 ]\n [ 4.2296176 ]\n [-3.2345867 ]\n [-3.4171193 ]\n [ 3.6774797 ]\n [-3.1397853 ]\n [ 3.859925  ]\n [-3.0033205 ]\n [ 3.596829  ]\n [ 2.795569  ]\n [-3.6795528 ]\n [ 2.981718  ]\n [ 4.2170115 ]\n [ 1.3536904 ]\n [-3.0943506 ]\n [-2.8373845 ]\n [-2.3655207 ]\n [ 3.226858  ]\n [ 3.6764114 ]\n [ 4.1071315 ]\n [-3.464384  ]\n [-3.0570953 ]\n [-2.8341951 ]\n [-4.9209228 ]\n [-4.235621  ]\n [ 3.7709959 ]\n [ 2.9224102 ]\n [ 3.2760627 ]\n [ 3.5585845 ]\n [ 4.4337845 ]\n [ 5.1816034 ]\n [-3.4690125 ]\n [-1.8948112 ]\n [-2.4123428 ]\n [-5.165347  ]\n [-1.6720476 ]\n [ 2.4419174 ]\n [-4.97491   ]\n [-2.7958338 ]\n [-2.1329966 ]\n [-3.1972523 ]\n [-3.3710554 ]\n [ 6.4996758 ]\n [ 3.3509154 ]\n [-4.5276637 ]\n [-3.9323084 ]\n [-3.1903985 ]\n [-5.0631866 ]\n [ 3.6936216 ]\n [-3.8311079 ]\n [ 2.8669827 ]\n [-4.5995746 ]\n [-3.6538038 ]\n [ 4.732058  ]\n [-4.246255  ]\n [-3.52716   ]\n [ 4.747945  ]\n [ 3.8273106 ]\n [-3.966167  ]\n [ 3.1744633 ]\n [-4.066493  ]\n [-2.7642086 ]\n [ 1.7364339 ]\n [ 4.8002176 ]\n [-2.7488801 ]\n [-1.472086  ]\n [ 2.952331  ]\n [-2.894487  ]\n [-5.1418805 ]\n [-2.404551  ]\n [-3.0624273 ]\n [-4.675708  ]\n [-3.3597112 ]\n [-5.5301137 ]\n [-2.7638702 ]\n [-2.7691646 ]\n [ 3.8039188 ]\n [-3.1173534 ]\n [ 4.8477464 ]\n [ 4.156288  ]\n [ 4.798101  ]\n [ 3.1352534 ]\n [ 4.507544  ]\n [-4.7631574 ]]"
        ]
    },
    "actor_critic":	"my_mlp_actor_critic",
    "clip_ratio":	0.2,
    "env_fn":	"Anymal",
    "epochs":	100,
    "gamma":	0.993,
    "lam":	0.97,
    "logger":	{
        "<spinup.utils.logx.EpochLogger object at 0x7f6bddf1f940>":	{
            "epoch_dict":	{},
            "exp_name":	null,
            "first_row":	true,
            "log_current_row":	{},
            "log_headers":	[],
            "output_dir":	"/home/steven/Documents/Shawn_DRL/experiments/Wed May 20 16:36:26 2020",
            "output_file":	{
                "<_io.TextIOWrapper name='/home/steven/Documents/Shawn_DRL/experiments/Wed May 20 16:36:26 2020/progress.txt' mode='w' encoding='UTF-8'>":	{
                    "mode":	"w"
                }
            }
        }
    },
    "logger_kwargs":	{
        "output_dir":	"/home/steven/Documents/Shawn_DRL/experiments/Wed May 20 16:36:26 2020"
    },
    "max_ep_len":	60,
    "on_policy":	true,
    "pi_lr":	0.0003,
    "prev_epochs":	700,
    "save_freq":	10,
    "seed":	0,
    "steps_per_epoch":	60000,
    "target_kl":	0.01,
    "train_pi_iters":	80,
    "train_v_iters":	80,
    "vf_lr":	0.001
}