{
    "GUI":	false,
    "ac_kwargs":	{
        "activation":	"tanh",
        "hidden_sizes":	[
            256,
            128
        ],
        "log_std":	"[-3.0638647 -3.0635672 -3.063434  -3.063627  -3.0635967 -3.064418\n -3.0634496 -3.0636795 -3.0639668 -3.0638947 -3.0636396 -3.0635104]",
        "pi_bias_list":	[
            "[-1.0623883e-02  2.7424621e-03  4.7126478e-03 -2.0176284e-03\n  1.7709290e-03 -5.3461310e-03 -3.7886291e-03 -6.0282508e-03\n  1.1137267e-02 -3.9420030e-03  7.0375577e-03 -2.8846608e-03\n -3.9678342e-03  1.0806674e-02  4.2385110e-03 -3.1724579e-03\n -7.6111821e-03 -2.8349312e-03 -5.8485717e-03  3.4131864e-04\n -1.4316781e-02 -9.9140983e-03  3.8050518e-03  2.9825799e-03\n -1.0058269e-02 -8.7084062e-03  6.3359858e-03  9.3806237e-03\n  1.2775598e-03 -1.6204693e-03  6.4847376e-03 -4.3085977e-03\n -7.7323476e-03  7.0178891e-03  4.9247191e-04  1.4365697e-03\n -6.1871437e-03  6.5795891e-03 -1.8396291e-03  4.6259258e-03\n  1.2510934e-02  4.6284394e-03 -3.0427452e-03 -2.6706185e-03\n  2.8864616e-03  3.9203968e-03 -1.7080089e-02  7.5027212e-03\n -3.5835730e-03 -1.2236855e-02  4.5402697e-03  3.8433906e-03\n -5.1157782e-03 -5.9980755e-03 -8.2899267e-03 -3.3206767e-03\n  1.9196122e-03  3.5221253e-03  3.3037059e-02 -7.5177811e-03\n  1.1269202e-02 -7.6919743e-03  3.2839184e-03  5.4015541e-03\n  3.4410224e-04  8.7811649e-03 -2.1458883e-03 -6.2470594e-03\n  1.3787948e-03 -3.0869641e-03 -1.1702370e-02  5.6672860e-03\n  6.7153526e-03 -9.2446068e-03  9.7751552e-03  2.6016377e-03\n -2.4797803e-02 -3.2841701e-03 -2.3411540e-02  1.6981371e-02\n  3.4058930e-03  3.8238652e-03  4.3300921e-03  4.2392961e-03\n  2.3671357e-02  5.0198943e-03 -3.0504486e-03  5.1057399e-03\n -1.5109474e-02  4.7286334e-03  2.6057120e-02 -9.5877768e-03\n  1.4728908e-03  1.4522718e-02  6.4590881e-03  7.2039287e-03\n  3.3075464e-04 -3.2391087e-03  8.6700674e-03  2.0930752e-02\n -1.0172968e-03  3.0347421e-03 -8.9332573e-03 -9.6284244e-03\n  2.5454920e-02 -8.1087211e-03 -6.3290992e-03 -9.5811356e-03\n -6.7449198e-03 -8.7869987e-03 -3.2961497e-03 -1.9428290e-02\n  1.0131246e-03 -2.8560625e-03  1.1720942e-02  4.4416077e-03\n  9.4436370e-03  3.3653760e-03  1.2826882e-03  8.1549827e-03\n -3.0440933e-03  3.2969345e-03 -4.0680547e-03  5.3606869e-04\n -3.2939386e-02 -1.1750101e-02  7.9202149e-03 -4.6785190e-03\n  1.6298868e-02 -6.4677140e-03 -5.7224999e-04  8.4432932e-03\n -2.4349651e-04  5.6027444e-03 -4.4464655e-03  9.4088661e-03\n  9.4800619e-03  4.2491821e-03  7.9120183e-03  6.8173921e-03\n -1.3448521e-02  7.8191014e-04  3.1383883e-03  1.0848518e-02\n  1.2321266e-02 -3.1275975e-03  1.8648097e-03  1.0251448e-02\n -1.3569866e-02  2.0185756e-02  6.4522740e-03  1.3297801e-03\n  2.6799913e-03  1.4668345e-03 -4.0276162e-03  1.3922151e-02\n  2.2891047e-03  6.8911160e-03  4.9546221e-03 -1.0387854e-02\n -2.9237126e-03  9.4279991e-03  7.1602054e-03 -2.9327597e-03\n  1.3293979e-02 -5.2122469e-03 -3.7614941e-03 -1.7187629e-02\n -2.0220241e-02  3.8434837e-03 -2.1740915e-03 -5.6713778e-03\n -4.7327513e-03 -2.8577459e-03  2.6964969e-03 -5.0795819e-03\n -1.6042650e-02  4.8297122e-03  9.8787982e-04  4.1627879e-03\n  9.6489955e-03  1.6964037e-02 -2.3610564e-03  1.0084613e-02\n -2.0586475e-04  6.3277190e-03  8.4718354e-03 -2.7266899e-03\n -1.2683596e-02 -6.1281961e-03 -2.2994848e-03 -5.0856462e-03\n -8.2113221e-03  2.7711995e-04  3.0323479e-03  7.8744646e-03\n -9.4318492e-03 -1.4379700e-03  8.4755123e-03 -2.9466297e-03\n  7.3895911e-03  1.2342038e-02 -1.9794528e-03 -3.1595770e-02\n -8.7286737e-03  2.2899804e-03 -1.6331036e-02 -7.8121905e-04\n  3.1506491e-03 -1.5015145e-02 -8.2348846e-03  6.2815653e-04\n -5.6900331e-03 -1.0233382e-02 -6.8548541e-03 -2.5936535e-03\n  2.0724663e-03 -6.3613155e-03 -7.5640315e-03  1.4710397e-02\n  5.2929791e-03 -9.1994222e-04  8.5447328e-03  5.2290522e-03\n -8.7238420e-03 -7.5594806e-03  1.4440650e-02  1.0423734e-02\n -7.1060536e-03 -2.4456445e-03  2.1403513e-03 -1.2753404e-03\n  9.6725319e-03  1.3764218e-03 -7.7767270e-03  1.6387397e-02\n  1.3199343e-02 -4.2715576e-03 -3.4488675e-03  9.6095653e-05\n -5.1518311e-03  8.5950382e-03 -2.8780792e-03  4.7838138e-03\n  9.4338483e-04  3.4219983e-03  7.5770398e-03  5.1256358e-03\n  4.4415561e-03 -1.3807346e-02  6.7815627e-03  2.0715242e-02\n -2.5138652e-03 -5.7058269e-03  5.2247164e-03  5.5404440e-03]",
            "[ 6.65161619e-03  4.68955794e-03  3.84135172e-03 -1.25634472e-03\n  1.40586561e-02  1.74336210e-02  7.99823646e-03  3.18149943e-03\n -3.52689880e-03 -8.63006059e-03  3.34464130e-03 -2.99659092e-02\n -3.81287560e-03 -4.59534116e-03  9.55931749e-03  8.63022823e-03\n -1.21472403e-03 -7.62507087e-03 -1.13323645e-03  8.33881926e-03\n -7.84075703e-04 -3.86064453e-03  3.35521041e-03  3.29521438e-03\n  1.95036661e-02 -1.29633527e-02  2.24082236e-04  4.07323940e-03\n  1.21127884e-03  2.40222495e-02 -3.97516042e-03  8.37583840e-03\n  7.85723887e-03  1.03339208e-02  9.45971769e-05  2.51239608e-03\n  4.18378599e-03  6.71828352e-03  8.12461693e-03  7.69135309e-04\n -5.16174361e-03 -1.81246288e-02 -8.36035796e-03  1.76757742e-02\n  1.22739077e-02  6.07805932e-03  1.11710792e-02 -8.14448949e-03\n -4.48502274e-03 -1.61282683e-03  4.63908575e-02 -1.07977595e-02\n -8.24243855e-03  1.02490070e-03 -1.96098480e-02  4.55198344e-03\n -1.43452315e-02  8.39420222e-03  8.78362567e-04  2.33195582e-03\n  3.05634551e-03 -1.12386681e-02 -3.72329354e-03  3.49085242e-03\n  3.22738691e-04 -3.26114311e-03 -2.92853662e-03  1.00644268e-02\n  6.21669320e-03 -4.85334871e-03  5.44894207e-03  1.04320329e-02\n -5.67346672e-03 -1.08962450e-02  1.05738007e-02 -5.63920289e-03\n  4.45186859e-03  1.03314891e-02 -3.23771243e-03 -1.16996840e-02\n -8.00568424e-03  1.30901160e-03  5.33581898e-03 -9.77092050e-03\n -1.43072000e-02  7.77667668e-03  5.67206647e-03 -2.13642269e-02\n  7.62258284e-03 -8.12142249e-03  2.18547974e-02  5.26770810e-03\n  1.00388872e-02 -7.93268625e-03  1.21832145e-02 -8.76510050e-03\n  6.87733758e-03  1.18217580e-02  6.59252144e-03  4.26508952e-03\n -9.10395663e-03 -1.74755533e-03  3.79873961e-02  1.95041131e-02\n  6.33988529e-03 -9.28925909e-03 -1.46203479e-02  1.97627563e-02\n -1.11091388e-02  1.04717016e-02  3.33599793e-03  9.09529254e-03\n  7.96034373e-03 -4.94300993e-03  9.89686698e-04 -8.38503148e-03\n -8.52039363e-03  1.65264923e-02  1.26018627e-02  7.96492212e-03\n -8.11508764e-03 -1.69440825e-02 -2.53911992e-03  9.86761414e-03\n  4.24157176e-03  8.71928968e-03 -9.42124426e-03  5.04290732e-03]",
            "[ 0.00043148  0.002839   -0.00618825 -0.00671171 -0.0024725  -0.0097357\n  0.00290071 -0.00235465  0.00501808 -0.00108513 -0.01256616  0.00932402]"
        ],
        "pi_weight_list":	[
            "[[ 0.05658385 -0.02194145  0.04442604 ...  0.09731054 -0.1303026\n   0.06739992]\n [ 0.04232124 -0.11375238  0.10837736 ... -0.06722172 -0.08956399\n   0.02888951]\n [-0.09557404  0.00427835 -0.08853222 ... -0.08841654 -0.00044044\n  -0.07896812]\n ...\n [-0.03252371 -0.11380499  0.00761015 ... -0.03798636  0.09311172\n  -0.10325212]\n [-0.056332    0.01314195  0.01585467 ...  0.01329423 -0.12252941\n  -0.03787372]\n [-0.0012672  -0.04144122 -0.12695868 ...  0.02153791 -0.00063562\n   0.05320526]]",
            "[[ 0.04157537  0.06395912 -0.06226689 ...  0.065435   -0.00045814\n   0.12204   ]\n [-0.09486347 -0.11199005  0.06350183 ...  0.05339465  0.06776851\n  -0.0924795 ]\n [ 0.07843211 -0.09053754 -0.04968505 ... -0.010109   -0.07167118\n   0.07516655]\n ...\n [ 0.03176855  0.09127898  0.02690689 ...  0.03803449 -0.00352621\n   0.09115721]\n [-0.04369941  0.00180992  0.04857842 ...  0.0146961   0.02711732\n   0.10347192]\n [ 0.04817732  0.12410857  0.04522928 ... -0.0864799   0.03172915\n  -0.09807248]]",
            "[[ 0.10383157 -0.16260602 -0.05590771 ... -0.12722303  0.13186897\n   0.12469389]\n [-0.09609106  0.13473135 -0.06941891 ... -0.06645536 -0.09603276\n  -0.1436697 ]\n [-0.09701602  0.09118902  0.10259407 ... -0.05311449  0.02575984\n   0.03318132]\n ...\n [-0.12541793  0.08251897  0.1478058  ... -0.02062317 -0.07608651\n   0.10918825]\n [ 0.03672423 -0.09828497  0.15947835 ... -0.14838524  0.14409798\n  -0.00441155]\n [ 0.13625863  0.17581093  0.09321362 ... -0.19564003 -0.16136666\n  -0.18167669]]"
        ],
        "v_bias_list":	[
            "[ 0.0380101   0.01853316  0.00866052 -0.00527743 -0.02734677 -0.09965877\n -0.04755019  0.01167411 -0.08488689 -0.00733313 -0.01044206  0.03929957\n  0.00939481  0.00731444 -0.00198331 -0.00560137  0.02125023  0.03295929\n  0.00540285 -0.01959212 -0.01544737 -0.02320187  0.03375312  0.01300471\n -0.05436826  0.03998264  0.00180747  0.03905323  0.00087472 -0.00141148\n  0.00733509  0.03286386 -0.03674113 -0.00178115  0.01487677 -0.07203708\n  0.03750668 -0.01541462 -0.01058507  0.02980222 -0.05711642  0.03902603\n -0.03878329  0.01684985 -0.0509422   0.01058314 -0.03100695  0.02934442\n  0.02359851  0.01417364  0.02941116 -0.02033427 -0.03083637  0.00637412\n  0.08882301 -0.01480222 -0.00752269  0.00954847 -0.03499435  0.06420647\n  0.01105703 -0.00981673 -0.01572679  0.00433746 -0.02345585 -0.02672649\n  0.00549628  0.00619876 -0.00312821  0.02499278  0.01926243 -0.01905524\n -0.00895983 -0.06534712  0.02037728  0.0129815   0.03717517  0.10099182\n  0.01062909  0.06201603 -0.00257179  0.02192497  0.04423457 -0.05738493\n -0.05835437 -0.00260366  0.02112476  0.03864883  0.05882665  0.04879564\n  0.02238094 -0.01797029  0.03601416 -0.01547587 -0.00108769 -0.00762033\n  0.01865096 -0.02048077 -0.05710271 -0.00942337  0.01404084  0.01017761\n -0.01947506 -0.01767163 -0.06251267 -0.00930357  0.02384625 -0.05970096\n -0.02224608  0.0245976   0.00161214  0.00837059 -0.02937962  0.04997773\n  0.0361794  -0.0019895   0.00132797 -0.00825064  0.00295305 -0.00270676\n -0.09438802 -0.00305844 -0.00680241  0.09946488  0.00392684  0.01302258\n  0.01681048 -0.07393796  0.02003374 -0.0618114  -0.02577856  0.02570518\n  0.04548991  0.03976335  0.02351382  0.01942181  0.00365742 -0.02419603\n  0.02341058  0.02631393  0.02670576 -0.01605106  0.03251045  0.01580216\n  0.04594746 -0.06173037 -0.09089299  0.01396269  0.00402339  0.03277799\n  0.01585806  0.01303423 -0.02260683  0.00804828  0.09192037  0.01810193\n -0.00708453 -0.02341485  0.02311382  0.01493233 -0.05843013  0.03092096\n  0.01340768 -0.02328623  0.02513796 -0.01361664  0.02244429  0.05237495\n -0.01847535 -0.02672844  0.04182006 -0.11542256 -0.01060018  0.02325945\n  0.00288201  0.01719101  0.00467287  0.00049757 -0.02336093 -0.01199823\n  0.01945424  0.01045826 -0.02765112  0.01358812  0.0423473   0.03205349\n  0.03471022  0.04282087 -0.05053823  0.0353117  -0.05689132  0.10836986\n -0.00211681 -0.04403647  0.00924847  0.02131207  0.02564692 -0.00915142\n  0.00940404 -0.03655187  0.05376766  0.00887494 -0.00538619 -0.03926828\n  0.02381985 -0.00658914  0.01153194  0.06247515  0.01706974 -0.02322158\n -0.03070802  0.04036996 -0.01092855 -0.04325267  0.0182048   0.03954916\n  0.02393819  0.00578585  0.05706125  0.03377451 -0.02264074  0.028542\n -0.05988769 -0.0391253   0.02328306  0.03135093 -0.01214356  0.02298231\n  0.02018823 -0.08475034 -0.02180404  0.02010981  0.02659548  0.03154659\n -0.01037068 -0.00485001  0.00081724 -0.02344547  0.00916872 -0.0759499\n  0.01531146  0.03446098 -0.02491002 -0.03574835 -0.02376809 -0.00287649\n -0.00047345  0.02830384 -0.01228446 -0.04557095 -0.07308175  0.1188942\n  0.12086557 -0.0242794  -0.03017922  0.04467898]",
            "[ 0.01582609  0.26746652 -0.03730663  0.02665756 -0.01340217  0.12315349\n -0.11971618 -0.2564018  -0.13093393  0.00750854 -0.02065383  0.04945592\n -0.16055389 -0.0158009   0.0209773  -0.04195555 -0.02393973  0.07613622\n  0.21294963 -0.04095023  0.05203955  0.01188134  0.27332506 -0.06328665\n -0.01183935  0.04961441  0.03570852  0.07636892 -0.1948094  -0.07310453\n -0.02641113 -0.01927937 -0.02322283 -0.02915645  0.00554215 -0.05753199\n  0.01099878  0.03277547 -0.26302204 -0.01321044 -0.04822386 -0.00759221\n  0.01007454 -0.0655292   0.25064832 -0.11910678  0.01054313  0.120915\n  0.01514192 -0.01742411  0.00888277  0.22896631 -0.00598906 -0.01352833\n -0.01766325  0.10105262 -0.12600733 -0.12191678 -0.05657217  0.24890967\n -0.04166303 -0.02080652  0.0911224   0.20071197 -0.03779285 -0.01086689\n  0.01012739 -0.00756427  0.02650696  0.04757142 -0.01310418 -0.2242775\n  0.00897473  0.07627623 -0.002925   -0.01272134  0.22829191  0.04307722\n  0.01907901  0.05657393  0.03802901  0.03171407 -0.25488064 -0.05025363\n  0.2627903   0.01952878 -0.04209257  0.06765504  0.06919355  0.02710593\n -0.04269428  0.04512571 -0.14134556  0.01679144 -0.03810745  0.00710175\n  0.22945863 -0.10783056  0.01240134  0.00804212  0.26260254 -0.02810018\n  0.07088649  0.09152522  0.01120403 -0.03378564  0.10134231 -0.09241558\n  0.01512075 -0.22334664 -0.06734986 -0.05604883 -0.01087933  0.10563719\n -0.04903922  0.07968216 -0.25633344  0.06072997  0.02336144  0.03231591\n -0.14741766  0.13803412  0.0037883  -0.02363142  0.0933832   0.02786021\n  0.06762863 -0.02866344]",
            "[-0.03815594]"
        ],
        "v_weight_list":	[
            "[[ 0.07775985  0.08274556  0.27254495 ... -0.08966377 -0.05852589\n   0.110044  ]\n [ 0.06523885  0.01362632  0.09113723 ... -0.09085415 -0.04036143\n   0.05570991]\n [-0.03635496  0.23378445  0.07700591 ... -0.237481   -0.11908257\n   0.38393673]\n ...\n [ 0.04929952  0.12400453 -0.11198954 ... -0.02242021  0.16844968\n  -0.01159563]\n [ 0.03329055  0.1045786  -0.12757242 ... -0.04650307 -0.0329657\n  -0.02972291]\n [-0.04691453  0.15035772 -0.28919715 ...  0.07097774  0.04991924\n  -0.22291166]]",
            "[[-0.0686931  -0.04304156 -0.01035359 ...  0.1163723  -0.06679005\n  -0.07291242]\n [-0.08419181  0.24538755 -0.07141301 ...  0.12956114 -0.07822352\n   0.10133579]\n [ 0.04143103  0.09782998 -0.10997929 ...  0.01170448 -0.00390061\n   0.01435718]\n ...\n [-0.03214804 -0.22138338  0.0813158  ... -0.04450211 -0.09508874\n  -0.11475576]\n [ 0.18065792  0.0802347   0.19172576 ...  0.2630478  -0.10305854\n  -0.0144822 ]\n [-0.02695019  0.10588808  0.28486705 ... -0.15110804  0.1666478\n   0.08635514]]",
            "[[-7.90576413e-02]\n [-1.62722632e-01]\n [ 4.33848016e-02]\n [-6.80346191e-02]\n [ 1.12014655e-04]\n [-9.03997570e-02]\n [ 1.84822157e-01]\n [ 2.41718680e-01]\n [ 2.03706086e-01]\n [-5.84010780e-02]\n [-1.84405417e-06]\n [ 1.18164979e-02]\n [ 8.57666209e-02]\n [-2.85249844e-04]\n [-3.75186391e-02]\n [-6.31671515e-04]\n [ 1.27982855e-01]\n [-1.79761872e-01]\n [-1.58064142e-01]\n [ 9.40827876e-02]\n [-1.33227193e-04]\n [ 4.05920995e-03]\n [-1.98768705e-01]\n [ 1.44417062e-01]\n [ 1.45089565e-04]\n [-5.87396659e-02]\n [-2.92495098e-02]\n [-1.27814099e-01]\n [ 2.28214145e-01]\n [-8.46064910e-02]\n [ 7.96027668e-03]\n [-4.44165235e-05]\n [-1.44333299e-02]\n [-2.24724208e-05]\n [ 3.46761444e-05]\n [ 4.45290236e-03]\n [-1.04501307e-01]\n [-1.92698899e-05]\n [ 1.62646800e-01]\n [-2.44761258e-02]\n [ 6.64183721e-02]\n [-1.37049973e-01]\n [-1.42809078e-01]\n [ 2.12950855e-01]\n [-1.54720843e-01]\n [ 1.54714882e-01]\n [-2.29289103e-02]\n [ 1.49861038e-01]\n [-1.39501207e-02]\n [ 6.31429657e-06]\n [-1.08602785e-01]\n [-1.33132741e-01]\n [-3.18284817e-02]\n [ 6.37748241e-02]\n [-6.24470704e-05]\n [-1.50714427e-01]\n [ 8.56152251e-02]\n [ 1.59156904e-01]\n [-3.18728015e-02]\n [-1.26417309e-01]\n [ 1.19780526e-01]\n [ 3.78709920e-02]\n [-1.08654298e-01]\n [-1.43312395e-01]\n [-2.31583108e-05]\n [-1.10781170e-01]\n [-7.83488750e-02]\n [ 5.50069101e-02]\n [-8.45710383e-05]\n [-9.80915353e-02]\n [-7.60501644e-06]\n [ 1.82669565e-01]\n [ 9.42952465e-05]\n [ 2.22084476e-04]\n [-4.47916391e-05]\n [ 6.97975159e-02]\n [-9.87096131e-02]\n [-4.67045307e-02]\n [-8.46339462e-05]\n [-3.62766422e-02]\n [ 1.14594193e-04]\n [-6.51053041e-02]\n [ 1.49655849e-01]\n [ 1.57779858e-01]\n [-1.99730486e-01]\n [ 1.62666402e-05]\n [ 1.48250699e-01]\n [ 1.50561027e-05]\n [-1.10699266e-01]\n [-1.23644680e-01]\n [-2.55638588e-05]\n [ 4.38225176e-03]\n [ 1.60238937e-01]\n [ 7.28076411e-05]\n [ 3.91464233e-02]\n [ 3.27930247e-05]\n [-4.48102243e-02]\n [ 2.41629859e-05]\n [ 1.01453371e-01]\n [-4.95497584e-02]\n [-2.21052617e-01]\n [-3.12906737e-03]\n [-4.48523611e-02]\n [-1.90972269e-01]\n [ 9.20271850e-05]\n [ 3.67340259e-02]\n [-1.14202932e-01]\n [ 1.35191366e-01]\n [ 8.48470256e-02]\n [ 1.86361596e-01]\n [-5.55280640e-05]\n [-7.91663378e-02]\n [-4.44676116e-05]\n [-1.21987820e-01]\n [ 8.99173245e-02]\n [-2.17266127e-01]\n [ 1.91009402e-01]\n [ 5.72558201e-05]\n [-7.35384747e-02]\n [ 1.15324736e-01]\n [ 1.66363746e-01]\n [-6.91646934e-02]\n [-7.57820383e-02]\n [ 4.63973396e-02]\n [-2.29952224e-02]\n [ 6.42131716e-02]\n [-1.10044979e-01]\n [ 2.03449335e-02]]"
        ]
    },
    "actor_critic":	"my_mlp_actor_critic",
    "clip_ratio":	0.2,
    "env_fn":	"Anymal",
    "epochs":	6000,
    "gamma":	0.99,
    "lam":	0.97,
    "logger":	{
        "<spinup.utils.logx.EpochLogger object at 0x7f38bd9ab400>":	{
            "epoch_dict":	{},
            "exp_name":	null,
            "first_row":	true,
            "log_current_row":	{},
            "log_headers":	[],
            "output_dir":	"/home/shawn/Documents/DRL/experiments/Fri May  1 23:29:25 2020",
            "output_file":	{
                "<_io.TextIOWrapper name='/home/shawn/Documents/DRL/experiments/Fri May  1 23:29:25 2020/progress.txt' mode='w' encoding='UTF-8'>":	{
                    "mode":	"w"
                }
            }
        }
    },
    "logger_kwargs":	{
        "output_dir":	"/home/shawn/Documents/DRL/experiments/Fri May  1 23:29:25 2020"
    },
    "max_ep_len":	4000,
    "on_policy":	false,
    "pi_lr":	0.0003,
    "prev_epochs":	2000,
    "save_freq":	10,
    "seed":	0,
    "steps_per_epoch":	4000,
    "target_kl":	1.0,
    "train_pi_iters":	80,
    "train_v_iters":	80,
    "vf_lr":	0.001
}